{"learner":{"attributes":{"best_iteration":"33","best_ntree_limit":"34","best_score":"0.756453","scikit_learn":"{\"use_label_encoder\": true, \"n_estimators\": 50, \"objective\": \"binary:logistic\", \"max_depth\": 3, \"learning_rate\": 0.01, \"verbosity\": null, \"booster\": null, \"tree_method\": null, \"gamma\": 0.0, \"min_child_weight\": null, \"max_delta_step\": null, \"subsample\": null, \"colsample_bytree\": 0.1, \"colsample_bylevel\": null, \"colsample_bynode\": null, \"reg_alpha\": null, \"reg_lambda\": null, \"scale_pos_weight\": null, \"base_score\": null, \"missing\": NaN, \"num_parallel_tree\": null, \"random_state\": null, \"n_jobs\": null, \"monotone_constraints\": null, \"interaction_constraints\": null, \"importance_type\": null, \"gpu_id\": null, \"validate_parameters\": null, \"predictor\": null, \"enable_categorical\": false, \"classes_\": [0, 1], \"n_classes_\": 2, \"_le\": {\"classes_\": [0, 1]}, \"evals_result_\": {\"validation_0\": {\"auc\": [0.514031, 0.628827, 0.670975, 0.693836, 0.688903, 0.690038, 0.691669, 0.719261, 0.716822, 0.710733, 0.710528, 0.711582, 0.713009, 0.711587, 0.71109, 0.709438, 0.706499, 0.716454, 0.717294, 0.735474, 0.736367, 0.747381, 0.746267, 0.74459, 0.751917, 0.751099, 0.75247, 0.753615, 0.754266, 0.753895, 0.753038, 0.752802, 0.751394, 0.756453, 0.755963, 0.75523, 0.755225, 0.755422, 0.755165, 0.754458, 0.753407, 0.752811, 0.752536, 0.752323, 0.75238, 0.751754, 0.755906, 0.755413, 0.755987, 0.755676]}}, \"_estimator_type\": \"classifier\"}"},"feature_names":["credit","gender","age","bill_sep","bill_aug","bill_jul","bill_jun","bill_may","bill_apr","prev_payment_sep","prev_payment_aug","prev_payment_jul","prev_payment_jun","prev_payment_may","prev_payment_apr","education_1","education_2","education_3","education_4","education_5","education_6","marital_status_1","marital_status_2","marital_status_3","late_payment_sep","late_payment_aug","late_payment_jul","late_payment_jun","late_payment_may","late_payment_apr"],"feature_types":["float","int","float","float","float","float","float","float","float","float","float","float","float","float","float","int","int","int","int","int","int","int","int","int","int","int","int","int","int","int"],"gradient_booster":{"model":{"gbtree_model_param":{"num_trees":"50","size_leaf_vector":"0"},"tree_info":[0,0,0,0,0,0,0,0,0,0,0,0,0,0,0,0,0,0,0,0,0,0,0,0,0,0,0,0,0,0,0,0,0,0,0,0,0,0,0,0,0,0,0,0,0,0,0,0,0,0],"trees":[{"base_weights":[-0E0,1.1458398E-1,-2.2473805E-1,1.3844997E-1,-1.0029325E0,-5.677966E-1,-1.5411407E-1,4.453441E-2,2.566572E-1,-1.0955414E0,6.451613E-2,-8.197767E-1,-3.656999E-1,8.113591E-2,-2.4822263E-1],"categories":[],"categories_nodes":[],"categories_segments":[],"categories_sizes":[],"default_left":[true,true,true,true,true,true,true,false,false,false,false,false,false,false,false],"id":0,"left_children":[1,3,5,7,9,11,13,-1,-1,-1,-1,-1,-1,-1,-1],"loss_changes":[1.5829373E2,1.0872169E2,5.02041E1,4.425025E1,8.498085E0,1.7727432E1,3.816017E1,0E0,0E0,0E0,0E0,0E0,0E0,0E0,0E0],"parents":[2147483647,0,0,1,1,2,2,3,3,4,4,5,5,6,6],"right_children":[2,4,6,8,10,12,14,-1,-1,-1,-1,-1,-1,-1,-1],"split_conditions":[-1.06344596E-1,8.355535E-2,-3.7219584E-2,-4.9565786E-1,-1.2971772E-1,5E-1,2.9883066E-1,4.453441E-4,2.566572E-3,-1.0955413E-2,6.4516126E-4,-8.197767E-3,-3.6569987E-3,8.1135903E-4,-2.4822264E-3],"split_indices":[3,6,6,6,3,16,3,0,0,0,0,0,0,0,0],"split_type":[0,0,0,0,0,0,0,0,0,0,0,0,0,0,0],"sum_hessian":[6.145E3,4.07025E3,2.07475E3,3.986E3,8.425E1,3.53E2,1.72175E3,2.222E3,1.764E3,7.75E1,6.75E0,1.5575E2,1.9725E2,4.92E2,1.22975E3],"tree_param":{"num_deleted":"0","num_feature":"30","num_nodes":"15","size_leaf_vector":"0"}},{"base_weights":[-3.4126483E-6,-2.4009266E-1,1.1827351E0,1.3463034E-1,-5.288748E-1,1.1992679E0,4.1010752E-1,4.106268E-1,-3.421227E-2,-5.1903397E-1,-1.4804708E0,1.2782269E0,1.0953598E0,6.152128E-2,1.0993445E0],"categories":[],"categories_nodes":[],"categories_segments":[],"categories_sizes":[],"default_left":[true,true,true,true,true,true,true,false,false,false,false,false,false,false,false],"id":1,"left_children":[1,3,5,7,9,11,13,-1,-1,-1,-1,-1,-1,-1,-1],"loss_changes":[1.7455164E3,5.5301324E2,1.27578125E1,1.0368715E2,2.6257446E1,6.927368E0,5.5183578E0,0E0,0E0,0E0,0E0,0E0,0E0,0E0,0E0],"parents":[2147483647,0,0,1,1,2,2,3,3,4,4,5,5,6,6],"right_children":[2,4,6,8,10,12,14,-1,-1,-1,-1,-1,-1,-1,-1],"split_conditions":[5E-1,-4.9880207E-1,1.3673484E0,-8.8758343E-1,5E-1,-6.5431464E-1,2.6114488E0,4.106268E-3,-3.421227E-4,-5.1903394E-3,-1.4804708E-2,1.2782268E-2,1.0953598E-2,6.152128E-4,1.0993444E-2],"split_indices":[29,0,0,0,19,0,0,0,0,0,0,0,0,0,0],"split_type":[0,0,0,0,0,0,0,0,0,0,0,0,0,0,0],"sum_hessian":[6.1449893E3,5.1087407E3,1.0362487E3,2.2237466E3,2.8849941E3,1.0139987E3,2.2249914E1,8.4349915E2,1.3802474E3,2.8569941E3,2.7999893E1,5.697494E2,4.442493E2,1.5499963E1,6.749951E0],"tree_param":{"num_deleted":"0","num_feature":"30","num_nodes":"15","size_leaf_vector":"0"}},{"base_weights":[-2.2505287E-7,-2.9166272E-1,1.2184433E0,-3.6413178E-1,6.8869376E-1,9.5038915E-1,1.4059548E0,-5.5733904E-2,-6.3459694E-1,9.655909E-1,5.178395E-1,1.0441326E0,5.908387E-1,1.4409381E0,1.1885524E0],"categories":[],"categories_nodes":[],"categories_segments":[],"categories_sizes":[],"default_left":[true,true,true,true,true,true,true,false,false,false,false,false,false,false,false],"id":2,"left_children":[1,3,5,7,9,11,13,-1,-1,-1,-1,-1,-1,-1,-1],"loss_changes":[2.184455E3,3.5261496E2,5.833716E1,3.8523615E2,1.5667191E1,1.5957642E1,3.5843506E0,0E0,0E0,0E0,0E0,0E0,0E0,0E0,0E0],"parents":[2147483647,0,0,1,1,2,2,3,3,4,4,5,5,6,6],"right_children":[2,4,6,8,10,12,14,-1,-1,-1,-1,-1,-1,-1,-1],"split_conditions":[5E-1,5E-1,5E-1,-1.6223526E-1,2.6225645E-2,1.8747887E-1,7.079569E-1,-5.5733905E-4,-6.345969E-3,9.655909E-3,5.1783947E-3,1.0441326E-2,5.908387E-3,1.4409381E-2,1.1885524E-2],"split_indices":[27,29,29,12,12,12,12,0,0,0,0,0,0,0,0],"split_type":[0,0,0,0,0,0,0,0,0,0,0,0,0,0,0],"sum_hessian":[6.144914E3,4.9586963E3,1.1862175E3,4.61796E3,3.4073627E2,4.907468E2,6.954707E2,2.1582368E3,2.4597234E3,1.2824416E2,2.124921E2,3.8774774E2,1.0299905E2,5.942233E2,1.012474E2],"tree_param":{"num_deleted":"0","num_feature":"30","num_nodes":"15","size_leaf_vector":"0"}},{"base_weights":[8.084705E-6,7.1939296E-1,-2.0466007E-1,6.146484E-1,8.6832726E-1,-4.0111773E-2,-5.6452596E-1,6.652195E-1,7.685662E-3,9.3289006E-1,3.8971645E-1,4.0772763E-1,-1.316498E-1,6.5047026E-2,-6.52365E-1],"categories":[],"categories_nodes":[],"categories_segments":[],"categories_sizes":[],"default_left":[true,true,true,true,true,true,true,false,false,false,false,false,false,false,false],"id":3,"left_children":[1,3,5,7,9,11,13,-1,-1,-1,-1,-1,-1,-1,-1],"loss_changes":[9.0501404E2,2.0704773E1,2.8333978E2,2.4634125E1,1.6931915E1,1.3471431E2,8.307318E1,0E0,0E0,0E0,0E0,0E0,0E0,0E0,0E0],"parents":[2147483647,0,0,1,1,2,2,3,3,4,4,5,5,6,6],"right_children":[2,4,6,8,10,12,14,-1,-1,-1,-1,-1,-1,-1,-1],"split_conditions":[-9.141182E-1,-6.1687887E-1,5.827043E-1,-3.0112545E0,1.1734543E0,-8.104743E-1,-7.7356076E-1,6.6521945E-3,7.685662E-5,9.3289E-3,3.8971645E-3,4.077276E-3,-1.316498E-3,6.5047026E-4,-6.52365E-3],"split_indices":[9,12,9,12,12,12,12,0,0,0,0,0,0,0,0],"split_type":[0,0,0,0,0,0,0,0,0,0,0,0,0,0,0],"sum_hessian":[6.1447246E3,1.3604357E3,4.784289E3,8.01719E2,5.5871674E2,3.2838594E3,1.5004297E3,7.3997003E2,6.1748966E1,4.9147012E2,6.724659E1,5.567193E2,2.7271401E3,1.8374254E2,1.3166871E3],"tree_param":{"num_deleted":"0","num_feature":"30","num_nodes":"15","size_leaf_vector":"0"}},{"base_weights":[1.0770295E-5,6.945182E-2,-1.9404346E-1,1.3299511E-1,-8.038152E-2,-2.1753475E-1,2.3142602E-1,-4.5220467E-1,1.4497149E-1,1.2637217E-1,-1.673011E-1,-8.0370456E-2,-2.693927E-1,1.2624853E0,1.7846808E-1],"categories":[],"categories_nodes":[],"categories_segments":[],"categories_sizes":[],"default_left":[true,true,true,true,true,true,true,false,false,false,false,false,false,false,false],"id":4,"left_children":[1,3,5,7,9,11,13,-1,-1,-1,-1,-1,-1,-1,-1],"loss_changes":[8.282782E1,4.31095E1,1.624067E1,2.2346298E1,2.4258293E1,1.090136E1,4.4291453E0,0E0,0E0,0E0,0E0,0E0,0E0,0E0,0E0],"parents":[2147483647,0,0,1,1,2,2,3,3,4,4,5,5,6,6],"right_children":[2,4,6,8,10,12,14,-1,-1,-1,-1,-1,-1,-1,-1],"split_conditions":[1.2159084E-1,5E-1,3.7045832E0,-7.4287367E-1,-7.338958E-1,4.3158525E-1,3.7423067E0,-4.5220465E-3,1.4497149E-3,1.2637217E-3,-1.673011E-3,-8.0370455E-4,-2.693927E-3,1.2624852E-2,1.7846808E-3],"split_indices":[6,15,6,6,6,6,6,0,0,0,0,0,0,0,0],"split_type":[0,0,0,0,0,0,0,0,0,0,0,0,0,0,0],"sum_hessian":[6.1446265E3,4.525756E3,1.6188704E3,3.1780706E3,1.3476855E3,1.5346282E3,8.424216E1,6.299906E1,3.1150713E3,3.987452E2,9.4894037E2,4.2172232E2,1.1129059E3,2.9997346E0,8.1242424E1],"tree_param":{"num_deleted":"0","num_feature":"30","num_nodes":"15","size_leaf_vector":"0"}},{"base_weights":[1.1854072E-5,3.551968E-1,-3.5929784E-1,6.464783E-1,1.7839655E-1,1.4470863E-1,-5.244686E-1,6.9661075E-1,3.457176E-1,-3.0581868E-1,2.0481762E-1,3.9653656E-1,-8.4907174E-2,-3.4331214E-1,-7.4114865E-1],"categories":[],"categories_nodes":[],"categories_segments":[],"categories_sizes":[],"default_left":[true,true,true,true,true,true,true,false,false,false,false,false,false,false,false],"id":5,"left_children":[1,3,5,7,9,11,13,-1,-1,-1,-1,-1,-1,-1,-1],"loss_changes":[7.8443726E2,1.5906906E2,2.5444217E2,1.7357208E1,2.4688786E1,4.368918E1,9.008942E1,0E0,0E0,0E0,0E0,0E0,0E0,0E0,0E0],"parents":[2147483647,0,0,1,1,2,2,3,3,4,4,5,5,6,6],"right_children":[2,4,6,8,10,12,14,-1,-1,-1,-1,-1,-1,-1,-1],"split_conditions":[-4.2104584E-1,-8.8758343E-1,-7.276954E-1,2.5564224E-2,-7.6704633E-1,-7.685697E-1,5.120294E-1,6.9661075E-3,3.457176E-3,-3.0581867E-3,2.0481762E-3,3.9653657E-3,-8.490717E-4,-3.4331214E-3,-7.4114865E-3],"split_indices":[0,0,14,14,4,4,0,0,0,0,0,0,0,0,0],"split_type":[0,0,0,0,0,0,0,0,0,0,0,0,0,0,0],"sum_hessian":[6.1445967E3,3.0900405E3,3.0545562E3,1.166143E3,1.9238975E3,7.5397644E2,2.3005798E3,9.984069E2,1.6773602E2,9.899812E1,1.8248994E3,3.592486E2,3.9472784E2,1.2544089E3,1.0461709E3],"tree_param":{"num_deleted":"0","num_feature":"30","num_nodes":"15","size_leaf_vector":"0"}},{"base_weights":[1.2016882E-5,-2.4761464E-1,1.2253749E0,-1.2046833E-1,-4.218764E-1,1.5694033E0,1.1833274E0,6.424944E-2,-1.8755627E-1,-4.4561163E-1,2.7662548E-1,9.842343E-1,1.6663219E0,-1.2603617E-1,1.1887941E0],"categories":[],"categories_nodes":[],"categories_segments":[],"categories_sizes":[],"default_left":[true,true,true,true,true,true,true,false,false,false,false,false,false,false,false],"id":6,"left_children":[1,3,5,7,9,11,13,-1,-1,-1,-1,-1,-1,-1,-1],"loss_changes":[1.8650259E3,1.13239716E2,1.3089844E1,3.666372E1,3.5876648E1,4.5684204E0,6.7695312E0,0E0,0E0,0E0,0E0,0E0,0E0,0E0,0E0],"parents":[2147483647,0,0,1,1,2,2,3,3,4,4,5,5,6,6],"right_children":[2,4,6,8,10,12,14,-1,-1,-1,-1,-1,-1,-1,-1],"split_conditions":[5E-1,-2.6660562E-1,-7.187284E-1,-7.5358266E-1,3.8293357E0,-7.549213E-1,-7.080051E-1,6.424944E-4,-1.8755626E-3,-4.4561164E-3,2.7662548E-3,9.842343E-3,1.6663218E-2,-1.2603616E-3,1.18879415E-2],"split_indices":[28,5,5,5,5,5,5,0,0,0,0,0,0,0,0],"split_type":[0,0,0,0,0,0,0,0,0,0,0,0,0,0,0],"sum_hessian":[6.1444272E3,5.1121416E3,1.0322859E3,2.9566082E3,2.1555334E3,1.0846993E2,9.238159E2,7.8773254E2,2.1688755E3,2.0850454E3,7.0488144E1,1.699769E1,9.1472244E1,3.7492409E0,9.2006665E2],"tree_param":{"num_deleted":"0","num_feature":"30","num_nodes":"15","size_leaf_vector":"0"}},{"base_weights":[1.7607701E-5,-4.125909E-1,1.2499254E0,-3.624082E-1,-5.153705E-1,1.2110375E0,1.3617027E0,-3.3485413E-1,-3.9329025E-1,-3.6067346E-1,-5.993794E-1,1.2529925E0,1.1601293E0],"categories":[],"categories_nodes":[],"categories_segments":[],"categories_sizes":[],"default_left":[true,true,true,true,true,true,false,false,false,false,false,false,false],"id":7,"left_children":[1,3,5,7,9,11,-1,-1,-1,-1,-1,-1,-1],"loss_changes":[3.1697114E3,2.3646057E1,4.9814453E0,2.513153E0,1.9454224E1,9.827881E-1,0E0,0E0,0E0,0E0,0E0,0E0,0E0],"parents":[2147483647,0,0,1,1,2,2,3,3,4,4,5,5],"right_children":[2,4,6,8,10,12,-1,-1,-1,-1,-1,-1,-1],"split_conditions":[5E-1,5E-1,5E-1,5E-1,5E-1,5E-1,1.3617027E-2,-3.3485412E-3,-3.9329026E-3,-3.6067346E-3,-5.993794E-3,1.25299245E-2,1.16012925E-2],"split_indices":[25,15,15,22,22,22,0,0,0,0,0,0,0],"split_type":[0,0,0,0,0,0,0,0,0,0,0,0,0],"sum_hessian":[6.1441562E3,4.619784E3,1.5243723E3,3.1072017E3,1.5125824E3,1.1397E3,3.8467245E2,1.6483392E3,1.4588623E3,5.341934E2,9.78389E2,6.1184625E2,5.2785364E2],"tree_param":{"num_deleted":"0","num_feature":"30","num_nodes":"13","size_leaf_vector":"0"}},{"base_weights":[2.1039477E-5,4.8711985E-1,-1.5190716E-1,1.0577866E-1,9.439137E-1,-1.3766492E-3,-3.617492E-1,1.9029273E-1,-2.9424292E-1,2.3595925E-1,9.6692514E-1,-3.2204083E-1,6.820084E-2,-7.4969566E-1,-2.8609595E-1],"categories":[],"categories_nodes":[],"categories_segments":[],"categories_sizes":[],"default_left":[true,true,true,true,true,true,true,false,false,false,false,false,false,false,false],"id":8,"left_children":[1,3,5,7,9,11,13,-1,-1,-1,-1,-1,-1,-1,-1],"loss_changes":[4.548147E2,2.5442618E2,1.479764E2,2.7016663E1,1.0600342E1,6.0905064E1,5.7216766E1,0E0,0E0,0E0,0E0,0E0,0E0,0E0,0E0],"parents":[2147483647,0,0,1,1,2,2,3,3,4,4,5,5,6,6],"right_children":[2,4,6,8,10,12,14,-1,-1,-1,-1,-1,-1,-1,-1],"split_conditions":[-8.167336E-1,-7.266035E-1,3.8520128E-1,-7.007051E-1,-7.589513E-1,-6.516735E-1,-4.565103E-1,1.9029273E-3,-2.9424292E-3,2.3595924E-3,9.669251E-3,-3.2204082E-3,6.820084E-4,-7.4969563E-3,-2.8609594E-3],"split_indices":[12,7,12,5,5,7,7,0,0,0,0,0,0,0,0],"split_type":[0,0,0,0,0,0,0,0,0,0,0,0,0,0,0],"sum_hessian":[6.143809E3,1.4601615E3,4.6836475E3,7.964771E2,6.6368445E2,2.7278364E3,1.955811E3,6.5798615E2,1.3849094E2,2.1247696E1,6.424367E2,4.8570816E2,2.2421284E3,3.177082E2,1.6381029E3],"tree_param":{"num_deleted":"0","num_feature":"30","num_nodes":"15","size_leaf_vector":"0"}},{"base_weights":[2.060363E-5,4.8229963E-1,-1.5039332E-1,2.0082949E-1,8.204775E-1,2.892609E-1,-3.0196825E-1,2.0637757E-1,-1.3396846E0,8.819594E-1,-4.623618E-1,-1.7836034E-1,6.3787144E-1,-1.18435055E-1,-4.8463765E-1],"categories":[],"categories_nodes":[],"categories_segments":[],"categories_sizes":[],"default_left":[true,true,true,true,true,true,true,false,false,false,false,false,false,false,false],"id":9,"left_children":[1,3,5,7,9,11,13,-1,-1,-1,-1,-1,-1,-1,-1],"loss_changes":[4.4581107E2,1.3890634E2,3.122697E2,7.102825E0,5.2726135E1,1.959805E2,1.1674902E2,0E0,0E0,0E0,0E0,0E0,0E0,0E0,0E0],"parents":[2147483647,0,0,1,1,2,2,3,3,4,4,5,5,6,6],"right_children":[2,4,6,8,10,12,14,-1,-1,-1,-1,-1,-1,-1,-1],"split_conditions":[-8.167336E-1,-7.0534325E-1,-4.6657014E-1,-7.057267E-1,1.6497831E0,-5.7561636E-1,3.7898022E-1,2.0637757E-3,-1.3396846E-2,8.819594E-3,-4.623618E-3,-1.7836033E-3,6.3787145E-3,-1.1843506E-3,-4.8463764E-3],"split_indices":[12,8,13,8,13,8,13,0,0,0,0,0,0,0,0],"split_type":[0,0,0,0,0,0,0,0,0,0,0,0,0,0,0],"sum_hessian":[6.1436016E3,1.4600311E3,4.683571E3,7.976935E2,6.623376E2,1.200506E3,3.4830647E3,7.956939E2,1.9996146E0,6.323441E2,2.9993488E1,5.1294165E2,6.8756433E2,1.7382468E3,1.7448179E3],"tree_param":{"num_deleted":"0","num_feature":"30","num_nodes":"15","size_leaf_vector":"0"}},{"base_weights":[1.907492E-5,6.992E-1,-1.9887912E-1,7.1340775E-1,2.3595911E-1,-4.0169932E-2,-5.4601836E-1,6.5241015E-1,8.7265456E-1,-7.2850305E-1,5.306257E-1,4.876163E-2,-3.756469E-1,-4.6643358E-1,-1.0038117E0],"categories":[],"categories_nodes":[],"categories_segments":[],"categories_sizes":[],"default_left":[true,true,true,true,true,true,true,false,false,false,false,false,false,false,false],"id":10,"left_children":[1,3,5,7,9,11,13,-1,-1,-1,-1,-1,-1,-1,-1],"loss_changes":[8.546011E2,8.789307E0,2.6356497E2,1.2252808E1,1.2321209E1,9.800401E1,5.4217773E1,0E0,0E0,0E0,0E0,0E0,0E0,0E0,0E0],"parents":[2147483647,0,0,1,1,2,2,3,3,4,4,5,5,6,6],"right_children":[2,4,6,8,10,12,14,-1,-1,-1,-1,-1,-1,-1,-1],"split_conditions":[-9.141182E-1,1.4121488E0,5.827043E-1,-1.23206E-1,1.6265005E0,3.7898022E-1,1.6768589E0,6.5241014E-3,8.726546E-3,-7.28503E-3,5.306257E-3,4.876163E-4,-3.7564689E-3,-4.664336E-3,-1.0038117E-2],"split_indices":[9,13,9,13,13,13,9,0,0,0,0,0,0,0,0],"split_type":[0,0,0,0,0,0,0,0,0,0,0,0,0,0,0],"sum_hessian":[6.1432993E3,1.3600037E3,4.783296E3,1.319009E3,4.0994606E1,3.2833096E3,1.4999862E3,9.5738904E2,3.6162E2,9.249177E0,3.1745428E1,2.5959927E3,6.8731683E2,1.2795607E3,2.2042549E2],"tree_param":{"num_deleted":"0","num_feature":"30","num_nodes":"15","size_leaf_vector":"0"}},{"base_weights":[1.812146E-5,5.478634E-1,-1.7128259E-1,5.649692E-1,2.8961435E-1,-2.794393E-2,-5.0520444E-1,5.042226E-1,6.2276E-1,-1.895523E-1,5.0159734E-1,6.351241E-2,-1.0581127E-1,-4.1459188E-1,-1.0074974E0],"categories":[],"categories_nodes":[],"categories_segments":[],"categories_sizes":[],"default_left":[true,true,true,true,true,true,true,false,false,false,false,false,false,false,false],"id":11,"left_children":[1,3,5,7,9,11,13,-1,-1,-1,-1,-1,-1,-1,-1],"loss_changes":[5.7668756E2,6.3025513E0,2.2405013E2,4.501709E0,9.539887E0,2.3339323E1,6.3570465E1,0E0,0E0,0E0,0E0,0E0,0E0,0E0,0E0],"parents":[2147483647,0,0,1,1,2,2,3,3,4,4,5,5,6,6],"right_children":[2,4,6,8,10,12,14,-1,-1,-1,-1,-1,-1,-1,-1],"split_conditions":[-8.218189E-1,-8.7189066E-1,6.4012504E-1,5E-1,-8.522765E-1,5E-1,1.7047522E0,5.0422256E-3,6.2276E-3,-1.895523E-3,5.0159735E-3,6.3512404E-4,-1.0581127E-3,-4.145919E-3,-1.0074974E-2],"split_indices":[10,10,10,22,10,22,10,0,0,0,0,0,0,0,0],"split_type":[0,0,0,0,0,0,0,0,0,0,0,0,0,0,0],"sum_hessian":[6.143023E3,1.4627456E3,4.6802773E3,1.3707622E3,9.198342E1,3.2753787E3,1.4048989E3,6.730324E2,6.977298E2,2.8244755E1,6.3738663E1,1.506342E3,1.7690366E3,1.1917375E3,2.1316148E2],"tree_param":{"num_deleted":"0","num_feature":"30","num_nodes":"15","size_leaf_vector":"0"}},{"base_weights":[1.7887225E-5,8.671057E-3,-1.1734216E0,1.712469E-1,-1.879565E-2,-1.0448707E0,-1.6985871E0,1.9776042E-1,1.06442295E-1,-7.684337E-2,9.777913E-2,-1.1925521E0,-3.0028084E-1],"categories":[],"categories_nodes":[],"categories_segments":[],"categories_sizes":[],"default_left":[true,true,true,true,true,true,false,false,false,false,false,false,false],"id":12,"left_children":[1,3,5,7,9,11,-1,-1,-1,-1,-1,-1,-1],"loss_changes":[6.2394413E1,2.724161E1,1.2619171E0,1.4938927E0,3.5324917E1,3.901207E0,0E0,0E0,0E0,0E0,0E0,0E0,0E0],"parents":[2147483647,0,0,1,1,2,2,3,3,4,4,5,5],"right_children":[2,4,6,8,10,12,-1,-1,-1,-1,-1,-1,-1],"split_conditions":[5E-1,-1.062576E0,1.0868697E0,-1.1700482E0,5.4950833E-1,5.4950833E-1,-1.698587E-2,1.977604E-3,1.0644229E-3,-7.6843373E-4,9.777913E-4,-1.192552E-2,-3.0028084E-3],"split_indices":[19,2,2,2,2,2,0,0,0,0,0,0,0],"split_type":[0,0,0,0,0,0,0,0,0,0,0,0,0],"sum_hessian":[6.142826E3,6.0988447E3,4.398145E1,8.807049E2,5.21814E3,3.7734367E1,6.2470837E0,6.23543E2,2.5716183E2,3.4837622E3,1.7343778E3,3.0986841E1,6.747526E0],"tree_param":{"num_deleted":"0","num_feature":"30","num_nodes":"13","size_leaf_vector":"0"}},{"base_weights":[1.3046286E-5,1.7435811E-1,-3.7640733E-1,3.765156E-1,4.7530476E-2,-3.5777232E-1,-8.3179647E-1,3.6868966E-1,9.280922E-1,3.899085E-2,1.0873141E0,-3.2428235E-1,-4.7369936E-1,-9.940275E-1,2.7791437E-2],"categories":[],"categories_nodes":[],"categories_segments":[],"categories_sizes":[],"default_left":[true,true,true,true,true,true,true,false,false,false,false,false,false,false,false],"id":13,"left_children":[1,3,5,7,9,11,13,-1,-1,-1,-1,-1,-1,-1,-1],"loss_changes":[4.0326498E2,1.0765784E2,1.6209229E1,6.645859E0,2.2882215E1,7.1081085E0,1.0585983E1,0E0,0E0,0E0,0E0,0E0,0E0,0E0,0E0],"parents":[2147483647,0,0,1,1,2,2,3,3,4,4,5,5,6,6],"right_children":[2,4,6,8,10,12,14,-1,-1,-1,-1,-1,-1,-1,-1],"split_conditions":[3.7852228E-1,-7.266059E-1,2.1737885E0,5E-1,3.7524092E-1,1.3205764E0,2.9274065E0,3.6868965E-3,9.280922E-3,3.899085E-4,1.0873141E-2,-3.2428233E-3,-4.7369935E-3,-9.940275E-3,2.7791437E-4],"split_indices":[14,14,14,23,14,14,14,0,0,0,0,0,0,0,0],"split_type":[0,0,0,0,0,0,0,0,0,0,0,0,0,0,0],"sum_hessian":[6.1428E3,4.19866E3,1.9441393E3,1.617874E3,2.5807864E3,1.8694259E3,7.471329E1,1.5968854E3,2.0988625E1,2.5607922E3,1.999399E1,1.4533635E3,4.1606244E2,6.2719723E1,1.1993568E1],"tree_param":{"num_deleted":"0","num_feature":"30","num_nodes":"15","size_leaf_vector":"0"}},{"base_weights":[1.3966247E-5,-2.2991757E-1,1.1334064E0,2.1815012E-1,-4.3618515E-1,1.2164357E0,7.9932666E-1,3.2927516E-1,-5.7514187E-2,-1.8583372E-1,-6.472158E-1,1.235428E0,-3.074127E-1,-7.466701E-1,8.369496E-1],"categories":[],"categories_nodes":[],"categories_segments":[],"categories_sizes":[],"default_left":[true,true,true,true,true,true,true,false,false,false,false,false,false,false,false],"id":14,"left_children":[1,3,5,7,9,11,13,-1,-1,-1,-1,-1,-1,-1,-1],"loss_changes":[1.6013046E3,4.7221356E2,2.777356E1,4.9368042E1,1.84703E2,2.4346802E1,1.279335E1,0E0,0E0,0E0,0E0,0E0,0E0,0E0,0E0],"parents":[2147483647,0,0,1,1,2,2,3,3,4,4,5,5,6,6],"right_children":[2,4,6,8,10,12,14,-1,-1,-1,-1,-1,-1,-1,-1],"split_conditions":[5E-1,-5.5757785E-1,7.0615053E-1,-8.218189E-1,8.6301036E-2,1.1660221E0,7.347422E-1,3.2927515E-3,-5.7514186E-4,-1.8583372E-3,-6.472158E-3,1.235428E-2,-3.074127E-3,-7.4667013E-3,8.369496E-3],"split_indices":[29,10,12,10,12,10,12,0,0,0,0,0,0,0,0],"split_type":[0,0,0,0,0,0,0,0,0,0,0,0,0,0,0],"sum_hessian":[6.142621E3,5.1072993E3,1.0353217E3,1.6099673E3,3.497332E3,8.271163E2,2.0820541E2,1.1472832E3,4.6268414E2,1.600498E3,1.896834E3,8.171214E2,9.994883E0,4.498712E0,2.037067E2],"tree_param":{"num_deleted":"0","num_feature":"30","num_nodes":"15","size_leaf_vector":"0"}},{"base_weights":[1.4790193E-5,5.3569734E-1,-1.6478844E-1,4.8840412E-1,7.420605E-1,-2.3228647E-2,-4.4492504E-1,4.9060464E-1,-4.5877156E-1,7.2906274E-1,1.3400697E0,-6.994287E-1,-1.633384E-2,-4.014216E-1,-7.9597026E-1],"categories":[],"categories_nodes":[],"categories_segments":[],"categories_sizes":[],"default_left":[true,true,true,true,true,true,true,false,false,false,false,false,false,false,false],"id":15,"left_children":[1,3,5,7,9,11,13,-1,-1,-1,-1,-1,-1,-1,-1],"loss_changes":[5.424047E2,1.3744995E1,1.8631342E2,2.6822815E0,1.1028595E0,1.4545593E1,2.3766785E1,0E0,0E0,0E0,0E0,0E0,0E0,0E0,0E0],"parents":[2147483647,0,0,1,1,2,2,3,3,4,4,5,5,6,6],"right_children":[2,4,6,8,10,12,14,-1,-1,-1,-1,-1,-1,-1,-1],"split_conditions":[-8.4056103E-1,5E-1,5.592289E-1,-8.4247077E-1,-8.435895E-1,-8.178978E-1,1.8116314E0,4.906046E-3,-4.5877155E-3,7.2906273E-3,1.3400696E-2,-6.9942866E-3,-1.6333841E-4,-4.014216E-3,-7.959702E-3],"split_indices":[11,17,11,11,11,11,11,0,0,0,0,0,0,0,0],"split_type":[0,0,0,0,0,0,0,0,0,0,0,0,0,0,0],"sum_hessian":[6.141987E3,1.4444951E3,4.697491E3,1.177914E3,2.6658127E2,3.1213042E3,1.5761873E3,1.1756646E3,2.249333E0,2.630823E2,3.498967E0,3.049101E1,3.0908132E3,1.404302E3,1.7188524E2],"tree_param":{"num_deleted":"0","num_feature":"30","num_nodes":"15","size_leaf_vector":"0"}},{"base_weights":[1.4957278E-5,4.6388584E-1,-1.4463854E-1,1.8446808E-1,6.5218014E-1,-2.2240542E-3,-3.432292E-1,2.6445276E-1,-5.2902496E-1,-5.6154918E-2,6.9486505E-1,6.1876196E-2,-2.4911085E-1,-7.242491E-1,-2.658515E-1],"categories":[],"categories_nodes":[],"categories_segments":[],"categories_sizes":[],"default_left":[true,true,true,true,true,true,true,false,false,false,false,false,false,false,false],"id":16,"left_children":[1,3,5,7,9,11,13,-1,-1,-1,-1,-1,-1,-1,-1],"loss_changes":[4.122486E2,7.671756E1,1.3245331E2,3.3773087E1,2.6406952E1,4.3193962E1,5.7471832E1,0E0,0E0,0E0,0E0,0E0,0E0,0E0,0E0],"parents":[2147483647,0,0,1,1,2,2,3,3,4,4,5,5,6,6],"right_children":[2,4,6,8,10,12,14,-1,-1,-1,-1,-1,-1,-1,-1],"split_conditions":[-8.167336E-1,-7.549144E-1,3.8520128E-1,-7.131088E-1,-7.6584655E-1,-7.9790026E-2,-5.528125E-1,2.6445275E-3,-5.2902494E-3,-5.6154915E-4,6.9486503E-3,6.1876193E-4,-2.4911084E-3,-7.242491E-3,-2.658515E-3],"split_indices":[12,5,12,4,4,4,4,0,0,0,0,0,0,0,0],"split_type":[0,0,0,0,0,0,0,0,0,0,0,0,0,0,0],"sum_hessian":[6.1417446E3,1.4594413E3,4.682303E3,5.883475E2,8.710938E2,2.727415E3,1.9548883E3,5.296064E2,5.8741093E1,4.949151E1,8.216023E2,2.1658389E3,5.615764E2,3.2857483E2,1.6263135E3],"tree_param":{"num_deleted":"0","num_feature":"30","num_nodes":"15","size_leaf_vector":"0"}},{"base_weights":[1.3546659E-5,-4.0358955E-1,1.2231703E0,-2.7237138E-1,-6.163532E-1,1.377259E0,1.201458E0,-4.7486667E-2,-3.4979397E-1,-6.4511305E-1,-1.2635073E-1,1.2632142E0,1.7474481E0,-6.864672E-1,1.2037258E0],"categories":[],"categories_nodes":[],"categories_segments":[],"categories_sizes":[],"default_left":[true,true,true,true,true,true,true,false,false,false,false,false,false,false,false],"id":17,"left_children":[1,3,5,7,9,11,13,-1,-1,-1,-1,-1,-1,-1,-1],"loss_changes":[3.0328257E3,1.2879388E2,3.44458E0,4.9760696E1,2.473938E1,5.4514465E0,6.579712E0,0E0,0E0,0E0,0E0,0E0,0E0,0E0,0E0],"parents":[2147483647,0,0,1,1,2,2,3,3,4,4,5,5,6,6],"right_children":[2,4,6,8,10,12,14,-1,-1,-1,-1,-1,-1,-1,-1],"split_conditions":[5E-1,-1.6511747E-1,-7.202274E-1,-7.5358266E-1,3.192504E0,-7.2604924E-1,-7.1665764E-1,-4.7486665E-4,-3.4979396E-3,-6.4511304E-3,-1.2635073E-3,1.2632142E-2,1.747448E-2,-6.8646716E-3,1.2037258E-2],"split_indices":[25,5,5,5,5,5,5,0,0,0,0,0,0,0,0],"split_type":[0,0,0,0,0,0,0,0,0,0,0,0,0,0,0],"sum_hessian":[6.141429E3,4.6182295E3,1.5231998E3,2.857932E3,1.7602976E3,1.8041165E2,1.3427882E3,7.3234546E2,2.1255864E3,1.662409E3,9.788864E1,1.4129498E2,3.9116665E1,1.2490981E0,1.3415392E3],"tree_param":{"num_deleted":"0","num_feature":"30","num_nodes":"15","size_leaf_vector":"0"}},{"base_weights":[1.7631473E-5,-2.3741154E-1,1.1762936E0,-1.7427044E-1,-3.740072E-1,1.1064061E0,1.2775784E0,4.5723496E-3,-2.0611557E-1,-5.0064106E-2,-4.0310013E-1,1.0708666E0,1.1831895E0,1.2886311E0,5.531233E-1],"categories":[],"categories_nodes":[],"categories_segments":[],"categories_sizes":[],"default_left":[true,true,true,true,true,true,true,false,false,false,false,false,false,false,false],"id":18,"left_children":[1,3,5,7,9,11,13,-1,-1,-1,-1,-1,-1,-1,-1],"loss_changes":[1.7155312E3,4.4016144E1,5.889038E0,1.9918304E1,1.5198654E1,4.1912842E-1,2.6081543E0,0E0,0E0,0E0,0E0,0E0,0E0,0E0,0E0],"parents":[2147483647,0,0,1,1,2,2,3,3,4,4,5,5,6,6],"right_children":[2,4,6,8,10,12,14,-1,-1,-1,-1,-1,-1,-1,-1],"split_conditions":[5E-1,5E-1,1.1961919E-1,-1.062576E0,-1.1700482E0,5E-1,2.698954E0,4.5723496E-5,-2.0611556E-3,-5.0064106E-4,-4.031001E-3,1.07086655E-2,1.18318945E-2,1.2886311E-2,5.531233E-3],"split_indices":[28,15,2,2,2,15,2,0,0,0,0,0,0,0,0],"split_type":[0,0,0,0,0,0,0,0,0,0,0,0,0,0,0],"sum_hessian":[6.140644E3,5.109998E3,1.0306458E3,3.4961733E3,1.6138248E3,6.169009E2,4.137448E2,5.285705E2,2.9676028E3,1.3321605E2,1.4806088E3,4.3192834E2,1.8497256E2,4.0676025E2,6.9845614E0],"tree_param":{"num_deleted":"0","num_feature":"30","num_nodes":"15","size_leaf_vector":"0"}},{"base_weights":[2.349828E-5,-5.9591573E-1,1.1214113E0,-6.907481E-1,4.961725E-1,9.0695655E-1,1.331439E0,-7.15246E-1,-5.636141E-1,4.7407103E-1,5.7079774E-1,8.9065075E-1,9.673899E-1,1.3511255E0,1.248598E0],"categories":[],"categories_nodes":[],"categories_segments":[],"categories_sizes":[],"default_left":[true,true,true,true,true,true,true,false,false,false,false,false,false,false,false],"id":19,"left_children":[1,3,5,7,9,11,13,-1,-1,-1,-1,-1,-1,-1,-1],"loss_changes":[4.104585E3,4.1570654E2,9.4792725E1,1.1091309E1,2.58873E-1,1.8066406E-1,6.555176E-2,0E0,0E0,0E0,0E0,0E0,0E0,0E0,0E0],"parents":[2147483647,0,0,1,1,2,2,3,3,4,4,5,5,6,6],"right_children":[2,4,6,8,10,12,14,-1,-1,-1,-1,-1,-1,-1,-1],"split_conditions":[5E-1,5E-1,5E-1,5E-1,5E-1,5E-1,5E-1,-7.15246E-3,-5.6361407E-3,4.7407104E-3,5.7079773E-3,8.906507E-3,9.673899E-3,1.3511254E-2,1.2485979E-2],"split_indices":[24,26,26,17,17,17,17,0,0,0,0,0,0,0,0],"split_type":[0,0,0,0,0,0,0,0,0,0,0,0,0,0,0],"sum_hessian":[6.140023E3,4.0096453E3,2.1303777E3,3.6896216E3,3.2002377E2,1.0567107E3,1.0736669E3,3.0896416E3,5.999799E2,2.5257289E2,6.745089E1,8.445714E2,2.1213936E2,8.551402E2,2.1852663E2],"tree_param":{"num_deleted":"0","num_feature":"30","num_nodes":"15","size_leaf_vector":"0"}},{"base_weights":[3.060323E-5,3.3718866E-1,-3.4102488E-1,6.123965E-1,1.7024149E-1,1.260835E-1,-4.9416226E-1,6.608484E-1,3.2186082E-1,1.8001989E-3,4.0381932E-1,7.062441E-2,7.621639E-1,-6.683701E-1,-2.165512E-1],"categories":[],"categories_nodes":[],"categories_segments":[],"categories_sizes":[],"default_left":[true,true,true,true,true,true,true,false,false,false,false,false,false,false,false],"id":20,"left_children":[1,3,5,7,9,11,13,-1,-1,-1,-1,-1,-1,-1,-1],"loss_changes":[7.061409E2,1.4177902E2,2.1843518E2,1.6195557E1,7.567744E1,2.656327E1,1.1105322E2,0E0,0E0,0E0,0E0,0E0,0E0,0E0,0E0],"parents":[2147483647,0,0,1,1,2,2,3,3,4,4,5,5,6,6],"right_children":[2,4,6,8,10,12,14,-1,-1,-1,-1,-1,-1,-1,-1],"split_conditions":[-4.2104584E-1,-8.8758343E-1,-7.276954E-1,2.5564224E-2,-2.5962186E-1,8.008201E-1,6.603048E-1,6.608484E-3,3.2186082E-3,1.8001989E-5,4.0381933E-3,7.062441E-4,7.6216385E-3,-6.683701E-3,-2.165512E-3],"split_indices":[0,0,14,14,7,7,7,0,0,0,0,0,0,0,0],"split_type":[0,0,0,0,0,0,0,0,0,0,0,0,0,0,0],"sum_hessian":[6.1389106E3,3.0870999E3,3.0518105E3,1.1646078E3,1.9224922E3,7.535292E2,2.2982815E3,9.970567E2,1.6755113E2,1.1175759E3,8.049162E2,6.9412067E2,5.940851E1,1.4112681E3,8.870134E2],"tree_param":{"num_deleted":"0","num_feature":"30","num_nodes":"15","size_leaf_vector":"0"}},{"base_weights":[3.248064E-5,-5.892026E-1,1.1090708E0,-6.559757E-1,4.0615723E-1,5.0469375E-1,1.222055E0,-1.2898304E-1,-7.4605924E-1,5.9854376E-1,5.278877E-3,4.2882913E-1,1.3645213E0,1.0955373E0,1.3955886E0],"categories":[],"categories_nodes":[],"categories_segments":[],"categories_sizes":[],"default_left":[true,true,true,true,true,true,true,false,false,false,false,false,false,false,false],"id":21,"left_children":[1,3,5,7,9,11,13,-1,-1,-1,-1,-1,-1,-1,-1],"loss_changes":[4.0126816E3,2.6678064E2,1.4486426E2,1.7831982E2,1.9486816E1,2.1414215E1,3.7863525E1,0E0,0E0,0E0,0E0,0E0,0E0,0E0,0E0],"parents":[2147483647,0,0,1,1,2,2,3,3,4,4,5,5,6,6],"right_children":[2,4,6,8,10,12,14,-1,-1,-1,-1,-1,-1,-1,-1],"split_conditions":[5E-1,5E-1,-7.551763E-1,-7.544955E-1,-2.2032979E-1,5E-1,5E-1,-1.2898303E-3,-7.4605923E-3,5.9854374E-3,5.2788768E-5,4.288291E-3,1.3645212E-2,1.0955373E-2,1.39558865E-2],"split_indices":[24,28,4,4,4,28,28,0,0,0,0,0,0,0,0],"split_type":[0,0,0,0,0,0,0,0,0,0,0,0,0,0,0],"sum_hessian":[6.1384414E3,4.008946E3,2.1294954E3,3.757235E3,2.5171092E2,3.3625583E2,1.7932394E3,5.488527E2,3.2083823E3,1.6975182E2,8.195911E1,3.103699E2,2.588593E1,1.0413439E3,7.518955E2],"tree_param":{"num_deleted":"0","num_feature":"30","num_nodes":"15","size_leaf_vector":"0"}},{"base_weights":[3.9268492E-5,8.230134E-2,-1.6760062E-1,1.0447195E-1,-8.906241E-1,-5.2680206E-1,-1.2150437E-1,-8.207863E-3,2.2728086E-1,-3.4971672E-1,-1.1666256E0,-1.571241E0,-4.795639E-1,-1.4035869E-1,4.033558E-1],"categories":[],"categories_nodes":[],"categories_segments":[],"categories_sizes":[],"default_left":[true,true,true,true,true,true,true,false,false,false,false,false,false,false,false],"id":22,"left_children":[1,3,5,7,9,11,13,-1,-1,-1,-1,-1,-1,-1,-1],"loss_changes":[8.465921E1,8.8923546E1,3.3396374E1,5.5732243E1,1.3305519E1,1.0571217E1,1.779282E1,0E0,0E0,0E0,0E0,0E0,0E0,0E0,0E0],"parents":[2147483647,0,0,1,1,2,2,3,3,4,4,5,5,6,6],"right_children":[2,4,6,8,10,12,14,-1,-1,-1,-1,-1,-1,-1,-1],"split_conditions":[-7.9790026E-2,1.7010552E-1,-3.1028336E-1,-5.285904E-1,-6.797432E-1,-6.583041E-2,4.1244254E0,-8.207863E-5,2.2728085E-3,-3.4971673E-3,-1.1666256E-2,-1.571241E-2,-4.795639E-3,-1.4035868E-3,4.033558E-3],"split_indices":[4,8,8,8,4,4,4,0,0,0,0,0,0,0,0],"split_type":[0,0,0,0,0,0,0,0,0,0,0,0,0,0,0],"sum_hessian":[6.136994E3,4.117176E3,2.0198181E3,4.0263186E3,9.085741E1,2.2853656E2,1.7912815E3,2.1002383E3,1.9260803E3,3.1463114E1,5.939429E1,8.493025E0,2.2004353E2,1.7298727E3,6.1408875E1],"tree_param":{"num_deleted":"0","num_feature":"30","num_nodes":"15","size_leaf_vector":"0"}},{"base_weights":[3.382489E-5,4.4687617E-1,-1.3925733E-1,1.5055518E-1,6.722505E-1,-1.824673E-3,-3.3095154E-1,-7.96145E-2,2.756786E-1,6.3864607E-1,1.2066944E0,-2.5252613E-1,4.2370297E-2,-6.604081E-1,-2.5932452E-1],"categories":[],"categories_nodes":[],"categories_segments":[],"categories_sizes":[],"default_left":[true,true,true,true,true,true,true,false,false,false,false,false,false,false,false],"id":23,"left_children":[1,3,5,7,9,11,13,-1,-1,-1,-1,-1,-1,-1,-1],"loss_changes":[3.8208923E2,9.732614E1,1.23293884E2,1.8209541E1,1.4106079E1,3.0222755E1,4.594406E1,0E0,0E0,0E0,0E0,0E0,0E0,0E0,0E0],"parents":[2147483647,0,0,1,1,2,2,3,3,4,4,5,5,6,6],"right_children":[2,4,6,8,10,12,14,-1,-1,-1,-1,-1,-1,-1,-1],"split_conditions":[-8.167336E-1,-7.4269545E-1,3.8520128E-1,-3.1026995E-1,1.038163E0,-6.5743124E-1,-5.1438606E-1,-7.9614494E-4,2.756786E-3,6.3864607E-3,1.2066944E-2,-2.5252614E-3,4.2370296E-4,-6.6040806E-3,-2.5932451E-3],"split_indices":[12,6,12,2,6,6,6,0,0,0,0,0,0,0,0],"split_type":[0,0,0,0,0,0,0,0,0,0,0,0,0,0,0],"sum_hessian":[6.136849E3,1.4578611E3,4.6789883E3,6.305221E2,8.2733905E2,2.725783E3,1.9532051E3,2.221788E2,4.083433E2,7.8046063E2,4.6878384E1,4.0779596E2,2.317987E3,3.4734274E2,1.6058623E3],"tree_param":{"num_deleted":"0","num_feature":"30","num_nodes":"15","size_leaf_vector":"0"}},{"base_weights":[3.5053028E-5,-5.827335E-1,1.0972226E0,-6.4704305E-1,2.5370818E-1,9.3000954E-1,1.4049522E0,-2.3864584E-1,-7.4090904E-1,5.733991E-1,4.5523763E-2,6.329768E-1,1.117042E0,3.478103E-1,1.4119487E0],"categories":[],"categories_nodes":[],"categories_segments":[],"categories_sizes":[],"default_left":[true,true,true,true,true,true,true,false,false,false,false,false,false,false,false],"id":24,"left_children":[1,3,5,7,9,11,13,-1,-1,-1,-1,-1,-1,-1,-1],"loss_changes":[3.9249446E3,2.1581482E2,1.08263916E2,1.4254626E2,1.9071432E1,7.6105835E1,5.0393066E0,0E0,0E0,0E0,0E0,0E0,0E0,0E0,0E0],"parents":[2147483647,0,0,1,1,2,2,3,3,4,4,5,5,6,6],"right_children":[2,4,6,8,10,12,14,-1,-1,-1,-1,-1,-1,-1,-1],"split_conditions":[5E-1,5E-1,5E-1,-7.2152424E-1,-4.5092422E-1,-5.3356713E-1,-7.4225736E-1,-2.3864582E-3,-7.40909E-3,5.733991E-3,4.552376E-4,6.3297674E-3,1.1170419E-2,3.4781029E-3,1.4119486E-2],"split_indices":[24,29,29,6,6,6,6,0,0,0,0,0,0,0,0],"split_type":[0,0,0,0,0,0,0,0,0,0,0,0,0,0,0],"sum_hessian":[6.13642E3,4.008032E3,2.128388E3,3.722087E3,2.859451E2,1.3816528E3,7.467351E2,6.962679E2,3.025819E3,1.1207967E2,1.7386542E2,5.3553503E2,8.4611774E2,5.2430706E0,7.41492E2],"tree_param":{"num_deleted":"0","num_feature":"30","num_nodes":"15","size_leaf_vector":"0"}},{"base_weights":[4.0489314E-5,1.5571964E-1,-3.323853E-1,3.9027214E-1,2.5519213E-2,-3.7498933E-1,2.008632E-1,2.7846858E-1,4.713194E-1,5.6461263E-2,-3.313019E-1,-3.2108507E-1,-7.408489E-1,6.2306416E-1,-4.8920125E-2],"categories":[],"categories_nodes":[],"categories_segments":[],"categories_sizes":[],"default_left":[true,true,true,true,true,true,true,false,false,false,false,false,false,false,false],"id":25,"left_children":[1,3,5,7,9,11,13,-1,-1,-1,-1,-1,-1,-1,-1],"loss_changes":[3.1758917E2,1.2762641E2,4.4542343E1,1.3386658E1,2.9703617E1,3.551387E1,1.5370588E1,0E0,0E0,0E0,0E0,0E0,0E0,0E0,0E0],"parents":[2147483647,0,0,1,1,2,2,3,3,4,4,5,5,6,6],"right_children":[2,4,6,8,10,12,14,-1,-1,-1,-1,-1,-1,-1,-1],"split_conditions":[3.7898022E-1,-2.993964E0,2.8862195E0,-7.3767793E-1,3.2302275E-1,1.6442736E0,1.2961088E0,2.7846857E-3,4.713194E-3,5.646126E-4,-3.313019E-3,-3.2108505E-3,-7.408489E-3,6.2306416E-3,-4.892012E-4],"split_indices":[13,13,4,4,3,13,13,0,0,0,0,0,0,0,0],"split_type":[0,0,0,0,0,0,0,0,0,0,0,0,0,0,0],"sum_hessian":[6.1347793E3,4.1784775E3,1.9563018E3,1.4908159E3,2.6876616E3,1.811841E3,1.4446071E2,6.283929E2,8.624231E2,2.473971E3,2.1369077E2,1.5808087E3,2.3103223E2,5.314201E1,9.13187E1],"tree_param":{"num_deleted":"0","num_feature":"30","num_nodes":"15","size_leaf_vector":"0"}},{"base_weights":[4.0043884E-5,-2.6862264E-1,1.1254654E0,-3.5484037E-1,-1.4589933E-1,-3.531902E-1,-1.2010069E0,-1.4499573E-1,-5.0394374E-1],"categories":[],"categories_nodes":[],"categories_segments":[],"categories_sizes":[],"default_left":[true,true,false,true,true,false,false,false,false],"id":26,"left_children":[1,3,-1,5,7,-1,-1,-1,-1],"loss_changes":[1.8554119E3,5.2364563E1,0E0,3.6376038E0,5.888176E-1,0E0,0E0,0E0,0E0],"parents":[2147483647,0,0,1,1,3,3,4,4],"right_children":[2,4,-1,6,8,-1,-1,-1,-1],"split_conditions":[5E-1,5E-1,1.1254653E-2,5E-1,5E-1,-3.531902E-3,-1.2010069E-2,-1.4499573E-3,-5.039437E-3],"split_indices":[27,1,0,20,20,0,0,0,0],"split_type":[0,0,0,0,0,0,0,0,0],"sum_hessian":[6.134438E3,4.9528496E3,1.181588E3,2.9079875E3,2.0448622E3,2.9037424E3,4.2452784E0,2.041116E3,3.7461526E0],"tree_param":{"num_deleted":"0","num_feature":"30","num_nodes":"9","size_leaf_vector":"0"}},{"base_weights":[3.8508035E-5,-2.659508E-1,1.1149154E0,-2.575183E-1,-1.2306031E0,1.1158751E0,4.227987E-1,-2.5617978E-1,-9.590392E-1],"categories":[],"categories_nodes":[],"categories_segments":[],"categories_sizes":[],"default_left":[true,true,true,true,false,false,false,false,false],"id":27,"left_children":[1,3,5,7,-1,-1,-1,-1,-1],"loss_changes":[1.8194597E3,3.9978424E1,3.1323242E-1,4.3666077E0,0E0,0E0,0E0,0E0,0E0],"parents":[2147483647,0,0,1,1,2,2,3,3],"right_children":[2,4,6,8,-1,-1,-1,-1,-1],"split_conditions":[5E-1,5E-1,5E-1,5E-1,-1.2306031E-2,1.1158751E-2,4.227987E-3,-2.5617979E-3,-9.590392E-3],"split_indices":[27,19,19,20,0,0,0,0,0],"split_type":[0,0,0,0,0,0,0,0,0],"sum_hessian":[6.1335195E3,4.9526655E3,1.1808542E3,4.911003E3,4.1662643E1,1.1786077E3,2.2465706E0,4.9030127E3,7.9897823E0],"tree_param":{"num_deleted":"0","num_feature":"30","num_nodes":"9","size_leaf_vector":"0"}},{"base_weights":[3.7309845E-5,-3.8253427E-1,1.1622797E0,-1.20401084E-1,-6.0989684E-1,1.2903029E0,1.1081783E0,-4.127935E-4,-2.3458357E-1,-4.5597753E-1,-6.9970703E-1,9.509151E-1,1.1791713E0],"categories":[],"categories_nodes":[],"categories_segments":[],"categories_sizes":[],"default_left":[true,true,true,true,true,false,true,false,false,false,false,false,false],"id":28,"left_children":[1,3,5,7,9,-1,11,-1,-1,-1,-1,-1,-1],"loss_changes":[2.7276572E3,2.749958E2,9.092529E0,2.9387342E1,3.3843445E1,0E0,1.0880615E1,0E0,0E0,0E0,0E0,0E0,0E0],"parents":[2147483647,0,0,1,1,2,2,3,3,4,4,6,6],"right_children":[2,4,6,8,10,-1,12,-1,-1,-1,-1,-1,-1],"split_conditions":[5E-1,-1.3911083E-1,-2.993964E0,-2.993964E0,3.8010907E-1,1.2903028E-2,-1.23206E-1,-4.127935E-6,-2.3458356E-3,-4.5597753E-3,-6.9970703E-3,9.509151E-3,1.1791713E-2],"split_indices":[25,13,13,13,13,0,13,0,0,0,0,0,0],"split_type":[0,0,0,0,0,0,0,0,0,0,0,0,0],"sum_hessian":[6.1325176E3,4.614311E3,1.5182069E3,2.1439807E3,2.47033E3,4.4420663E2,1.0740002E3,1.0459017E3,1.0980789E3,9.125142E2,1.5578159E3,3.3851663E2,7.3548364E2],"tree_param":{"num_deleted":"0","num_feature":"30","num_nodes":"13","size_leaf_vector":"0"}},{"base_weights":[4.095749E-5,6.276475E-2,-1.7849135E-1,-2.432724E-2,1.4854373E-1,-6.300824E-1,-1.0717612E-1,9.411881E-2,-2.0091498E-1,-4.8051643E-1,1.7958884E-1,-6.67217E-1,1.1744581E0,-2.4406768E-1,3.149353E-2],"categories":[],"categories_nodes":[],"categories_segments":[],"categories_sizes":[],"default_left":[true,true,true,true,true,true,true,false,false,false,false,false,false,false,false],"id":29,"left_children":[1,3,5,7,9,11,13,-1,-1,-1,-1,-1,-1,-1,-1],"loss_changes":[6.8677284E1,3.390844E1,5.128308E1,4.713921E1,4.4741337E1,1.5341949E1,2.6170073E1,0E0,0E0,0E0,0E0,0E0,0E0,0E0,0E0],"parents":[2147483647,0,0,1,1,2,2,3,3,4,4,5,5,6,6],"right_children":[2,4,6,8,10,12,14,-1,-1,-1,-1,-1,-1,-1,-1],"split_conditions":[1.0066377E-1,-5.185813E-1,2.500345E-1,-6.821904E-1,-5.57562E-1,3.3663034E0,5E-1,9.411881E-4,-2.0091496E-3,-4.8051644E-3,1.7958883E-3,-6.67217E-3,1.1744581E-2,-2.4406768E-3,3.1493529E-4],"split_indices":[7,8,8,7,7,7,21,0,0,0,0,0,0,0,0],"split_type":[0,0,0,0,0,0,0,0,0,0,0,0,0,0,0],"sum_hessian":[6.130872E3,4.537396E3,1.5934758E3,2.2518223E3,2.285574E3,2.1625352E2,1.3772223E3,1.3480715E3,9.037507E2,1.06810844E2,2.1787632E3,2.1251065E2,3.7428725E0,6.92672E2,6.8455035E2],"tree_param":{"num_deleted":"0","num_feature":"30","num_nodes":"15","size_leaf_vector":"0"}},{"base_weights":[4.0338018E-5,5.07112E-1,-1.584585E-1,3.7882534E-1,6.7313635E-1,-2.5813965E-2,-4.6769276E-1,4.031342E-1,-9.107373E-2,6.816065E-1,-1.3414356E0,-1.6899334E-2,-1.3145081E0,-3.8006866E-1,-9.5358104E-1],"categories":[],"categories_nodes":[],"categories_segments":[],"categories_sizes":[],"default_left":[true,true,true,true,true,true,true,false,false,false,false,false,false,false,false],"id":30,"left_children":[1,3,5,7,9,11,13,-1,-1,-1,-1,-1,-1,-1,-1],"loss_changes":[4.9288727E2,3.0850525E1,1.9163599E2,9.473465E0,1.1754944E1,3.755336E1,5.9348724E1,0E0,0E0,0E0,0E0,0E0,0E0,0E0,0E0],"parents":[2147483647,0,0,1,1,2,2,3,3,4,4,5,5,6,6],"right_children":[2,4,6,8,10,12,14,-1,-1,-1,-1,-1,-1,-1,-1],"split_conditions":[-8.218189E-1,5E-1,6.4012504E-1,-8.6570233E-1,5E-1,5E-1,1.7047522E0,4.031342E-3,-9.1073726E-4,6.8160645E-3,-1.3414355E-2,-1.6899334E-4,-1.3145081E-2,-3.8006864E-3,-9.53581E-3],"split_indices":[10,1,10,10,19,19,10,0,0,0,0,0,0,0,0],"split_type":[0,0,0,0,0,0,0,0,0,0,0,0,0,0,0],"sum_hessian":[6.1307065E3,1.4594415E3,4.6712646E3,8.251395E2,6.34302E2,3.2697883E3,1.4014764E3,7.8468805E2,4.0451477E1,6.323052E2,1.996826E0,3.248331E3,2.145744E1,1.1888618E3,2.1261467E2],"tree_param":{"num_deleted":"0","num_feature":"30","num_nodes":"15","size_leaf_vector":"0"}},{"base_weights":[3.5013523E-5,-2.2274016E-1,1.1079718E0,1.16806775E-1,-4.8328343E-1,7.83377E-1,1.2132692E0,3.8767636E-1,-4.8408974E-2,-5.1692563E-1,3.970477E-1,8.1512636E-1,-2.9783744E-1,1.2184645E0,8.139259E-1],"categories":[],"categories_nodes":[],"categories_segments":[],"categories_sizes":[],"default_left":[true,true,true,true,true,true,true,false,false,false,false,false,false,false,false],"id":31,"left_children":[1,3,5,7,9,11,13,-1,-1,-1,-1,-1,-1,-1,-1],"loss_changes":[1.5135566E3,4.5173297E2,3.4137573E1,9.925736E1,8.5769165E1,8.971527E0,6.126709E-1,0E0,0E0,0E0,0E0,0E0,0E0,0E0,0E0],"parents":[2147483647,0,0,1,1,2,2,3,3,4,4,5,5,6,6],"right_children":[2,4,6,8,10,12,14,-1,-1,-1,-1,-1,-1,-1,-1],"split_conditions":[5E-1,-4.9880207E-1,5E-1,-8.8758343E-1,5E-1,1.522861E0,1.522861E0,3.8767634E-3,-4.8408972E-4,-5.169256E-3,3.970477E-3,8.151263E-3,-2.9783743E-3,1.2184645E-2,8.139259E-3],"split_indices":[28,0,29,0,29,0,0,0,0,0,0,0,0,0,0],"split_type":[0,0,0,0,0,0,0,0,0,0,0,0,0,0,0],"sum_hessian":[6.1302085E3,5.1046123E3,1.0255962E3,2.216527E3,2.8880854E3,2.5327599E2,7.7232025E2,8.3924567E2,1.3772814E3,2.7821763E3,1.059091E2,2.462899E2,6.986086E0,7.6037695E2,1.1943243E1],"tree_param":{"num_deleted":"0","num_feature":"30","num_nodes":"15","size_leaf_vector":"0"}},{"base_weights":[3.9877315E-5,-2.112912E-1,1.0464523E0,1.7776205E-1,-4.1887045E-1,1.2273787E0,9.7139454E-1,3.100347E-1,-6.371513E-2,-2.788599E-1,-6.5796196E-1,9.8386645E-1,-1.43186E-1],"categories":[],"categories_nodes":[],"categories_segments":[],"categories_sizes":[],"default_left":[true,true,true,true,true,false,true,false,false,false,false,false,false],"id":32,"left_children":[1,3,5,7,9,-1,11,-1,-1,-1,-1,-1,-1],"loss_changes":[1.3557596E3,4.1200146E2,1.2796753E1,5.6724873E1,1.111673E2,0E0,1.032843E1,0E0,0E0,0E0,0E0,0E0,0E0],"parents":[2147483647,0,0,1,1,2,2,3,3,4,4,6,6],"right_children":[2,4,6,8,10,-1,12,-1,-1,-1,-1,-1,-1],"split_conditions":[5E-1,-4.706221E-1,-3.0560558E0,-8.218189E-1,6.4012504E-1,1.2273787E-2,1.7377895E0,3.1003468E-3,-6.371513E-4,-2.788599E-3,-6.5796194E-3,9.838664E-3,-1.43186E-3],"split_indices":[29,10,10,10,10,0,10,0,0,0,0,0,0],"split_type":[0,0,0,0,0,0,0,0,0,0,0,0,0],"sum_hessian":[6.1287905E3,5.099671E3,1.0291199E3,1.7743177E3,3.325353E3,2.9724915E2,7.318707E2,1.146191E3,6.281268E2,2.098595E3,1.226758E3,7.238879E2,7.9828706E0],"tree_param":{"num_deleted":"0","num_feature":"30","num_nodes":"13","size_leaf_vector":"0"}},{"base_weights":[4.223991E-5,-5.657186E-1,1.0668023E0,-1.7298873E-1,-7.310883E-1,8.1008965E-1,1.1954986E0,-2.6290408E-1,-4.702706E-3,-6.3133645E-1,-8.8836014E-1,8.3515084E-1,6.387189E-2,1.206078E0,1.276464E-1],"categories":[],"categories_nodes":[],"categories_segments":[],"categories_sizes":[],"default_left":[true,true,true,true,true,true,true,false,false,false,false,false,false,false,false],"id":33,"left_children":[1,3,5,7,9,11,13,-1,-1,-1,-1,-1,-1,-1,-1],"loss_changes":[3.6992903E3,2.5999524E2,6.921045E1,1.797638E1,4.365039E1,1.3269562E1,1.5806641E1,0E0,0E0,0E0,0E0,0E0,0E0,0E0,0E0],"parents":[2147483647,0,0,1,1,2,2,3,3,4,4,5,5,6,6],"right_children":[2,4,6,8,10,12,14,-1,-1,-1,-1,-1,-1,-1,-1],"split_conditions":[5E-1,-4.7151414E-1,-5.1965165E-1,-5.751531E-1,6.4012504E-1,8.3369005E-1,1.9319018E0,-2.6290407E-3,-4.7027057E-5,-6.3133645E-3,-8.883601E-3,8.3515085E-3,6.387189E-4,1.206078E-2,1.276464E-3],"split_indices":[24,10,8,8,10,10,10,0,0,0,0,0,0,0,0],"split_type":[0,0,0,0,0,0,0,0,0,0,0,0,0,0,0],"sum_hessian":[6.127412E3,4.0042239E3,2.1231882E3,1.1870919E3,2.8171318E3,7.1141406E2,1.411774E3,7.7333575E2,4.137562E2,1.7268611E3,1.0902709E3,6.8818274E2,2.323132E1,1.3977961E3,1.3977866E1],"tree_param":{"num_deleted":"0","num_feature":"30","num_nodes":"15","size_leaf_vector":"0"}},{"base_weights":[4.313407E-5,4.942973E-1,-1.519483E-1,1.6054837E-1,7.779062E-1,-2.2679588E-2,-4.080156E-1,2.1298364E-1,-6.015007E-1,1.4509426E-1,9.3178284E-1,-2.5622347E-1,5.3591162E-2,-6.419923E-1,-2.2335297E-1],"categories":[],"categories_nodes":[],"categories_segments":[],"categories_sizes":[],"default_left":[true,true,true,true,true,true,true,false,false,false,false,false,false,false,false],"id":34,"left_children":[1,3,5,7,9,11,13,-1,-1,-1,-1,-1,-1,-1,-1],"loss_changes":[4.6029492E2,1.3627936E2,1.5511049E2,2.6631613E1,7.57005E1,5.550289E1,6.777832E1,0E0,0E0,0E0,0E0,0E0,0E0,0E0,0E0],"parents":[2147483647,0,0,1,1,2,2,3,3,4,4,5,5,6,6],"right_children":[2,4,6,8,10,12,14,-1,-1,-1,-1,-1,-1,-1,-1],"split_conditions":[-8.4056103E-1,-7.447E-1,5.592289E-1,-6.6945267E-1,-7.096009E-1,-5.7550454E-1,4.5672685E-1,2.1298362E-3,-6.015007E-3,1.4509426E-3,9.317828E-3,-2.5622346E-3,5.359116E-4,-6.4199227E-3,-2.2335297E-3],"split_indices":[11,5,11,8,8,8,8,0,0,0,0,0,0,0,0],"split_type":[0,0,0,0,0,0,0,0,0,0,0,0,0,0,0],"sum_hessian":[6.125266E3,1.4400806E3,4.6851855E3,6.622801E2,7.778004E2,3.1141692E3,1.5710164E3,6.203176E2,4.1962452E1,1.525182E2,6.252822E2,7.6607117E2,2.348098E3,6.91886E2,8.791303E2],"tree_param":{"num_deleted":"0","num_feature":"30","num_nodes":"15","size_leaf_vector":"0"}},{"base_weights":[4.226394E-5,1.4721645E-1,-3.1437466E-1,3.6999568E-1,2.3636404E-2,-2.6825178E-1,-7.380887E-1,1.8652236E-1,5.0253564E-1,-2.2599709E-1,7.004562E-2,-3.0647182E-1,3.4065726E-1,-7.783886E-1,1.3496456E0],"categories":[],"categories_nodes":[],"categories_segments":[],"categories_sizes":[],"default_left":[true,true,true,true,true,true,true,false,false,false,false,false,false,false,false],"id":35,"left_children":[1,3,5,7,9,11,13,-1,-1,-1,-1,-1,-1,-1,-1],"loss_changes":[2.8350397E2,1.1488412E2,3.7977554E1,3.611316E1,3.1125666E1,4.113919E1,1.7136574E1,0E0,0E0,0E0,0E0,0E0,0E0,0E0,0E0],"parents":[2147483647,0,0,1,1,2,2,3,3,4,4,5,5,6,6],"right_children":[2,4,6,8,10,12,14,-1,-1,-1,-1,-1,-1,-1,-1],"split_conditions":[3.7898022E-1,-2.993964E0,1.7823393E0,-7.447E-1,-6.789168E-1,3.1926293E0,3.3990698E0,1.8652236E-3,5.025356E-3,-2.2599709E-3,7.004562E-4,-3.064718E-3,3.4065726E-3,-7.783886E-3,1.3496456E-2],"split_indices":[13,13,13,5,5,5,13,0,0,0,0,0,0,0,0],"split_type":[0,0,0,0,0,0,0,0,0,0,0,0,0,0,0],"sum_hessian":[6.124628E3,4.1722075E3,1.9524207E3,1.4879209E3,2.6842866E3,1.7622284E3,1.9019218E2,6.250624E2,8.6285846E2,4.201963E2,2.2640903E3,1.658617E3,1.03611496E2,1.8720569E2,2.9864979E0],"tree_param":{"num_deleted":"0","num_feature":"30","num_nodes":"15","size_leaf_vector":"0"}},{"base_weights":[4.3690896E-5,3.163858E-1,-3.1988055E-1,5.7433635E-1,1.601124E-1,-3.8775142E-2,-3.8321412E-1,6.2483007E-1,5.341498E-1,2.1491855E-1,6.615671E-2,-1.3742693E-1,1.094993E-1,-4.8177767E-1,-2.2901635E-1],"categories":[],"categories_nodes":[],"categories_segments":[],"categories_sizes":[],"default_left":[true,true,true,true,true,true,true,false,false,false,false,false,false,false,false],"id":36,"left_children":[1,3,5,7,9,11,13,-1,-1,-1,-1,-1,-1,-1,-1],"loss_changes":[6.200018E2,1.2407855E2,5.4211456E1,2.02359E0,9.870502E0,8.223509E0,3.7667633E1,0E0,0E0,0E0,0E0,0E0,0E0,0E0,0E0],"parents":[2147483647,0,0,1,1,2,2,3,3,4,4,5,5,6,6],"right_children":[2,4,6,8,10,12,14,-1,-1,-1,-1,-1,-1,-1,-1],"split_conditions":[-4.2104584E-1,-8.8758343E-1,-1.1002075E-1,5E-1,-6.5431464E-1,5E-1,5E-1,6.2483004E-3,5.341498E-3,2.1491854E-3,6.615671E-4,-1.3742693E-3,1.094993E-3,-4.8177764E-3,-2.2901634E-3],"split_indices":[0,0,0,16,0,1,1,0,0,0,0,0,0,0,0],"split_type":[0,0,0,0,0,0,0,0,0,0,0,0,0,0,0],"sum_hessian":[6.1241665E3,3.079328E3,3.0448384E3,1.1607224E3,1.9186056E3,5.6016486E2,2.4846736E3,5.079471E2,6.527753E2,1.2109484E3,7.076571E2,3.3641214E2,2.2375273E2,1.5144862E3,9.701873E2],"tree_param":{"num_deleted":"0","num_feature":"30","num_nodes":"15","size_leaf_vector":"0"}},{"base_weights":[4.445479E-5,-2.5515145E-1,1.0729845E0,-3.1331019E-3,-3.298753E-1,-5.075537E-1,1.0781195E0,-1.0600858E-1,1.3925351E-1,-4.0654367E-1,-2.1981074E-1,-1.1340204E0,8.319329E-2,1.0817583E0,-5.7438153E-1],"categories":[],"categories_nodes":[],"categories_segments":[],"categories_sizes":[],"default_left":[true,true,true,true,true,true,true,false,false,false,false,false,false,false,false],"id":37,"left_children":[1,3,5,7,9,11,13,-1,-1,-1,-1,-1,-1,-1,-1],"loss_changes":[1.6772325E3,9.318878E1,1.0099976E1,1.6606789E1,3.2118896E1,1.7565864E0,7.6776123E0,0E0,0E0,0E0,0E0,0E0,0E0,0E0,0E0],"parents":[2147483647,0,0,1,1,2,2,3,3,4,4,5,5,6,6],"right_children":[2,4,6,8,10,12,14,-1,-1,-1,-1,-1,-1,-1,-1],"split_conditions":[5E-1,-7.023717E-1,-7.1656656E-1,5E-1,5E-1,-7.2693515E-1,4.86796E0,-1.0600858E-3,1.392535E-3,-4.065437E-3,-2.1981073E-3,-1.1340205E-2,8.319329E-4,1.0817583E-2,-5.743815E-3],"split_indices":[27,8,8,1,1,8,8,0,0,0,0,0,0,0,0],"split_type":[0,0,0,0,0,0,0,0,0,0,0,0,0,0,0],"sum_hessian":[6.123537E3,4.9475405E3,1.1759971E3,1.1317091E3,3.8158313E3,3.4915388E0,1.1725055E3,6.571607E2,4.7454843E2,2.247548E3,1.5682832E3,1.2482134E0,2.2433252E0,1.170274E3,2.2314806E0],"tree_param":{"num_deleted":"0","num_feature":"30","num_nodes":"15","size_leaf_vector":"0"}},{"base_weights":[4.2988777E-5,-7.928758E-2,1.0932117E-1,-2.2697022E-2,-2.4965945E-1,-1.57289E0,1.1254651E-1,-1.6836508E-1,1.1304656E-1,-1.1460648E0,-2.0379578E-1,1.5891473E-1,9.065276E-3],"categories":[],"categories_nodes":[],"categories_segments":[],"categories_sizes":[],"default_left":[true,true,true,true,true,false,true,false,false,false,false,false,false],"id":38,"left_children":[1,3,5,7,9,-1,11,-1,-1,-1,-1,-1,-1],"loss_changes":[5.3090626E1,3.4204666E1,1.4152891E1,5.2708313E1,3.6135292E1,0E0,1.2338993E1,0E0,0E0,0E0,0E0,0E0,0E0],"parents":[2147483647,0,0,1,1,2,2,3,3,4,4,6,6],"right_children":[2,4,6,8,10,-1,12,-1,-1,-1,-1,-1,-1],"split_conditions":[5E-1,1.7497027E-1,-7.787061E-1,-5.285904E-1,2.4874046E-1,-1.57289E-2,-4.2106584E-2,-1.6836508E-3,1.1304655E-3,-1.1460647E-2,-2.0379578E-3,1.5891473E-3,9.065276E-5],"split_indices":[1,8,8,8,8,0,8,0,0,0,0,0,0],"split_type":[0,0,0,0,0,0,0,0,0,0,0,0,0],"sum_hessian":[6.1221216E3,3.5472603E3,2.5748616E3,2.6636409E3,8.836193E2,3.9960825E0,2.5708655E3,1.2847356E3,1.3789054E3,4.184136E1,8.4177795E2,1.7749874E3,7.958781E2],"tree_param":{"num_deleted":"0","num_feature":"30","num_nodes":"13","size_leaf_vector":"0"}},{"base_weights":[3.794925E-5,-2.5255436E-1,1.0629345E0,3.5192452E-2,-4.2090887E-1,1.190384E0,1.0029538E0,5.9855994E-2,-1.748812E-1,-2.8585243E-1,-5.3970724E-1,1.1328672E0,1.3383572E0,-2.6511934E-1,1.0111556E0],"categories":[],"categories_nodes":[],"categories_segments":[],"categories_sizes":[],"default_left":[true,true,true,true,true,true,true,false,false,false,false,false,false,false,false],"id":39,"left_children":[1,3,5,7,9,11,13,-1,-1,-1,-1,-1,-1,-1,-1],"loss_changes":[1.6441628E3,2.3971747E2,7.795166E0,9.4782295E0,4.9932495E1,1.6409912E0,8.650269E0,0E0,0E0,0E0,0E0,0E0,0E0,0E0,0E0],"parents":[2147483647,0,0,1,1,2,2,3,3,4,4,5,5,6,6],"right_children":[2,4,6,8,10,12,14,-1,-1,-1,-1,-1,-1,-1,-1],"split_conditions":[5E-1,-3.991521E-1,-7.84713E-1,-4.9799365E-1,3.7791765E-1,5E-1,-7.738615E-1,5.985599E-4,-1.748812E-3,-2.8585242E-3,-5.3970725E-3,1.1328672E-2,1.3383572E-2,-2.6511934E-3,1.0111555E-2],"split_indices":[27,13,13,13,13,15,13,0,0,0,0,0,0,0,0],"split_type":[0,0,0,0,0,0,0,0,0,0,0,0,0,0,0],"sum_hessian":[6.121979E3,4.9470894E3,1.1748898E3,1.8263441E3,3.120745E3,3.6995294E2,8.049368E2,1.6350924E3,1.9125172E2,1.4620326E3,1.6587125E3,2.7263583E2,9.731712E1,4.9715157E0,7.999653E2],"tree_param":{"num_deleted":"0","num_feature":"30","num_nodes":"15","size_leaf_vector":"0"}},{"base_weights":[4.2057985E-5,4.7985113E-1,-1.474228E-1,5.0096613E-1,-5.5822456E-1,1.4762937E-1,-2.790548E-1,4.220322E-1,6.436142E-1,-6.869752E-1,1.0983242E0,1.6554487E-1,-6.510897E-1,-1.5807E-1,-4.5861992E-1],"categories":[],"categories_nodes":[],"categories_segments":[],"categories_sizes":[],"default_left":[true,true,true,true,true,true,true,false,false,false,false,false,false,false,false],"id":40,"left_children":[1,3,5,7,9,11,13,-1,-1,-1,-1,-1,-1,-1,-1],"loss_changes":[4.331819E2,3.1827179E1,1.8192111E2,1.56171875E1,6.9748926E0,2.0790083E1,7.028592E1,0E0,0E0,0E0,0E0,0E0,0E0,0E0,0E0],"parents":[2147483647,0,0,1,1,2,2,3,3,4,4,5,5,6,6],"right_children":[2,4,6,8,10,12,14,-1,-1,-1,-1,-1,-1,-1,-1],"split_conditions":[-8.4056103E-1,1.6168725E0,-3.5100123E-1,-5.59953E-1,3.127204E0,1.815044E0,5.764314E-1,4.220322E-3,6.4361417E-3,-6.8697515E-3,1.0983242E-2,1.6554487E-3,-6.510897E-3,-1.5806999E-3,-4.5861993E-3],"split_indices":[11,14,14,14,14,11,11,0,0,0,0,0,0,0,0],"split_type":[0,0,0,0,0,0,0,0,0,0,0,0,0,0,0],"sum_hessian":[6.1202817E3,1.4382777E3,4.682004E3,1.4101127E3,2.8165056E1,1.4443597E3,3.237644E3,9.103379E2,4.9977478E2,2.6676962E1,1.4880948E0,1.4134485E3,3.0911306E1,1.9354711E3,1.3021731E3],"tree_param":{"num_deleted":"0","num_feature":"30","num_nodes":"15","size_leaf_vector":"0"}},{"base_weights":[4.2285767E-5,6.2650573E-1,-1.7792852E-1,4.6858785E-1,8.3601266E-1,4.920389E-1,-3.0156916E-1,4.7950244E-1,-4.6255317E-1,8.5823655E-1,-9.219694E-1,7.228495E-2,5.949788E-1,-1.4549278E-1,-6.3314265E-1],"categories":[],"categories_nodes":[],"categories_segments":[],"categories_sizes":[],"default_left":[true,true,true,true,true,true,true,false,false,false,false,false,false,false,false],"id":41,"left_children":[1,3,5,7,9,11,13,-1,-1,-1,-1,-1,-1,-1,-1],"loss_changes":[6.825094E2,4.4415894E1,3.9504572E2,8.093216E0,2.3482971E1,3.2065872E1,2.0821341E2,0E0,0E0,0E0,0E0,0E0,0E0,0E0,0E0],"parents":[2147483647,0,0,1,1,2,2,3,3,4,4,5,5,6,6],"right_children":[2,4,6,8,10,12,14,-1,-1,-1,-1,-1,-1,-1,-1],"split_conditions":[-9.141182E-1,-6.351964E-1,-8.218189E-1,-6.920147E-1,2.2295353E0,-5.916962E-1,5.827478E-1,4.795024E-3,-4.625532E-3,8.582366E-3,-9.219694E-3,7.228495E-4,5.949788E-3,-1.4549277E-3,-6.3314266E-3],"split_indices":[9,10,10,10,10,9,9,0,0,0,0,0,0,0,0],"split_type":[0,0,0,0,0,0,0,0,0,0,0,0,0,0,0],"sum_hessian":[6.1195884E3,1.3533232E3,4.766265E3,7.735152E2,5.7980804E2,7.420988E2,4.0241665E3,7.650327E2,8.482478E0,5.730752E2,6.7328444E0,1.4648497E2,5.9561383E2,2.737177E3,1.2869894E3],"tree_param":{"num_deleted":"0","num_feature":"30","num_nodes":"15","size_leaf_vector":"0"}},{"base_weights":[4.170911E-5,-7.813814E-2,1.0773806E-1,-2.4339603E-2,-2.4016438E-1,-1.5635614E0,1.1094377E-1,-1.7010006E-1,1.11524634E-1,-1.1302348E0,-1.946376E-1,1.5429166E-1,1.4176086E-2],"categories":[],"categories_nodes":[],"categories_segments":[],"categories_sizes":[],"default_left":[true,true,true,true,true,false,true,false,false,false,false,false,false],"id":42,"left_children":[1,3,5,7,9,-1,11,-1,-1,-1,-1,-1,-1],"loss_changes":[5.1532467E1,3.0905521E1,1.3965708E1,5.2762928E1,3.5595226E1,0E0,1.0779335E1,0E0,0E0,0E0,0E0,0E0,0E0],"parents":[2147483647,0,0,1,1,2,2,3,3,4,4,6,6],"right_children":[2,4,6,8,10,-1,12,-1,-1,-1,-1,-1,-1],"split_conditions":[5E-1,1.7497027E-1,-7.787061E-1,-5.285904E-1,2.4874046E-1,-1.5635613E-2,-4.2106584E-2,-1.7010006E-3,1.1152463E-3,-1.1302348E-2,-1.9463759E-3,1.5429165E-3,1.4176086E-4],"split_indices":[1,8,8,8,8,0,8,0,0,0,0,0,0],"split_type":[0,0,0,0,0,0,0,0,0,0,0,0,0],"sum_hessian":[6.1184746E3,3.5451926E3,2.5732822E3,2.6623477E3,8.8284503E2,3.99452E0,2.5692876E3,1.2842751E3,1.3780725E3,4.1800457E1,8.4104456E2,1.7740105E3,7.952771E2],"tree_param":{"num_deleted":"0","num_feature":"30","num_nodes":"13","size_leaf_vector":"0"}},{"base_weights":[3.6728798E-5,-2.4912116E-1,1.0496044E0,1.4508071E-2,-3.1662044E-1,3.975906E-1,1.060924E0,-2.115142E-1,4.2643625E-2,-4.063379E-1,-2.3316927E-1,7.446188E-1,-6.360542E-2,1.3436084E0,1.0294096E0],"categories":[],"categories_nodes":[],"categories_segments":[],"categories_sizes":[],"default_left":[true,true,true,true,true,true,true,false,false,false,false,false,false,false,false],"id":43,"left_children":[1,3,5,7,9,11,13,-1,-1,-1,-1,-1,-1,-1,-1],"loss_changes":[1.6005132E3,8.802023E1,8.244019E0,6.426848E0,2.9388733E1,3.5101895E0,8.893311E0,0E0,0E0,0E0,0E0,0E0,0E0,0E0,0E0],"parents":[2147483647,0,0,1,1,2,2,3,3,4,4,5,5,6,6],"right_children":[2,4,6,8,10,12,14,-1,-1,-1,-1,-1,-1,-1,-1],"split_conditions":[5E-1,-7.2341037E-1,-7.419826E-1,-7.4287367E-1,5E-1,5E-1,-7.0228374E-1,-2.115142E-3,4.2643625E-4,-4.0633786E-3,-2.3316927E-3,7.4461875E-3,-6.360542E-4,1.3436084E-2,1.0294097E-2],"split_indices":[27,6,6,6,16,16,6,0,0,0,0,0,0,0,0],"split_type":[0,0,0,0,0,0,0,0,0,0,0,0,0,0,0],"sum_hessian":[6.11832E3,4.945149E3,1.173171E3,1.0082095E3,3.9369392E3,2.0636183E1,1.1525348E3,1.108884E2,8.973211E2,1.8953739E3,2.0415654E3,1.1424928E1,9.211255E0,1.1142405E2,1.0411107E3],"tree_param":{"num_deleted":"0","num_feature":"30","num_nodes":"15","size_leaf_vector":"0"}},{"base_weights":[4.0972736E-5,3.078261E-1,-3.1118435E-1,5.5823183E-1,1.5625133E-1,1.489024E-1,-4.2971686E-1,6.5380937E-1,4.5042992E-1,-3.9401073E-3,3.788085E-1,2.6111713E-1,-4.6319926E-1,-6.313086E-1,-1.11284964E-1],"categories":[],"categories_nodes":[],"categories_segments":[],"categories_sizes":[],"default_left":[true,true,true,true,true,true,true,false,false,false,false,false,false,false,false],"id":44,"left_children":[1,3,5,7,9,11,13,-1,-1,-1,-1,-1,-1,-1,-1],"loss_changes":[5.861155E2,1.1667673E2,1.6597968E2,1.1653534E1,6.837256E1,4.2980293E1,1.552373E2,0E0,0E0,0E0,0E0,0E0,0E0,0E0,0E0],"parents":[2147483647,0,0,1,1,2,2,3,3,4,4,5,5,6,6],"right_children":[2,4,6,8,10,12,14,-1,-1,-1,-1,-1,-1,-1,-1],"split_conditions":[-4.2104584E-1,-8.8758343E-1,-7.585466E-1,-5.3981006E-1,-2.5962186E-1,-7.0049745E-1,6.603048E-1,6.5380936E-3,4.5042993E-3,-3.940107E-5,3.788085E-3,2.6111712E-3,-4.6319924E-3,-6.313086E-3,-1.1128496E-3],"split_indices":[0,0,4,4,7,7,7,0,0,0,0,0,0,0,0],"split_type":[0,0,0,0,0,0,0,0,0,0,0,0,0,0,0],"sum_hessian":[6.1167207E3,3.075363E3,3.041358E3,1.1586154E3,1.9167477E3,6.229821E2,2.4183757E3,6.11443E2,5.471723E2,1.1151041E3,8.0164355E2,5.269512E2,9.603094E1,1.4802695E3,9.3810626E2],"tree_param":{"num_deleted":"0","num_feature":"30","num_nodes":"15","size_leaf_vector":"0"}},{"base_weights":[4.1452833E-5,1.3917007E-1,-2.9733187E-1,3.5349494E-1,2.0352209E-2,-3.4015566E-1,1.6416565E-1,3.6645445E-1,-1.7596401E0,4.8088226E-2,-2.9951796E-1,-2.8573403E-1,-7.14047E-1,6.8847924E-2,8.5176456E-1],"categories":[],"categories_nodes":[],"categories_segments":[],"categories_sizes":[],"default_left":[true,true,true,true,true,true,true,false,false,false,false,false,false,false,false],"id":45,"left_children":[1,3,5,7,9,11,13,-1,-1,-1,-1,-1,-1,-1,-1],"loss_changes":[2.5311595E2,1.0613087E2,3.8593536E1,4.1351562E1,2.3812859E1,3.6111282E1,1.0837767E1,0E0,0E0,0E0,0E0,0E0,0E0,0E0,0E0],"parents":[2147483647,0,0,1,1,2,2,3,3,4,4,5,5,6,6],"right_children":[2,4,6,8,10,12,14,-1,-1,-1,-1,-1,-1,-1,-1],"split_conditions":[3.7898022E-1,-2.993964E0,2.6388726E0,5E-1,3.2302275E-1,1.6442736E0,5.5688066E0,3.6645446E-3,-1.7596401E-2,4.8088224E-4,-2.9951795E-3,-2.8573403E-3,-7.14047E-3,6.884792E-4,8.517645E-3],"split_indices":[13,13,3,19,3,13,3,0,0,0,0,0,0,0,0],"split_type":[0,0,0,0,0,0,0,0,0,0,0,0,0,0,0],"sum_hessian":[6.1158813E3,4.166896E3,1.9489854E3,1.4854503E3,2.6814458E3,1.7837303E3,1.6525496E2,1.4772174E3,8.23295E0,2.468271E3,2.131747E2,1.5586288E3,2.2510155E2,1.4610185E2,1.9153097E1],"tree_param":{"num_deleted":"0","num_feature":"30","num_nodes":"15","size_leaf_vector":"0"}},{"base_weights":[3.8182312E-5,-5.5067056E-1,1.0400224E0,-5.7950866E-1,9.1261977E-1,8.706683E-1,1.1201868E0,-5.7739705E-1,-1.0131447E0,8.7915057E-1,-1.3511088E0],"categories":[],"categories_nodes":[],"categories_segments":[],"categories_sizes":[],"default_left":[true,true,true,true,false,true,false,false,false,false,false],"id":46,"left_children":[1,3,5,7,-1,9,-1,-1,-1,-1,-1],"loss_changes":[3.5035786E3,1.693009E2,2.7777344E1,3.00708E0,0E0,1.409552E1,0E0,0E0,0E0,0E0,0E0],"parents":[2147483647,0,0,1,1,2,2,3,3,5,5],"right_children":[2,4,6,8,-1,10,-1,-1,-1,-1,-1],"split_conditions":[5E-1,5E-1,5E-1,5E-1,9.126198E-3,5E-1,1.1201868E-2,-5.7739704E-3,-1.0131447E-2,8.791505E-3,-1.3511088E-2],"split_indices":[24,25,25,18,0,18,0,0,0,0,0],"split_type":[0,0,0,0,0,0,0,0,0,0,0],"sum_hessian":[6.1153477E3,3.99848E3,2.1168674E3,3.9217944E3,7.668557E1,6.839104E2,1.4329572E3,3.9051096E3,1.6684927E1,6.819113E2,1.9991041E0],"tree_param":{"num_deleted":"0","num_feature":"30","num_nodes":"11","size_leaf_vector":"0"}},{"base_weights":[3.8798335E-5,4.0206003E-1,-1.2637605E-1,1.3214983E-1,6.071634E-1,-6.1784717E-3,-2.9365134E-1,3.0167732E-1,-2.918839E-1,-1.8875344E-1,6.5475017E-1,6.543334E-2,-2.7993116E-1,-5.8276224E-1,-2.1101226E-1],"categories":[],"categories_nodes":[],"categories_segments":[],"categories_sizes":[],"default_left":[true,true,true,true,true,true,true,false,false,false,false,false,false,false,false],"id":47,"left_children":[1,3,5,7,9,11,13,-1,-1,-1,-1,-1,-1,-1,-1],"loss_changes":[3.107652E2,8.090074E1,9.353217E1,4.5584366E1,3.1594727E1,5.3104774E1,4.6348434E1,0E0,0E0,0E0,0E0,0E0,0E0,0E0,0E0],"parents":[2147483647,0,0,1,1,2,2,3,3,4,4,5,5,6,6],"right_children":[2,4,6,8,10,12,14,-1,-1,-1,-1,-1,-1,-1,-1],"split_conditions":[-8.104743E-1,-7.4269545E-1,3.8520128E-1,-7.173281E-1,-7.6984614E-1,-8.622135E-2,-4.378646E-1,3.0167731E-3,-2.9188388E-3,-1.8875344E-3,6.5475013E-3,6.543334E-4,-2.7993114E-3,-5.8276225E-3,-2.1101225E-3],"split_indices":[12,6,12,3,3,3,3,0,0,0,0,0,0,0,0],"split_type":[0,0,0,0,0,0,0,0,0,0,0,0,0,0,0],"sum_hessian":[6.112843E3,1.4618201E3,4.651023E3,6.319009E2,8.299191E2,2.7069502E3,1.9440729E3,4.516293E2,1.8027156E2,4.6652996E1,7.832661E2,2.1462634E3,5.606867E2,4.3081726E2,1.5132556E3],"tree_param":{"num_deleted":"0","num_feature":"30","num_nodes":"15","size_leaf_vector":"0"}},{"base_weights":[3.7668506E-5,-3.601376E-1,1.0993338E0,3.9923966E-2,-5.1748794E-1,1.1938353E0,1.0555034E0,1.0612741E-1,-1.500871E-1,-3.7377128E-1,-6.499845E-1,8.951018E-1,1.1100434E0],"categories":[],"categories_nodes":[],"categories_segments":[],"categories_sizes":[],"default_left":[true,true,true,true,true,false,true,false,false,false,false,false,false],"id":48,"left_children":[1,3,5,7,9,-1,11,-1,-1,-1,-1,-1,-1],"loss_changes":[2.420814E3,2.8991962E2,4.989746E0,1.6380814E1,6.2696594E1,0E0,8.099609E0,0E0,0E0,0E0,0E0,0E0,0E0],"parents":[2147483647,0,0,1,1,2,2,3,3,4,4,6,6],"right_children":[2,4,6,8,10,-1,12,-1,-1,-1,-1,-1,-1],"split_conditions":[5E-1,-6.175528E-1,-8.4291804E-1,-8.4056103E-1,2.9291007E-1,1.1938352E-2,-2.9901853E-1,1.0612741E-3,-1.500871E-3,-3.7377127E-3,-6.4998446E-3,8.951018E-3,1.1100434E-2],"split_indices":[25,11,11,11,11,0,11,0,0,0,0,0,0],"split_type":[0,0,0,0,0,0,0,0,0,0,0,0,0],"sum_hessian":[6.1121045E3,4.604237E3,1.5078677E3,1.2999286E3,3.304308E3,4.694538E2,1.038414E3,9.643666E2,3.3556204E2,1.586874E3,1.7174341E3,2.6790866E2,7.7050525E2],"tree_param":{"num_deleted":"0","num_feature":"30","num_nodes":"13","size_leaf_vector":"0"}},{"base_weights":[4.1780666E-5,6.637509E-2,-1.3523287E-1,8.438254E-2,-9.576181E-1,-4.793558E-1,-8.103126E-2,1.2946733E-2,1.745548E-1,-1.1050477E0,-6.034195E-1,-1.284595E0,-3.996899E-1,-2.0094356E-1,4.6548806E-2],"categories":[],"categories_nodes":[],"categories_segments":[],"categories_sizes":[],"default_left":[true,true,true,true,true,true,true,false,false,false,false,false,false,false,false],"id":49,"left_children":[1,3,5,7,9,11,13,-1,-1,-1,-1,-1,-1,-1,-1],"loss_changes":[5.4840733E1,7.569671E1,3.7467514E1,2.5962294E1,3.038086E0,1.7026527E1,2.6604542E1,0E0,0E0,0E0,0E0,0E0,0E0,0E0,0E0],"parents":[2147483647,0,0,1,1,2,2,3,3,4,4,5,5,6,6],"right_children":[2,4,6,8,10,12,14,-1,-1,-1,-1,-1,-1,-1,-1],"split_conditions":[-7.9790026E-2,5.2938342E-2,-3.7219584E-2,-4.9565786E-1,9.0107334E-1,-5.3245865E-2,5E-1,1.2946733E-4,1.7455479E-3,-1.1050477E-2,-6.0341945E-3,-1.284595E-2,-3.996899E-3,-2.0094356E-3,4.6548806E-4],"split_indices":[4,6,6,6,6,4,21,0,0,0,0,0,0,0,0],"split_type":[0,0,0,0,0,0,0,0,0,0,0,0,0,0,0],"sum_hessian":[6.109603E3,4.0997554E3,2.0098478E3,4.0298066E3,6.994864E1,2.724206E2,1.7374271E3,2.2491443E3,1.7806622E3,4.7893764E1,2.2054874E1,2.3163733E1,2.4925685E2,8.9533154E2,8.4209564E2],"tree_param":{"num_deleted":"0","num_feature":"30","num_nodes":"15","size_leaf_vector":"0"}}]},"name":"gbtree"},"learner_model_param":{"base_score":"5E-1","num_class":"0","num_feature":"30"},"objective":{"name":"binary:logistic","reg_loss_param":{"scale_pos_weight":"1"}}},"version":[1,5,0]}