{"learner":{"attributes":{"best_iteration":"43","best_ntree_limit":"44","best_score":"0.773173","scikit_learn":"{\"use_label_encoder\": true, \"n_estimators\": 100, \"objective\": \"binary:logistic\", \"max_depth\": 3, \"learning_rate\": 0.2, \"verbosity\": null, \"booster\": null, \"tree_method\": null, \"gamma\": 0.0, \"min_child_weight\": null, \"max_delta_step\": null, \"subsample\": null, \"colsample_bytree\": 0.2, \"colsample_bylevel\": null, \"colsample_bynode\": null, \"reg_alpha\": null, \"reg_lambda\": null, \"scale_pos_weight\": null, \"base_score\": null, \"missing\": NaN, \"num_parallel_tree\": null, \"random_state\": null, \"n_jobs\": null, \"monotone_constraints\": null, \"interaction_constraints\": null, \"importance_type\": null, \"gpu_id\": null, \"validate_parameters\": null, \"predictor\": null, \"enable_categorical\": false, \"classes_\": [0, 1], \"n_classes_\": 2, \"_le\": {\"classes_\": [0, 1]}, \"evals_result_\": {\"validation_0\": {\"auc\": [0.61975, 0.710696, 0.765905, 0.767387, 0.768875, 0.768458, 0.769258, 0.768779, 0.767785, 0.766714, 0.767574, 0.770344, 0.769736, 0.769125, 0.768793, 0.770038, 0.769534, 0.76964, 0.76917, 0.769792, 0.76907, 0.769, 0.768803, 0.769261, 0.769381, 0.769291, 0.769083, 0.769442, 0.768929, 0.769668, 0.770661, 0.770767, 0.770413, 0.770391, 0.770319, 0.769817, 0.77052, 0.771224, 0.771227, 0.771357, 0.771244, 0.773072, 0.773069, 0.773173, 0.772967, 0.772985, 0.772913, 0.773046, 0.773007, 0.773037, 0.773058, 0.772988, 0.772765, 0.77268, 0.772722, 0.772689, 0.772219, 0.77251, 0.772562, 0.772559, 0.771904, 0.772605, 0.772659, 0.772631]}}, \"_estimator_type\": \"classifier\"}"},"feature_names":["credit","age","education_1","education_2","education_3","education_4","education_5","education_6","marital_status_3","late_payment_sep","late_payment_aug","late_payment_jul","late_payment_jun","late_payment_may","late_payment_apr"],"feature_types":["float","float","int","int","int","int","int","int","int","int","int","int","int","int","int"],"gradient_booster":{"model":{"gbtree_model_param":{"num_trees":"64","size_leaf_vector":"0"},"tree_info":[0,0,0,0,0,0,0,0,0,0,0,0,0,0,0,0,0,0,0,0,0,0,0,0,0,0,0,0,0,0,0,0,0,0,0,0,0,0,0,0,0,0,0,0,0,0,0,0,0,0,0,0,0,0,0,0,0,0,0,0,0,0,0,0],"trees":[{"base_weights":[-1.0567609E0,-1.2290981E0,2.967033E-1,-1.223796E0,-1.6862745E0,3.727162E-1,2.333001E-1,-1.2581412E0,-1.1878319E0],"categories":[],"categories_nodes":[],"categories_segments":[],"categories_sizes":[],"default_left":[true,true,true,true,false,false,false,false,false],"id":0,"left_children":[1,3,5,7,-1,-1,-1,-1,-1],"loss_changes":[9.383301E2,6.583008E0,2.105896E0,2.866211E0,0E0,0E0,0E0,0E0,0E0],"parents":[2147483647,0,0,1,1,2,2,3,3],"right_children":[2,4,6,8,-1,-1,-1,-1,-1],"split_conditions":[5E-1,5E-1,5E-1,5E-1,-3.372549E-1,7.454324E-2,4.666002E-2,-2.5162825E-1,-2.3756638E-1],"split_indices":[13,6,3,3,0,0,0,0,0],"split_type":[0,0,0,0,0,0,0,0,0],"sum_hessian":[4.02025E3,3.56625E3,4.54E2,3.529E3,3.725E1,2.0425E2,2.4975E2,1.78775E3,1.74125E3],"tree_param":{"num_deleted":"0","num_feature":"15","num_nodes":"9","size_leaf_vector":"0"}},{"base_weights":[-8.5816E-1,-1.116974E0,4.4249803E-1,-9.003409E-1,-1.2483419E0,4.733332E-1,1.6564383E-1,-6.989824E-1,-1.0014424E0,-1.177049E0,-1.2613645E0,4.1532832E-1,6.7795444E-1,-2.5813207E-1,2.0878418E-1],"categories":[],"categories_nodes":[],"categories_segments":[],"categories_sizes":[],"default_left":[true,true,true,true,true,true,true,false,false,false,false,false,false,false,false],"id":1,"left_children":[1,3,5,7,9,11,13,-1,-1,-1,-1,-1,-1,-1,-1],"loss_changes":[1.336051E3,9.305371E1,5.5487823E0,2.4804443E1,4.2529297E-1,6.7516327E0,1.2896866E0,0E0,0E0,0E0,0E0,0E0,0E0,0E0,0E0],"parents":[2147483647,0,0,1,1,2,2,3,3,4,4,5,5,6,6],"right_children":[2,4,6,8,10,12,14,-1,-1,-1,-1,-1,-1,-1,-1],"split_conditions":[5E-1,-4.9880207E-1,5.120294E-1,-8.8758343E-1,-1.8777701E-1,5E-1,5.897857E-1,-1.3979648E-1,-2.0028849E-1,-2.3540981E-1,-2.522729E-1,8.3065666E-2,1.355909E-1,-5.1626414E-2,4.1756835E-2],"split_indices":[10,0,0,0,0,2,0,0,0,0,0,0,0,0,0],"split_type":[0,0,0,0,0,0,0,0,0,0,0,0,0,0,0],"sum_hessian":[3.96645E3,3.3082856E3,6.581644E2,1.2518185E3,2.056467E3,5.915677E2,6.6596725E1,4.210833E2,8.3073517E2,3.3173862E2,1.7247284E3,4.6327173E2,1.2829599E2,5.692701E0,6.0904026E1],"tree_param":{"num_deleted":"0","num_feature":"15","num_nodes":"15","size_leaf_vector":"0"}},{"base_weights":[-7.118887E-1,-1.0533397E0,3.334491E-1,-1.0933055E0,-3.7488365E-1,1.5205987E-1,6.3068193E-1],"categories":[],"categories_nodes":[],"categories_segments":[],"categories_sizes":[],"default_left":[true,true,true,false,false,false,false],"id":2,"left_children":[1,3,5,-1,-1,-1,-1],"loss_changes":[1.3728502E3,7.81897E1,5.099006E1,0E0,0E0,0E0,0E0],"parents":[2147483647,0,0,1,1,2,2],"right_children":[2,4,6,-1,-1,-1,-1],"split_conditions":[5E-1,5E-1,5E-1,-2.186611E-1,-7.4976735E-2,3.0411974E-2,1.2613639E-1],"split_indices":[9,12,12,0,0,0,0],"split_type":[0,0,0,0,0,0,0],"sum_hessian":[3.8442715E3,2.8977407E3,9.465309E2,2.735962E3,1.6177872E2,5.887513E2,3.577796E2],"tree_param":{"num_deleted":"0","num_feature":"15","num_nodes":"7","size_leaf_vector":"0"}},{"base_weights":[-5.991902E-1,-8.98923E-1,2.6701766E-1,-9.357238E-1,-3.0421597E-1,1.12858444E-1,6.1883825E-1,-9.53693E-1,-4.970097E-1,-3.5581627E-1,-2.1441022E-1,4.941646E-2,3.544671E-1],"categories":[],"categories_nodes":[],"categories_segments":[],"categories_sizes":[],"default_left":[true,true,true,true,true,true,false,false,false,false,false,false,false],"id":3,"left_children":[1,3,5,7,9,11,-1,-1,-1,-1,-1,-1,-1],"loss_changes":[9.564148E2,5.9601074E1,5.132068E1,1.9836182E1,6.694956E-1,1.0100027E1,0E0,0E0,0E0,0E0,0E0,0E0,0E0],"parents":[2147483647,0,0,1,1,2,2,3,3,4,4,5,5],"right_children":[2,4,6,8,10,12,-1,-1,-1,-1,-1,-1,-1],"split_conditions":[5E-1,5E-1,5E-1,5E-1,5E-1,5E-1,1.2376765E-1,-1.907386E-1,-9.940194E-2,-7.116326E-2,-4.2882044E-2,9.883292E-3,7.089342E-2],"split_indices":[9,12,14,14,14,12,0,0,0,0,0,0,0],"split_type":[0,0,0,0,0,0,0,0,0,0,0,0,0],"sum_hessian":[3.6818232E3,2.7352947E3,9.465284E2,2.575357E3,1.5993791E2,6.590636E2,2.8746478E2,2.472896E3,1.0246082E2,9.9694E1,6.0243908E1,5.2295087E2,1.3611275E2],"tree_param":{"num_deleted":"0","num_feature":"15","num_nodes":"13","size_leaf_vector":"0"}},{"base_weights":[-5.0806034E-1,-6.7733276E-1,2.3343241E-1,-6.730234E-1,-1.0604975E0,2.3948841E-1,-1.0649015E0,-6.751467E-1,-4.6683308E-1,2.4055453E-1,1.21824674E-1],"categories":[],"categories_nodes":[],"categories_segments":[],"categories_sizes":[],"default_left":[true,true,true,true,false,true,false,false,false,false,false],"id":4,"left_children":[1,3,5,7,-1,9,-1,-1,-1,-1,-1],"loss_changes":[4.4019385E2,3.9997559E0,5.384144E0,9.21875E-1,0E0,5.2246094E-2,0E0,0E0,0E0,0E0,0E0],"parents":[2147483647,0,0,1,1,2,2,3,3,5,5],"right_children":[2,4,6,8,-1,10,-1,-1,-1,-1,-1],"split_conditions":[5E-1,5E-1,5E-1,5E-1,-2.1209951E-1,5E-1,-2.129803E-1,-1.3502935E-1,-9.3366615E-2,4.8110906E-2,2.4364935E-2],"split_indices":[10,6,6,8,0,8,0,0,0,0,0],"split_type":[0,0,0,0,0,0,0,0,0,0,0],"sum_hessian":[3.5048618E3,2.8535278E3,6.513339E2,2.8245178E3,2.901012E1,6.491217E2,2.2122455E0,2.793477E3,3.1040775E1,6.42258E2,6.863719E0],"tree_param":{"num_deleted":"0","num_feature":"15","num_nodes":"11","size_leaf_vector":"0"}},{"base_weights":[-4.2811072E-1,-5.2707094E-1,2.3616053E-1,-3.078643E-1,-6.784722E-1,2.5017497E-1,-4.245388E-1,-1.3951927E-1,-4.0294236E-1,-6.014141E-1,-6.9826204E-1,6.773193E-1,2.3266767E-1,-8.960631E-1,6.154044E-2],"categories":[],"categories_nodes":[],"categories_segments":[],"categories_sizes":[],"default_left":[true,true,true,true,true,true,true,false,false,false,false,false,false,false,false],"id":5,"left_children":[1,3,5,7,9,11,13,-1,-1,-1,-1,-1,-1,-1,-1],"loss_changes":[2.205617E2,9.6662964E1,4.138504E0,1.9058846E1,2.2115479E0,3.036087E0,2.2133217E0,0E0,0E0,0E0,0E0,0E0,0E0,0E0,0E0],"parents":[2147483647,0,0,1,1,2,2,3,3,4,4,5,5,6,6],"right_children":[2,4,6,8,10,12,14,-1,-1,-1,-1,-1,-1,-1,-1],"split_conditions":[5E-1,-4.9880207E-1,1.6006172E0,-8.8758343E-1,-1.1002075E-1,-1.1364036E0,1.9116423E0,-2.7903855E-2,-8.0588475E-2,-1.2028282E-1,-1.3965242E-1,1.3546386E-1,4.6533536E-2,-1.7921261E-1,1.2308088E-2],"split_indices":[14,0,0,0,0,0,0,0,0,0,0,0,0,0,0],"split_type":[0,0,0,0,0,0,0,0,0,0,0,0,0,0,0],"sum_hessian":[3.3523499E3,2.9178655E3,4.3448428E2,1.1932498E3,1.7246158E3,4.2606808E2,8.416208E0,4.315737E2,7.616761E2,3.5882098E2,1.3657949E3,1.529173E1,4.1077637E2,3.8439295E0,4.572279E0],"tree_param":{"num_deleted":"0","num_feature":"15","num_nodes":"15","size_leaf_vector":"0"}},{"base_weights":[-3.5841244E-1,-1.618112E-1,-5.1514214E-1,-1.9760298E-2,-2.5210014E-1,-3.9555436E-1,-5.504099E-1,2.865462E-2,-5.5521376E-2,-3.285131E-1,-1.9169581E-1,-3.458735E-1,-4.1387874E-1,-5.304046E-1,-6.484776E-1],"categories":[],"categories_nodes":[],"categories_segments":[],"categories_sizes":[],"default_left":[true,true,true,true,true,true,true,false,false,false,false,false,false,false,false],"id":6,"left_children":[1,3,5,7,9,11,13,-1,-1,-1,-1,-1,-1,-1,-1],"loss_changes":[9.934766E1,1.8372025E1,7.353119E0,9.6751344E-1,3.9800797E0,2.3226166E-1,2.370636E0,0E0,0E0,0E0,0E0,0E0,0E0,0E0,0E0],"parents":[2147483647,0,0,1,1,2,2,3,3,4,4,5,5,6,6],"right_children":[2,4,6,8,10,12,14,-1,-1,-1,-1,-1,-1,-1,-1],"split_conditions":[-4.9880207E-1,-8.8758343E-1,-1.1002075E-1,5E-1,5E-1,-4.2104584E-1,1.6006172E0,5.730924E-3,-1.11042755E-2,-6.570262E-2,-3.8339164E-2,-6.91747E-2,-8.277575E-2,-1.0608093E-1,-1.2969552E-1],"split_indices":[0,0,0,3,3,0,0,0,0,0,0,0,0,0,0],"split_type":[0,0,0,0,0,0,0,0,0,0,0,0,0,0,0],"sum_hessian":[3.225892E3,1.4318352E3,1.794057E3,5.568951E2,8.749401E2,4.1137173E2,1.3826853E3,2.3667406E2,3.20221E2,3.8432315E2,4.9061694E2,1.16201614E2,2.951701E2,1.1537377E3,2.2894759E2],"tree_param":{"num_deleted":"0","num_feature":"15","num_nodes":"15","size_leaf_vector":"0"}},{"base_weights":[-2.971362E-1,-4.4557035E-1,2.7307758E-1,-4.8161077E-1,9.8481156E-2,2.2485699E-1,3.3683342E-1,-5.037399E-1,-4.578263E-1,2.0410939E-1,2.464561E-3,2.5249398E-1,2.0080324E-1,4.0277502E-1,2.8359511E-1],"categories":[],"categories_nodes":[],"categories_segments":[],"categories_sizes":[],"default_left":[true,true,true,true,true,true,true,false,false,false,false,false,false,false,false],"id":7,"left_children":[1,3,5,7,9,11,13,-1,-1,-1,-1,-1,-1,-1,-1],"loss_changes":[2.6514777E2,4.8770508E1,1.9144936E0,9.960327E-1,1.5736742E0,1.963253E-1,8.574066E-1,0E0,0E0,0E0,0E0,0E0,0E0,0E0,0E0],"parents":[2147483647,0,0,1,1,2,2,3,3,4,4,5,5,6,6],"right_children":[2,4,6,8,10,12,14,-1,-1,-1,-1,-1,-1,-1,-1],"split_conditions":[5E-1,5E-1,5E-1,5E-1,5E-1,5E-1,5E-1,-1.0074798E-1,-9.156526E-2,4.0821876E-2,4.929122E-4,5.0498795E-2,4.016065E-2,8.055501E-2,5.6719024E-2],"split_indices":[10,13,13,3,3,3,3,0,0,0,0,0,0,0,0],"split_type":[0,0,0,0,0,0,0,0,0,0,0,0,0,0,0],"sum_hessian":[3.130245E3,2.4838777E3,6.463675E2,2.329665E3,1.5421274E2,3.705988E2,2.7576874E2,1.196376E3,1.133289E3,7.289495E1,8.131779E1,1.6803499E2,2.0256378E2,1.2025452E2,1.555142E2],"tree_param":{"num_deleted":"0","num_feature":"15","num_nodes":"15","size_leaf_vector":"0"}},{"base_weights":[-2.4867295E-1,-3.4875405E-1,2.6602077E-1,-3.4586966E-1,-9.2847764E-1,-3.451935E-1,-5.747061E-1],"categories":[],"categories_nodes":[],"categories_segments":[],"categories_sizes":[],"default_left":[true,true,false,true,false,false,false],"id":8,"left_children":[1,3,-1,5,-1,-1,-1],"loss_changes":[1.5538615E2,3.9000854E0,0E0,1.9052124E-1,0E0,0E0,0E0],"parents":[2147483647,0,0,1,1,3,3],"right_children":[2,4,-1,6,-1,-1,-1],"split_conditions":[5E-1,5E-1,5.3204156E-2,5E-1,-1.8569553E-1,-6.9038704E-2,-1.1494122E-1],"split_indices":[12,5,0,7,0,0,0],"split_type":[0,0,0,0,0,0,0],"sum_hessian":[3.0137544E3,2.5234058E3,4.9034854E2,2.5125015E3,1.0904319E1,2.5076008E3,4.9006906E0],"tree_param":{"num_deleted":"0","num_feature":"15","num_nodes":"7","size_leaf_vector":"0"}},{"base_weights":[-2.0586516E-1,-2.9007065E-1,2.1327211E-1,-3.03042E-1,3.614582E-2,2.016679E-1,1.0068874E0,-3.0155343E-1,-4.138156E-1,1.7429298E-1,2.1430968E-1,1.4538751E0,5.0656205E-1],"categories":[],"categories_nodes":[],"categories_segments":[],"categories_sizes":[],"default_left":[true,true,true,true,false,true,true,false,false,false,false,false,false],"id":9,"left_children":[1,3,5,7,-1,9,11,-1,-1,-1,-1,-1,-1],"loss_changes":[1.0344772E2,1.0334351E1,4.31526E0,2.62146E-1,0E0,1.3042259E-1,7.8876066E-1,0E0,0E0,0E0,0E0,0E0,0E0],"parents":[2147483647,0,0,1,1,2,2,3,3,5,5,6,6],"right_children":[2,4,6,8,-1,10,12,-1,-1,-1,-1,-1,-1],"split_conditions":[5E-1,5E-1,5E-1,5E-1,7.2291642E-3,5E-1,5E-1,-6.0310688E-2,-8.276312E-2,3.4858596E-2,4.2861935E-2,2.9077503E-1,1.01312414E-1],"split_indices":[12,13,8,8,0,13,13,0,0,0,0,0,0],"split_type":[0,0,0,0,0,0,0,0,0,0,0,0,0],"sum_hessian":[2.9283035E3,2.4386765E3,4.8962698E2,2.3454841E3,9.319247E1,4.8380692E2,5.8200846E0,2.3180564E3,2.7427624E1,1.5751208E2,3.2629483E2,2.0673068E0,3.7527776E0],"tree_param":{"num_deleted":"0","num_feature":"15","num_nodes":"13","size_leaf_vector":"0"}},{"base_weights":[-1.6962083E-1,-4.2076105E-1,3.9499184E-1,-4.3583277E-1,-2.1058007E-1,3.549445E-1,4.9923798E-1,-3.965501E-1,-5.176887E-1,-2.496774E-1,-1.1564815E-1,4.098973E-1,2.478476E-1],"categories":[],"categories_nodes":[],"categories_segments":[],"categories_sizes":[],"default_left":[true,true,true,true,true,true,false,false,false,false,false,false,false],"id":10,"left_children":[1,3,5,7,9,11,-1,-1,-1,-1,-1,-1,-1],"loss_changes":[4.0501993E2,6.1698303E0,3.4945831E0,5.722412E0,4.6919394E-1,3.6583557E0,0E0,0E0,0E0,0E0,0E0,0E0,0E0],"parents":[2147483647,0,0,1,1,2,2,3,3,4,4,5,5],"right_children":[2,4,6,8,10,12,-1,-1,-1,-1,-1,-1,-1],"split_conditions":[5E-1,5E-1,5E-1,5E-1,5E-1,5E-1,9.98476E-2,-7.931002E-2,-1.0353774E-1,-4.9935482E-2,-2.312963E-2,8.197946E-2,4.956952E-2],"split_indices":[9,13,2,2,2,13,0,0,0,0,0,0,0],"split_type":[0,0,0,0,0,0,0,0,0,0,0,0,0],"sum_hessian":[2.8541653E3,1.9756494E3,8.785158E2,1.8424564E3,1.3319301E2,6.378741E2,2.4064177E2,1.2489363E3,5.9352014E2,9.3185036E1,4.0007977E1,4.196956E2,2.181785E2],"tree_param":{"num_deleted":"0","num_feature":"15","num_nodes":"13","size_leaf_vector":"0"}},{"base_weights":[-1.417961E-1,-2.3392907E-1,1.6982111E-1,-2.6648405E-1,-1.6869554E-1,1.7638278E-1,-5.415167E-1,-1.723445E-1,-2.9140097E-1,-1.9331606E-1,-1.1462184E-1,1.5215282E-1,2.6518333E-1,-1.1087325E0,2.1205229E-1],"categories":[],"categories_nodes":[],"categories_segments":[],"categories_sizes":[],"default_left":[true,true,true,true,true,true,true,false,false,false,false,false,false,false,false],"id":11,"left_children":[1,3,5,7,9,11,13,-1,-1,-1,-1,-1,-1,-1,-1],"loss_changes":[7.94332E1,4.48851E0,3.0435944E0,3.286087E0,9.276104E-1,1.307848E0,2.8077064E0,0E0,0E0,0E0,0E0,0E0,0E0,0E0,0E0],"parents":[2147483647,0,0,1,1,2,2,3,3,4,4,5,5,6,6],"right_children":[2,4,6,8,10,12,14,-1,-1,-1,-1,-1,-1,-1,-1],"split_conditions":[5E-1,3.345638E-1,2.8064265E0,-1.062576E0,1.4092867E0,8.7192523E-1,3.021371E0,-3.44689E-2,-5.8280196E-2,-3.8663212E-2,-2.292437E-2,3.0430565E-2,5.3036667E-2,-2.2174649E-1,4.241046E-2],"split_indices":[10,1,1,1,1,1,1,0,0,0,0,0,0,0,0],"split_type":[0,0,0,0,0,0,0,0,0,0,0,0,0,0,0],"sum_hessian":[2.764338E3,2.1337278E3,6.306102E2,1.4213259E3,7.124018E2,6.2559155E2,5.018669E0,2.9912115E2,1.1222048E3,4.877481E2,2.246537E2,4.936174E2,1.3197414E2,2.5944803E0,2.4241886E0],"tree_param":{"num_deleted":"0","num_feature":"15","num_nodes":"15","size_leaf_vector":"0"}},{"base_weights":[-1.1651717E-1,-1.7071617E-1,1.8995173E-1,-1.892153E-1,-8.3995536E-2,1.6107284E-1,2.6609185E-1,-1.7055851E-1,-2.2007947E-1,1.4974768E-1,1.9298175E-1],"categories":[],"categories_nodes":[],"categories_segments":[],"categories_sizes":[],"default_left":[true,true,true,true,false,true,false,false,false,false,false],"id":12,"left_children":[1,3,5,7,-1,9,-1,-1,-1,-1,-1],"loss_changes":[4.4986725E1,3.6742706E0,8.524561E-1,1.0536728E0,0E0,7.8697205E-2,0E0,0E0,0E0,0E0,0E0],"parents":[2147483647,0,0,1,1,2,2,3,3,5,5],"right_children":[2,4,6,8,-1,10,-1,-1,-1,-1,-1],"split_conditions":[5E-1,5E-1,5E-1,5E-1,-1.6799107E-2,5E-1,5.3218372E-2,-3.4111705E-2,-4.4015896E-2,2.9949537E-2,3.859635E-2],"split_indices":[14,4,2,2,0,4,0,0,0,0,0],"split_type":[0,0,0,0,0,0,0,0,0,0,0],"sum_hessian":[2.7054094E3,2.2992332E3,4.0617624E2,1.8940212E3,4.05212E2,2.9674167E2,1.0943455E2,1.1845247E3,7.094966E2,2.2321199E2,7.3529686E1],"tree_param":{"num_deleted":"0","num_feature":"15","num_nodes":"11","size_leaf_vector":"0"}},{"base_weights":[-9.491601E-2,-1.3939068E-1,1.5251562E-1,-1.2088362E-1,-1.8102863E-1,1.2931019E-1,2.1368925E-1],"categories":[],"categories_nodes":[],"categories_segments":[],"categories_sizes":[],"default_left":[true,true,true,false,false,false,false],"id":13,"left_children":[1,3,5,-1,-1,-1,-1],"loss_changes":[2.9351883E1,1.71949E0,5.495148E-1,0E0,0E0,0E0,0E0],"parents":[2147483647,0,0,1,1,2,2],"right_children":[2,4,6,-1,-1,-1,-1],"split_conditions":[5E-1,5E-1,5E-1,-2.4176724E-2,-3.6205728E-2,2.5862038E-2,4.2737853E-2],"split_indices":[14,2,2,0,0,0,0],"split_type":[0,0,0,0,0,0,0],"sum_hessian":[2.664345E3,2.258777E3,4.0556784E2,1.5664373E3,6.923398E2,2.9628845E2,1.0927938E2],"tree_param":{"num_deleted":"0","num_feature":"15","num_nodes":"7","size_leaf_vector":"0"}},{"base_weights":[-7.7078134E-2,-1.4692563E-1,1.4790243E-1,-1.7809118E-1,2.0794635E-1,2.0134397E-1,9.325962E-2,-1.9348194E-1,9.006186E-2,3.4780234E-1,-4.3872576E-3,1.7583114E-1,3.2585454E-1,4.2197626E-2,1.2534566E-1],"categories":[],"categories_nodes":[],"categories_segments":[],"categories_sizes":[],"default_left":[true,true,true,true,true,true,true,false,false,false,false,false,false,false,false],"id":14,"left_children":[1,3,5,7,9,11,13,-1,-1,-1,-1,-1,-1,-1,-1],"loss_changes":[4.1378372E1,2.2253796E1,1.8033991E0,7.64077E0,4.8311453E0,9.4206905E-1,5.03248E-1,0E0,0E0,0E0,0E0,0E0,0E0,0E0,0E0],"parents":[2147483647,0,0,1,1,2,2,3,3,4,4,5,5,6,6],"right_children":[2,4,6,8,10,12,14,-1,-1,-1,-1,-1,-1,-1,-1],"split_conditions":[5E-1,5E-1,5E-1,5E-1,5E-1,5E-1,5E-1,-3.869639E-2,1.8012373E-2,6.956047E-2,-8.7745156E-4,3.516623E-2,6.517091E-2,8.439525E-3,2.5069132E-2],"split_indices":[10,12,12,14,14,14,14,0,0,0,0,0,0,0,0],"split_type":[0,0,0,0,0,0,0,0,0,0,0,0,0,0,0],"sum_hessian":[2.6307793E3,2.0077881E3,6.2299115E2,1.8461534E3,1.6163469E2,3.1360034E2,3.093908E2,1.7462075E3,9.994583E1,9.706422E1,6.457047E1,2.6227176E2,5.132858E1,1.2028439E2,1.8910641E2],"tree_param":{"num_deleted":"0","num_feature":"15","num_nodes":"15","size_leaf_vector":"0"}},{"base_weights":[-6.291057E-2,-1.403482E-1,2.3041978E-1,-1.5612057E-1,7.7468164E-2,3.9469302E-1,6.070257E-2,-2.024103E-1,-1.237368E-1,1.1564294E-1,-5.821906E-1,4.3315563E-1,1.3799862E-2,-2.50076E-2,2.3757267E-1],"categories":[],"categories_nodes":[],"categories_segments":[],"categories_sizes":[],"default_left":[true,true,true,true,true,true,true,false,false,false,false,false,false,false,false],"id":15,"left_children":[1,3,5,7,9,11,13,-1,-1,-1,-1,-1,-1,-1,-1],"loss_changes":[5.889102E1,7.057007E0,1.5075024E1,2.8418655E0,3.5709734E0,4.0230675E0,4.0619316E0,0E0,0E0,0E0,0E0,0E0,0E0,0E0,0E0],"parents":[2147483647,0,0,1,1,2,2,3,3,4,4,5,5,6,6],"right_children":[2,4,6,8,10,12,14,-1,-1,-1,-1,-1,-1,-1,-1],"split_conditions":[5E-1,5E-1,5E-1,-4.1774225E-1,1.7317035E0,1.6242313E0,4.4203606E-1,-4.048206E-2,-2.474736E-2,2.312859E-2,-1.1643811E-1,8.663113E-2,2.7599724E-3,-5.0015203E-3,4.7514535E-2],"split_indices":[11,13,13,1,1,1,1,0,0,0,0,0,0,0,0],"split_type":[0,0,0,0,0,0,0,0,0,0,0,0,0,0,0],"sum_hessian":[2.5902034E3,2.049633E3,5.4057043E2,1.9115017E3,1.3813121E2,2.7401724E2,2.6655322E2,7.846558E2,1.126846E3,1.3135435E2,6.7768483E0,2.487602E2,2.5257038E1,1.8012457E2,8.642866E1],"tree_param":{"num_deleted":"0","num_feature":"15","num_nodes":"15","size_leaf_vector":"0"}},{"base_weights":[-5.1249992E-2,-8.199332E-2,8.5100956E-2,-7.91096E-2,-7.324366E-1,-9.240374E-2,-1.6651807E-2],"categories":[],"categories_nodes":[],"categories_segments":[],"categories_sizes":[],"default_left":[true,true,false,true,false,false,false],"id":16,"left_children":[1,3,-1,5,-1,-1,-1],"loss_changes":[1.073506E1,3.860177E0,0E0,1.7261887E0,0E0,0E0,0E0],"parents":[2147483647,0,0,1,1,3,3],"right_children":[2,4,-1,6,-1,-1,-1],"split_conditions":[5E-1,5E-1,1.7020192E-2,5E-1,-1.4648733E-1,-1.8480748E-2,-3.3303616E-3],"split_indices":[12,5,0,4,0,0,0],"split_type":[0,0,0,0,0,0,0],"sum_hessian":[2.558252E3,2.08789E3,4.703621E2,2.0797908E3,8.099054E0,1.7144011E3,3.6538965E2],"tree_param":{"num_deleted":"0","num_feature":"15","num_nodes":"7","size_leaf_vector":"0"}},{"base_weights":[-4.14682E-2,-3.9401155E-2,-6.6652805E-1,-6.9844656E-2,-1.0825977E-4,-7.199774E-1,-1.9448023E-1,6.7003686E-3,-9.74329E-2,4.1875564E-3,-2.3064488E-1],"categories":[],"categories_nodes":[],"categories_segments":[],"categories_sizes":[],"default_left":[true,true,true,true,true,false,false,false,false,false,false],"id":17,"left_children":[1,3,5,7,9,-1,-1,-1,-1,-1,-1],"loss_changes":[3.2545137E0,3.0287375E0,6.956124E-2,3.0133057E0,1.0966065E0,0E0,0E0,0E0,0E0,0E0,0E0],"parents":[2147483647,0,0,1,1,2,2,3,3,4,4],"right_children":[2,4,6,8,10,-1,-1,-1,-1,-1,-1],"split_conditions":[5E-1,1.2146903E-2,8.181891E-1,-1.062576E0,2.8064265E0,-1.4399548E-1,-3.8896047E-2,1.3400738E-3,-1.948658E-2,8.375113E-4,-4.6128977E-2],"split_indices":[5,1,1,1,1,0,0,0,0,0,0],"split_type":[0,0,0,0,0,0,0,0,0,0,0],"sum_hessian":[2.5382507E3,2.530944E3,7.306672E0,1.4256196E3,1.1053245E3,6.0916967E0,1.2149756E0,3.7789294E2,1.0477267E3,1.0860685E3,1.925595E1],"tree_param":{"num_deleted":"0","num_feature":"15","num_nodes":"11","size_leaf_vector":"0"}},{"base_weights":[-3.3457696E-2,8.716025E-2,-1.4200816E-1,1.9546159E-1,5.4012727E-2,-1.661316E-1,4.6209924E-2,2.4105802E-1,5.172347E-2,7.684786E-2,2.7387843E-3,-1.9837146E-1,-1.178365E-1,-8.822677E-2,2.8677022E-1],"categories":[],"categories_nodes":[],"categories_segments":[],"categories_sizes":[],"default_left":[true,true,true,true,true,true,true,false,false,false,false,false,false,false,false],"id":18,"left_children":[1,3,5,7,9,11,13,-1,-1,-1,-1,-1,-1,-1,-1],"loss_changes":[3.3131207E1,4.292903E0,6.054306E0,1.8261709E0,1.0760586E0,1.8149223E0,4.9434195E0,0E0,0E0,0E0,0E0,0E0,0E0,0E0,0E0],"parents":[2147483647,0,0,1,1,2,2,3,3,4,4,5,5,6,6],"right_children":[2,4,6,8,10,12,14,-1,-1,-1,-1,-1,-1,-1,-1],"split_conditions":[-4.9880207E-1,-1.0430961E0,5E-1,5E-1,-7.320709E-1,5E-1,5E-1,4.8211604E-2,1.0344694E-2,1.5369572E-2,5.4775685E-4,-3.9674293E-2,-2.35673E-2,-1.7645355E-2,5.7354044E-2],"split_indices":[0,0,13,13,0,2,2,0,0,0,0,0,0,0,0],"split_type":[0,0,0,0,0,0,0,0,0,0,0,0,0,0,0],"sum_hessian":[2.528481E3,1.1977617E3,1.3307191E3,2.7953934E2,9.182224E2,1.1796444E3,1.5107478E2,2.1170535E2,6.783398E1,6.3494666E2,2.8327576E2,7.0554425E2,4.741001E2,9.732059E1,5.3754196E1],"tree_param":{"num_deleted":"0","num_feature":"15","num_nodes":"15","size_leaf_vector":"0"}},{"base_weights":[-2.7137049E-2,-2.1080208E-1,3.3187616E-1,-1.8498385E-1,-2.6758355E-1,4.192573E-1,1.4545095E-1,-2.7932E-1,-1.2274898E-1,3.7311468E-1,5.316184E-1,1.0613172E-1,2.6972324E-1],"categories":[],"categories_nodes":[],"categories_segments":[],"categories_sizes":[],"default_left":[true,true,true,false,true,true,true,false,false,false,false,false,false],"id":19,"left_children":[1,3,5,-1,7,9,11,-1,-1,-1,-1,-1,-1],"loss_changes":[1.6573262E2,2.3880157E0,1.3796768E1,0E0,8.453369E-1,2.8018494E0,1.3054066E0,0E0,0E0,0E0,0E0,0E0,0E0],"parents":[2147483647,0,0,1,1,2,2,4,4,5,5,6,6],"right_children":[2,4,6,-1,8,10,12,-1,-1,-1,-1,-1,-1],"split_conditions":[5E-1,5E-1,5E-1,-3.699677E-2,5E-1,5E-1,5E-1,-5.5864003E-2,-2.4549795E-2,7.462294E-2,1.0632368E-1,2.1226345E-2,5.3944647E-2],"split_indices":[9,2,13,0,13,2,2,0,0,0,0,0,0],"split_type":[0,0,0,0,0,0,0,0,0,0,0,0,0],"sum_hessian":[2.511394E3,1.6617063E3,8.4968774E2,1.1452333E3,5.164731E2,5.7767236E2,2.7201538E2,4.768997E2,3.95734E1,4.1256677E2,1.6510559E2,2.0804488E2,6.39705E1],"tree_param":{"num_deleted":"0","num_feature":"15","num_nodes":"13","size_leaf_vector":"0"}},{"base_weights":[-2.255847E-2,6.872449E-2,-1.0707357E-1,1.5044856E-1,4.3410994E-2,-1.2958229E-1,5.96051E-2,1.9229516E-1,1.3941261E-1,3.544231E-2,1.5650271E-1,-1.2118347E-1,-2.6815322E-1,8.651018E-2,-4.1805464E-1],"categories":[],"categories_nodes":[],"categories_segments":[],"categories_sizes":[],"default_left":[true,true,true,true,true,true,true,false,false,false,false,false,false,false,false],"id":20,"left_children":[1,3,5,7,9,11,13,-1,-1,-1,-1,-1,-1,-1,-1],"loss_changes":[1.9098106E1,2.4557838E0,4.8298388E0,1.0299969E-1,8.146982E-1,1.285778E0,2.0102205E0,0E0,0E0,0E0,0E0,0E0,0E0,0E0,0E0],"parents":[2147483647,0,0,1,1,2,2,3,3,4,4,5,5,6,6],"right_children":[2,4,6,8,10,12,14,-1,-1,-1,-1,-1,-1,-1,-1],"split_conditions":[-4.9880207E-1,-1.0430961E0,5E-1,-1.1364036E0,-5.7655835E-1,2.455936E0,1.6006172E0,3.8459033E-2,2.7882522E-2,7.0884624E-3,3.130054E-2,-2.4236694E-2,-5.3630646E-2,1.7302036E-2,-8.361093E-2],"split_indices":[0,0,14,0,0,0,0,0,0,0,0,0,0,0,0],"split_type":[0,0,0,0,0,0,0,0,0,0,0,0,0,0,0],"sum_hessian":[2.4735652E3,1.1892589E3,1.2843064E3,2.800808E2,9.0917804E2,1.131701E3,1.526053E2,5.5021935E1,2.2505887E2,8.5055927E2,5.8618813E1,1.0687957E3,6.290546E1,1.452431E2,7.362203E0],"tree_param":{"num_deleted":"0","num_feature":"15","num_nodes":"15","size_leaf_vector":"0"}},{"base_weights":[-1.8283373E-2,-2.4581093E-2,9.929321E-3,-4.9643584E-2,-9.552107E-3,-4.8583057E-2,-2.0072073E-1],"categories":[],"categories_nodes":[],"categories_segments":[],"categories_sizes":[],"default_left":[true,true,false,true,false,false,false],"id":21,"left_children":[1,3,-1,5,-1,-1,-1],"loss_changes":[4.3753606E-1,7.574992E-1,0E0,1.11074686E-1,0E0,0E0,0E0],"parents":[2147483647,0,0,1,1,3,3],"right_children":[2,4,-1,6,-1,-1,-1],"split_conditions":[5E-1,5E-1,1.9858642E-3,5E-1,-1.9104214E-3,-9.716611E-3,-4.0144145E-2],"split_indices":[4,3,0,7,0,0,0],"split_type":[0,0,0,0,0,0,0],"sum_hessian":[2.4601812E3,2.0113339E3,4.488472E2,7.5312E2,1.2582139E3,7.491825E2,3.9375193E0],"tree_param":{"num_deleted":"0","num_feature":"15","num_nodes":"7","size_leaf_vector":"0"}},{"base_weights":[-1.4681135E-2,-1.3024648E-2,-5.7298696E-1,-1.7734053E-2,7.941069E-3,-1.8438803E-2,5.4499105E-2,9.660801E-3,-5.9236106E-2],"categories":[],"categories_nodes":[],"categories_segments":[],"categories_sizes":[],"default_left":[true,true,false,true,true,false,false,false,false],"id":22,"left_children":[1,3,-1,5,7,-1,-1,-1,-1],"loss_changes":[2.264699E0,2.4210402E-1,0E0,1.02889836E-1,5.2581016E-2,0E0,0E0,0E0,0E0],"parents":[2147483647,0,0,1,1,3,3,4,4],"right_children":[2,4,-1,6,8,-1,-1,-1,-1],"split_conditions":[5E-1,5E-1,-1.14597395E-1,5E-1,5E-1,-3.6877606E-3,1.0899821E-2,1.9321602E-3,-1.1847221E-2],"split_indices":[5,4,0,8,8,0,0,0,0],"split_type":[0,0,0,0,0,0,0,0,0],"sum_hessian":[2.4558516E3,2.449607E3,6.2446284E0,2.0004187E3,4.491881E2,1.9818275E3,1.8591185E1,4.3881076E2,1.0377339E1],"tree_param":{"num_deleted":"0","num_feature":"15","num_nodes":"9","size_leaf_vector":"0"}},{"base_weights":[-1.18242605E-2,-6.4513288E-3,-6.803606E-1,-1.9951303E-2,5.108959E-2,-6.1608013E-3,-5.098356E-2,3.5511414E-3,1.9630146E-1],"categories":[],"categories_nodes":[],"categories_segments":[],"categories_sizes":[],"default_left":[true,true,false,true,true,false,false,false,false],"id":23,"left_children":[1,3,-1,5,7,-1,-1,-1,-1],"loss_changes":[8.8083935E0,1.8924485E0,0E0,8.439931E-1,3.1953673E0,0E0,0E0,0E0,0E0],"parents":[2147483647,0,0,1,1,3,3,4,4],"right_children":[2,4,-1,6,8,-1,-1,-1,-1],"split_conditions":[5E-1,5E-1,-1.3607213E-1,5E-1,5E-1,-1.2321603E-3,-1.0196712E-2,7.102283E-4,3.9260294E-2],"split_indices":[6,12,0,2,2,0,0,0,0],"split_type":[0,0,0,0,0,0,0,0,0],"sum_hessian":[2.4524473E3,2.433896E3,1.8551226E1,1.9719093E3,4.619866E2,1.3660469E3,6.058624E2,3.488176E2,1.13169014E2],"tree_param":{"num_deleted":"0","num_feature":"15","num_nodes":"9","size_leaf_vector":"0"}},{"base_weights":[-9.577687E-3,-5.164124E-3,-6.059294E-1,-3.749403E-3,-5.1516676E-1,-4.204526E-3,-3.3226071E-3],"categories":[],"categories_nodes":[],"categories_segments":[],"categories_sizes":[],"default_left":[true,true,false,true,false,false,false],"id":24,"left_children":[1,3,-1,5,-1,-1,-1],"loss_changes":[6.436651E0,1.7511438E0,0E0,4.5688078E-4,0E0,0E0,0E0],"parents":[2147483647,0,0,1,1,3,3],"right_children":[2,4,-1,6,-1,-1,-1],"split_conditions":[5E-1,5E-1,-1.2118588E-1,5E-1,-1.0303336E-1,-8.4090524E-4,-6.645214E-4],"split_indices":[6,5,0,3,0,0,0],"split_type":[0,0,0,0,0,0,0],"sum_hessian":[2.4456921E3,2.4287258E3,1.6966192E1,2.423012E3,5.71396E0,1.1683087E3,1.2547031E3],"tree_param":{"num_deleted":"0","num_feature":"15","num_nodes":"7","size_leaf_vector":"0"}},{"base_weights":[-7.8058373E-3,-1.3818162E-2,2.3131102E-2,-1.8352723E-2,6.4032176E-3,4.4132788E-2,6.2295124E-3,-4.0663075E-2,-4.5619183E-3,6.440483E-2,1.5862677E-2],"categories":[],"categories_nodes":[],"categories_segments":[],"categories_sizes":[],"default_left":[true,true,true,true,false,true,false,false,false,false,false],"id":25,"left_children":[1,3,5,7,-1,9,-1,-1,-1,-1,-1],"loss_changes":[4.5493224E-1,1.87821E-1,1.4102703E-1,5.143564E-1,0E0,1.0061264E-1,0E0,0E0,0E0,0E0,0E0],"parents":[2147483647,0,0,1,1,2,2,3,3,5,5],"right_children":[2,4,6,8,-1,10,-1,-1,-1,-1,-1],"split_conditions":[5E-1,5E-1,5E-1,5E-1,1.2806435E-3,5E-1,1.2459025E-3,-8.132615E-3,-9.1238366E-4,1.2880966E-2,3.1725354E-3],"split_indices":[13,4,3,3,0,4,0,0,0,0,0],"split_type":[0,0,0,0,0,0,0,0,0,0,0],"sum_hessian":[2.4431157E3,2.0460392E3,3.9707648E2,1.6713402E3,3.7469888E2,1.763434E2,2.2073308E2,6.3771515E2,1.0336251E3,1.0195495E2,7.438846E1],"tree_param":{"num_deleted":"0","num_feature":"15","num_nodes":"11","size_leaf_vector":"0"}},{"base_weights":[-6.2548197E-3,-3.2984305E-2,2.8031912E-2,-3.5499077E-2,4.724501E-1,1.3211687E-1,1.8631184E-2,-7.4309236E-3,-5.7143953E-2,-2.8020248E-1,7.4407274E-1,-4.9546763E-2,3.0874362E-2],"categories":[],"categories_nodes":[],"categories_segments":[],"categories_sizes":[],"default_left":[true,true,true,true,true,false,true,false,false,false,false,false,false],"id":26,"left_children":[1,3,5,7,9,-1,11,-1,-1,-1,-1,-1,-1],"loss_changes":[2.2375443E0,1.7604432E0,1.0441601E0,8.2944715E-1,1.6112602E0,0E0,8.2139087E-1,0E0,0E0,0E0,0E0,0E0,0E0],"parents":[2147483647,0,0,1,1,2,2,3,3,4,4,6,6],"right_children":[2,4,6,8,10,-1,12,-1,-1,-1,-1,-1,-1],"split_conditions":[1.2146903E-2,5E-1,1.1961919E-1,-8.4763145E-1,-1.1700482E0,2.6423374E-2,3.345638E-1,-1.4861848E-3,-1.1428791E-2,-5.6040496E-2,1.4881454E-1,-9.909353E-3,6.1748726E-3],"split_indices":[1,8,1,1,1,0,1,0,0,0,0,0,0],"split_type":[0,0,0,0,0,0,0,0,0,0,0,0,0],"sum_hessian":[2.4394807E3,1.3708344E3,1.0686465E3,1.3649728E3,5.8616047E0,8.744133E1,9.8120514E2,5.9488916E2,7.7008356E2,1.5460345E0,4.31557E0,1.4891318E2,8.32292E2],"tree_param":{"num_deleted":"0","num_feature":"15","num_nodes":"13","size_leaf_vector":"0"}},{"base_weights":[-4.9949586E-3,-4.7198802E-2,1.4591002E-1,-5.710077E-2,6.73622E-2,3.698758E-1,8.016346E-2,-5.897422E-2,-3.940212E-2,5.21347E-1,6.1799172E-2,9.913307E-2,6.0069837E-2],"categories":[],"categories_nodes":[],"categories_segments":[],"categories_sizes":[],"default_left":[true,true,true,true,false,true,true,false,false,false,false,false,false],"id":27,"left_children":[1,3,5,7,-1,9,11,-1,-1,-1,-1,-1,-1],"loss_changes":[1.553924E1,2.1666327E0,7.82244E0,5.5882454E-2,0E0,5.6019726E0,1.5166283E-1,0E0,0E0,0E0,0E0,0E0,0E0],"parents":[2147483647,0,0,1,1,2,2,3,3,5,5,6,6],"right_children":[2,4,6,8,-1,10,12,-1,-1,-1,-1,-1,-1],"split_conditions":[5E-1,5E-1,5E-1,5E-1,1.347244E-2,5E-1,5E-1,-1.1794845E-2,-7.880424E-3,1.042694E-1,1.2359834E-2,1.9826613E-2,1.2013967E-2],"split_indices":[11,14,10,10,0,14,14,0,0,0,0,0,0],"split_type":[0,0,0,0,0,0,0,0,0,0,0,0,0],"sum_hessian":[2.4378308E3,1.9055812E3,5.3224976E2,1.7544395E3,1.5114168E2,1.19737625E2,4.1251215E2,1.5843945E3,1.70045E2,7.9806915E1,3.9930717E1,2.1016751E2,2.0234464E2],"tree_param":{"num_deleted":"0","num_feature":"15","num_nodes":"13","size_leaf_vector":"0"}},{"base_weights":[-4.072428E-3,6.1765213E-2,-6.678392E-2,1.228834E-1,4.2695872E-2,-6.463901E-2,-5.375484E-1,1.6253947E-1,-4.9047014E-3,3.597261E-2,1.371731E-1,-5.7878945E-2,-1.9056295E-1],"categories":[],"categories_nodes":[],"categories_segments":[],"categories_sizes":[],"default_left":[true,true,true,true,true,true,false,false,false,false,false,false,false],"id":28,"left_children":[1,3,5,7,9,11,-1,-1,-1,-1,-1,-1,-1],"loss_changes":[1.0037124E1,1.3769946E0,1.2224255E0,1.4273429E0,5.702193E-1,1.0449734E0,0E0,0E0,0E0,0E0,0E0,0E0,0E0],"parents":[2147483647,0,0,1,1,2,2,3,3,4,4,5,5],"right_children":[2,4,6,8,10,12,-1,-1,-1,-1,-1,-1,-1],"split_conditions":[-4.9880207E-1,-1.0430961E0,5E-1,5E-1,-5.7655835E-1,2.455936E0,-1.0750969E-1,3.2507893E-2,-9.809403E-4,7.1945223E-3,2.7434621E-2,-1.1575789E-2,-3.8112592E-2],"split_indices":[0,0,5,13,0,0,0,0,0,0,0,0,0],"split_type":[0,0,0,0,0,0,0,0,0,0,0,0,0],"sum_hessian":[2.429017E3,1.1849807E3,1.2440365E3,2.805048E2,9.044759E2,1.2395262E3,4.5102563E0,2.1386487E2,6.663992E1,8.4567596E2,5.8799892E1,1.1777594E3,6.176687E1],"tree_param":{"num_deleted":"0","num_feature":"15","num_nodes":"13","size_leaf_vector":"0"}},{"base_weights":[-3.3620948E-3,6.5805905E-2,-4.5008272E-2,9.742461E-2,5.1430766E-2,-3.6780514E-2,-1.2153786E-1,8.7991714E-2,4.063753E-1,3.9217047E-2,1.2767453E-1,-5.1255412E-2,3.392953E-1,-2.227894E-1,-9.8265715E-2],"categories":[],"categories_nodes":[],"categories_segments":[],"categories_sizes":[],"default_left":[true,true,true,true,true,true,true,false,false,false,false,false,false,false,false],"id":29,"left_children":[1,3,5,7,9,11,13,-1,-1,-1,-1,-1,-1,-1,-1],"loss_changes":[6.9912353E0,4.0957952E-1,9.493804E-1,7.9180765E-1,5.8089364E-1,7.471018E0,3.235917E-1,0E0,0E0,0E0,0E0,0E0,0E0,0E0,0E0],"parents":[2147483647,0,0,1,1,2,2,3,3,4,4,5,5,6,6],"right_children":[2,4,6,8,10,12,14,-1,-1,-1,-1,-1,-1,-1,-1],"split_conditions":[-7.320709E-1,-1.0430961E0,1.6006172E0,5E-1,-8.098272E-1,1.522861E0,1.8338859E0,1.7598344E-2,8.127506E-2,7.84341E-3,2.5534907E-2,-1.02510825E-2,6.785906E-2,-4.455788E-2,-1.9653143E-2],"split_indices":[0,0,0,8,0,0,0,0,0,0,0,0,0,0,0],"split_type":[0,0,0,0,0,0,0,0,0,0,0,0,0,0,0],"sum_hessian":[2.4249927E3,9.111426E2,1.5138502E3,2.829673E2,6.281753E2,1.3682312E3,1.4561899E2,2.7583044E2,7.136854E0,5.427456E2,8.542968E1,1.3183524E3,4.9878757E1,2.5612381E1,1.200066E2],"tree_param":{"num_deleted":"0","num_feature":"15","num_nodes":"15","size_leaf_vector":"0"}},{"base_weights":[-2.711948E-3,-3.7255652E-2,2.2072492E-2,-6.649821E-2,4.539621E-2,-6.5612565E-3,1.0285406E-1,-3.6585787E-3,-1.7748632E-1,-2.9155605E-2,2.7172348E-1,1.1438401E-2,-1.2475977E-1,7.957401E-2,4.365698E-1],"categories":[],"categories_nodes":[],"categories_segments":[],"categories_sizes":[],"default_left":[true,true,true,true,true,true,true,false,false,false,false,false,false,false,false],"id":30,"left_children":[1,3,5,7,9,11,13,-1,-1,-1,-1,-1,-1,-1,-1],"loss_changes":[2.0748177E0,2.44986E0,3.2646863E0,5.2176332E0,4.482111E0,2.2199469E0,2.8346686E0,0E0,0E0,0E0,0E0,0E0,0E0,0E0,0E0],"parents":[2147483647,0,0,1,1,2,2,3,3,4,4,5,5,6,6],"right_children":[2,4,6,8,10,12,14,-1,-1,-1,-1,-1,-1,-1,-1],"split_conditions":[-4.1774225E-1,5E-1,5E-1,5E-1,5E-1,1.7317035E0,1.9466481E0,-7.3171576E-4,-3.5497263E-2,-5.831121E-3,5.4344695E-2,2.2876803E-3,-2.4951955E-2,1.5914803E-2,8.7313965E-2],"split_indices":[1,10,2,2,2,1,1,0,0,0,0,0,0,0,0],"split_type":[0,0,0,0,0,0,0,0,0,0,0,0,0,0,0],"sum_hessian":[2.4214775E3,1.01136646E3,1.4101111E3,7.4719965E2,2.6416684E2,1.0417664E3,3.6834467E2,4.777426E2,2.6945703E2,1.993669E2,6.4799934E1,9.048726E2,1.3689375E2,3.4548224E2,2.2862427E1],"tree_param":{"num_deleted":"0","num_feature":"15","num_nodes":"15","size_leaf_vector":"0"}},{"base_weights":[-2.2048827E-3,4.3798346E-2,-4.6772294E-2,6.0923398E-2,-2.4622805E-1,-6.0153328E-2,3.3913603E-1,-2.9757481E-2,8.473085E-2,-2.6514834E-2,-3.876867E-1,-1.2737945E-1,-2.2893565E-2,5.0550437E-1,-6.7045726E-2],"categories":[],"categories_nodes":[],"categories_segments":[],"categories_sizes":[],"default_left":[true,true,true,true,true,true,true,false,false,false,false,false,false,false,false],"id":31,"left_children":[1,3,5,7,9,11,13,-1,-1,-1,-1,-1,-1,-1,-1],"loss_changes":[4.9616976E0,5.9297037E0,6.3677263E0,2.4318523E0,2.0594997E0,2.974928E0,2.8276935E0,0E0,0E0,0E0,0E0,0E0,0E0,0E0,0E0],"parents":[2147483647,0,0,1,1,2,2,3,3,4,4,5,5,6,6],"right_children":[2,4,6,8,10,12,14,-1,-1,-1,-1,-1,-1,-1,-1],"split_conditions":[-4.9880207E-1,1.9466481E0,2.0541205E0,-1.1700482E0,-8.8758343E-1,-4.1774225E-1,2.8064265E0,-5.9514963E-3,1.694617E-2,-5.302967E-3,-7.753734E-2,-2.547589E-2,-4.578713E-3,1.0110088E-1,-1.3409145E-2],"split_indices":[0,1,1,1,0,1,1,0,0,0,0,0,0,0,0],"split_type":[0,0,0,0,0,0,0,0,0,0,0,0,0,0,0],"sum_hessian":[2.418052E3,1.1898678E3,1.2281842E3,1.1242733E3,6.55945E1,1.1878411E3,4.0343227E1,2.3373676E2,8.9053656E2,2.6156197E1,3.9438297E1,4.2272272E2,7.651183E2,2.8447046E1,1.1896181E1],"tree_param":{"num_deleted":"0","num_feature":"15","num_nodes":"15","size_leaf_vector":"0"}},{"base_weights":[-1.871511E-3,2.9568195E-2,-4.8071973E-2,4.7321655E-2,-9.2007015E-3,-8.149515E-2,1.2641925E-1,1.0381795E-1,-4.295516E-2,-6.455805E-2,1.4423892E-1,-1.480172E-1,-3.990817E-2,6.25756E-2,2.2068092E-1],"categories":[],"categories_nodes":[],"categories_segments":[],"categories_sizes":[],"default_left":[true,true,true,true,true,true,true,false,false,false,false,false,false,false,false],"id":32,"left_children":[1,3,5,7,9,11,13,-1,-1,-1,-1,-1,-1,-1,-1],"loss_changes":[3.5098598E0,9.901326E-1,5.7168245E0,5.0356064E0,3.8527129E0,2.2675338E0,9.3514895E-1,0E0,0E0,0E0,0E0,0E0,0E0,0E0,0E0],"parents":[2147483647,0,0,1,1,2,2,3,3,4,4,5,5,6,6],"right_children":[2,4,6,8,10,12,14,-1,-1,-1,-1,-1,-1,-1,-1],"split_conditions":[-1.8777701E-1,5E-1,5E-1,-7.320709E-1,-6.5431464E-1,3.5651687E-1,5E-1,2.076359E-2,-8.591033E-3,-1.291161E-2,2.8847784E-2,-2.960344E-2,-7.981635E-3,1.251512E-2,4.4136185E-2],"split_indices":[0,10,10,0,0,0,2,0,0,0,0,0,0,0,0],"split_type":[0,0,0,0,0,0,0,0,0,0,0,0,0,0,0],"sum_hessian":[2.4144E3,1.436924E3,9.774759E2,9.854403E2,4.514837E2,8.207895E2,1.5668639E2,6.060297E2,3.7941058E2,3.3220966E2,1.1927405E2,3.1475385E2,5.0603568E2,9.440769E1,6.22787E1],"tree_param":{"num_deleted":"0","num_feature":"15","num_nodes":"15","size_leaf_vector":"0"}},{"base_weights":[-1.5490438E-3,-9.1205025E-3,2.0854395E-2,-2.2932965E-2,1.2844974E-1,9.387952E-2,-5.64465E-2,-2.1897955E-2,-9.730248E-2,1.1425913E-1,8.715496E-1,1.0663561E-1,-9.413647E-1,-6.356055E-2,4.2443717E-1],"categories":[],"categories_nodes":[],"categories_segments":[],"categories_sizes":[],"default_left":[true,true,true,true,true,true,true,false,false,false,false,false,false,false,false],"id":33,"left_children":[1,3,5,7,9,11,13,-1,-1,-1,-1,-1,-1,-1,-1],"loss_changes":[4.091505E-1,3.4283123E0,3.444698E0,1.2403011E-1,1.6364362E0,4.2428236E0,1.0416749E0,0E0,0E0,0E0,0E0,0E0,0E0,0E0,0E0],"parents":[2147483647,0,0,1,1,2,2,3,3,4,4,5,5,6,6],"right_children":[2,4,6,8,10,12,14,-1,-1,-1,-1,-1,-1,-1,-1],"split_conditions":[5E-1,5E-1,5E-1,5E-1,5E-1,5E-1,5E-1,-4.379591E-3,-1.9460497E-2,2.2851827E-2,1.7430992E-1,2.1327121E-2,-1.8827294E-1,-1.2712111E-2,8.488744E-2],"split_indices":[10,12,12,8,8,8,8,0,0,0,0,0,0,0,0],"split_type":[0,0,0,0,0,0,0,0,0,0,0,0,0,0,0],"sum_hessian":[2.4099429E3,1.8016504E3,6.082923E2,1.6380215E3,1.6362894E2,3.126868E2,2.9560553E2,1.6168146E3,2.1206974E1,1.6169489E2,1.9340465E0,3.097669E2,2.9198935E0,2.9215137E2,3.4541779E0],"tree_param":{"num_deleted":"0","num_feature":"15","num_nodes":"15","size_leaf_vector":"0"}},{"base_weights":[-1.2160565E-3,-3.0487945E-2,1.0121879E-1,-2.940949E-2,-3.8153872E-1,9.970154E-2,2.0395106E-1,-2.8442802E-2,-1.016317E-1],"categories":[],"categories_nodes":[],"categories_segments":[],"categories_sizes":[],"default_left":[true,true,true,true,false,false,false,false,false],"id":34,"left_children":[1,3,5,7,-1,-1,-1,-1,-1],"loss_changes":[7.224079E0,6.981746E-1,6.312847E-2,1.2760401E-1,0E0,0E0,0E0,0E0,0E0],"parents":[2147483647,0,0,1,1,2,2,3,3],"right_children":[2,4,6,8,-1,-1,-1,-1,-1],"split_conditions":[5E-1,5E-1,5E-1,5E-1,-7.6307744E-2,1.9940307E-2,4.079021E-2,-5.6885607E-3,-2.032634E-2],"split_indices":[11,5,8,8,0,0,0,0,0],"split_type":[0,0,0,0,0,0,0,0,0],"sum_hessian":[2.4072327E3,1.8727704E3,5.344624E2,1.8681151E3,4.655218E0,5.286256E2,5.8367906E0,1.8448163E3,2.3298868E1],"tree_param":{"num_deleted":"0","num_feature":"15","num_nodes":"9","size_leaf_vector":"0"}},{"base_weights":[-1.0016612E-3,-1.8972281E-2,2.1769844E-2,-1.11205414E-1,-1.4196104E-2,3.345566E-2,-4.039251E-2,-7.152706E-2,-3.2430217E-1,5.42234E-3,-2.7868576E-2,2.5796192E-2,2.4437685E-1,-1.3940325E-1,3.9849497E-2],"categories":[],"categories_nodes":[],"categories_segments":[],"categories_sizes":[],"default_left":[true,true,true,true,true,true,true,false,false,false,false,false,false,false,false],"id":35,"left_children":[1,3,5,7,9,11,13,-1,-1,-1,-1,-1,-1,-1,-1],"loss_changes":[9.828159E-1,5.8974206E-1,7.7089214E-1,5.3436226E-1,3.4278545E-1,1.4352072E0,1.3409837E0,0E0,0E0,0E0,0E0,0E0,0E0,0E0,0E0],"parents":[2147483647,0,0,1,1,2,2,3,3,4,4,5,5,6,6],"right_children":[2,4,6,8,10,12,14,-1,-1,-1,-1,-1,-1,-1,-1],"split_conditions":[1.2146903E-2,-1.3849928E0,1.7317035E0,5E-1,-8.4763145E-1,1.6242313E0,2.0541205E0,-1.4305412E-2,-6.486043E-2,1.084468E-3,-5.5737155E-3,5.1592384E-3,4.8875373E-2,-2.7880652E-2,7.9699E-3],"split_indices":[1,1,1,13,1,1,1,0,0,0,0,0,0,0,0],"split_type":[0,0,0,0,0,0,0,0,0,0,0,0,0,0,0],"sum_hessian":[2.399683E3,1.3413191E3,1.0583639E3,6.494169E1,1.2763774E3,8.9127594E2,1.6708794E2,5.5873722E1,9.0679655E0,5.244519E2,7.5192554E2,8.6112695E2,3.0148972E1,7.446642E1,9.262152E1],"tree_param":{"num_deleted":"0","num_feature":"15","num_nodes":"15","size_leaf_vector":"0"}},{"base_weights":[-8.375596E-4,2.2284387E-2,-3.531984E-2,3.209788E-2,-1.5932456E-1,-5.373317E-2,2.0094909E-1,-5.0085343E-2,5.0614323E-2,-3.462266E-1,1.868574E-1,6.725338E-1,-5.9051447E-2,6.2870055E-1,9.3785815E-2],"categories":[],"categories_nodes":[],"categories_segments":[],"categories_sizes":[],"default_left":[true,true,true,true,true,true,true,false,false,false,false,false,false,false,false],"id":36,"left_children":[1,3,5,7,9,11,13,-1,-1,-1,-1,-1,-1,-1,-1],"loss_changes":[1.914899E0,2.567442E0,4.204816E0,2.079475E0,4.8444977E0,3.497112E0,3.1456459E0,0E0,0E0,0E0,0E0,0E0,0E0,0E0,0E0],"parents":[2147483647,0,0,1,1,2,2,3,3,4,4,5,5,6,6],"right_children":[2,4,6,8,10,12,14,-1,-1,-1,-1,-1,-1,-1,-1],"split_conditions":[-1.8777701E-1,1.9466481E0,1.6242313E0,-1.1700482E0,5E-1,-1.2775207E0,1.23248056E-1,-1.0017069E-2,1.01228645E-2,-6.924532E-2,3.7371483E-2,1.3450676E-1,-1.181029E-2,1.2574011E-1,1.8757163E-2],"split_indices":[0,1,1,1,3,1,0,0,0,0,0,0,0,0,0],"split_type":[0,0,0,0,0,0,0,0,0,0,0,0,0,0,0],"sum_hessian":[2.3997502E3,1.4367185E3,9.6303174E2,1.3638445E3,7.287398E1,8.94122E2,6.890974E1,2.5046738E2,1.1133772E3,4.73239E1,2.5550081E1,5.5878267E0,8.885342E2,1.2830186E1,5.6079548E1],"tree_param":{"num_deleted":"0","num_feature":"15","num_nodes":"15","size_leaf_vector":"0"}},{"base_weights":[-6.472275E-4,3.0668736E-2,-2.0144308E-2,4.7060862E-2,-2.4567164E-1,-5.118554E-2,4.8136633E-2,4.2128574E-2,3.840367E-1,4.6580243E-3,-5.0188863E-1,-4.6876734E-1,-4.8101686E-2,3.4205943E-2,3.2738537E-1],"categories":[],"categories_nodes":[],"categories_segments":[],"categories_sizes":[],"default_left":[true,true,true,true,true,true,true,false,false,false,false,false,false,false,false],"id":37,"left_children":[1,3,5,7,9,11,13,-1,-1,-1,-1,-1,-1,-1,-1],"loss_changes":[1.4651203E0,4.182327E0,3.1369119E0,1.4298457E0,3.3195467E0,1.287291E0,1.7887626E0,0E0,0E0,0E0,0E0,0E0,0E0,0E0,0E0],"parents":[2147483647,0,0,1,1,2,2,3,3,4,4,5,5,6,6],"right_children":[2,4,6,8,10,12,14,-1,-1,-1,-1,-1,-1,-1,-1],"split_conditions":[-7.320709E-1,1.9466481E0,4.4203606E-1,1.8391759E0,-8.8758343E-1,-1.3849928E0,2.591482E0,8.425715E-3,7.680734E-2,9.316049E-4,-1.0037773E-1,-9.375347E-2,-9.620338E-3,6.8411888E-3,6.547707E-2],"split_indices":[0,1,1,1,0,1,1,0,0,0,0,0,0,0,0],"split_type":[0,0,0,0,0,0,0,0,0,0,0,0,0,0,0],"sum_hessian":[2.397583E3,9.197382E2,1.4778448E3,8.69019E2,5.071929E1,1.016145E3,4.616998E2,8.575915E2,1.1427469E1,2.6151005E1,2.4568287E1,6.34223E0,1.0098028E3,4.4083087E2,2.0868933E1],"tree_param":{"num_deleted":"0","num_feature":"15","num_nodes":"15","size_leaf_vector":"0"}},{"base_weights":[-5.9193175E-4,1.0376604E-3,-2.0049313E-1,-1.7928231E-3,5.3013176E-1,-4.1362992E-1,7.370907E-2,4.234665E-4,-2.640126E-1,-5.363675E-1,-2.2170925E-1,-4.0035512E-2,3.9618608E-1],"categories":[],"categories_nodes":[],"categories_segments":[],"categories_sizes":[],"default_left":[true,true,true,true,false,true,true,false,false,false,false,false,false],"id":38,"left_children":[1,3,5,7,-1,9,11,-1,-1,-1,-1,-1,-1],"loss_changes":[7.809638E-1,3.562755E0,1.1634183E0,1.3755285E0,0E0,1.415739E-1,3.5797235E-1,0E0,0E0,0E0,0E0,0E0,0E0],"parents":[2147483647,0,0,1,1,2,2,3,3,5,5,6,6],"right_children":[2,4,6,8,-1,10,12,-1,-1,-1,-1,-1,-1],"split_conditions":[2.8064265E0,2.591482E0,3.1288433E0,2.3765373E0,1.0602635E-1,2.9138987E0,3.666205E0,8.46933E-5,-5.280252E-2,-1.072735E-1,-4.434185E-2,-8.007103E-3,7.9237215E-2],"split_indices":[1,1,1,1,0,1,1,0,0,0,0,0,0],"split_type":[0,0,0,0,0,0,0,0,0,0,0,0,0],"sum_hessian":[2.3957395E3,2.3773542E3,1.8385353E1,2.365695E3,1.1659098E1,1.0058454E1,8.3269005E0,2.3468577E3,1.8837328E1,5.040321E0,5.0181327E0,6.8031373E0,1.523763E0],"tree_param":{"num_deleted":"0","num_feature":"15","num_nodes":"13","size_leaf_vector":"0"}},{"base_weights":[-5.0452934E-4,2.9822476E-3,-5.1656747E-1,1.0029414E-2,-3.518632E-3,1.0959805E-2,4.7818483E-3,9.4321335E-4,-2.4199767E-2],"categories":[],"categories_nodes":[],"categories_segments":[],"categories_sizes":[],"default_left":[true,true,false,true,true,false,false,false,false],"id":39,"left_children":[1,3,-1,5,7,-1,-1,-1,-1],"loss_changes":[4.3141127E0,1.0914238E-1,0E0,5.528234E-3,1.14403486E-1,0E0,0E0,0E0,0E0],"parents":[2147483647,0,0,1,1,3,3,4,4],"right_children":[2,4,-1,6,8,-1,-1,-1,-1],"split_conditions":[5E-1,5E-1,-1.033135E-1,5E-1,5E-1,2.191961E-3,9.563697E-4,1.8864268E-4,-4.8399535E-3],"split_indices":[6,3,0,13,13,0,0,0,0],"split_type":[0,0,0,0,0,0,0,0,0],"sum_hessian":[2.395677E3,2.3805867E3,1.5090201E1,1.1420377E3,1.2385491E3,9.6912384E2,1.7291386E2,1.01954254E3,2.190065E2],"tree_param":{"num_deleted":"0","num_feature":"15","num_nodes":"9","size_leaf_vector":"0"}},{"base_weights":[-4.7070126E-4,-2.3453517E-2,7.973851E-2,-2.9890122E-2,4.9462974E-2,1.2914287E-1,1.876843E-2,-2.9258715E-2,-2.6287597E-1],"categories":[],"categories_nodes":[],"categories_segments":[],"categories_sizes":[],"default_left":[true,true,true,true,false,false,false,false,false],"id":40,"left_children":[1,3,5,7,-1,-1,-1,-1,-1],"loss_changes":[4.4205837E0,8.762795E-1,1.6063399E0,2.4435818E-1,0E0,0E0,0E0,0E0,0E0],"parents":[2147483647,0,0,1,1,2,2,3,3],"right_children":[2,4,6,8,-1,-1,-1,-1,-1],"split_conditions":[5E-1,5E-1,5E-1,5E-1,9.892595E-3,2.5828574E-2,3.753686E-3,-5.8517433E-3,-5.2575197E-2],"split_indices":[11,14,14,7,0,0,0,0,0],"split_type":[0,0,0,0,0,0,0,0,0],"sum_hessian":[2.396002E3,1.862917E3,5.330849E2,1.7123516E3,1.5056546E2,2.9385483E2,2.3923009E2,1.7088461E3,3.5055125E0],"tree_param":{"num_deleted":"0","num_feature":"15","num_nodes":"9","size_leaf_vector":"0"}},{"base_weights":[-3.9709342E-4,-1.3492867E-1,2.4801278E-1,-1.4799853E-1,4.5766962E-1,8.473158E-1,-3.1504225E-2,-6.8411994E-1,-1.4588615E-1,6.0975057E-1,-6.1926425E-1,8.257488E-1,1.6540008E0,-2.6869237E-2,-4.8760968E-1],"categories":[],"categories_nodes":[],"categories_segments":[],"categories_sizes":[],"default_left":[true,true,true,true,true,true,true,false,false,false,false,false,false,false,false],"id":41,"left_children":[1,3,5,7,9,11,13,-1,-1,-1,-1,-1,-1,-1,-1],"loss_changes":[7.994927E1,1.2087288E1,1.4081554E2,1.6206017E0,5.9023685E0,3.285492E0,1.200577E0,0E0,0E0,0E0,0E0,0E0,0E0,0E0,0E0],"parents":[2147483647,0,0,1,1,2,2,3,3,4,4,5,5,6,6],"right_children":[2,4,6,8,10,12,14,-1,-1,-1,-1,-1,-1,-1,-1],"split_conditions":[5E-1,5E-1,5E-1,-1.4924653E0,1.2480782E0,2.4840097E0,2.8064265E0,-1.36824E-1,-2.9177232E-2,1.2195011E-1,-1.2385285E-1,1.6514976E-1,3.3080015E-1,-5.3738477E-3,-9.752194E-2],"split_indices":[9,10,10,1,1,1,1,0,0,0,0,0,0,0,0],"split_type":[0,0,0,0,0,0,0,0,0,0,0,0,0,0,0],"sum_hessian":[2.3903303E3,1.5508771E3,8.394532E2,1.5181444E3,3.273266E1,2.6634995E2,5.731033E2,4.6910205E0,1.5134535E3,2.9062378E1,3.6702814E0,2.6138538E2,4.9645777E0,5.6838617E2,4.717084E0],"tree_param":{"num_deleted":"0","num_feature":"15","num_nodes":"15","size_leaf_vector":"0"}},{"base_weights":[-1.0573292E-3,1.8214599E-3,-4.558191E-1,3.131654E-3,-1.5934896E-1,-6.319017E-1,-1.677779E-1,1.0730854E-3,3.6699504E-1,-3.4016725E-1,6.460801E-2,3.4319496E-1,-8.1344473E-1],"categories":[],"categories_nodes":[],"categories_segments":[],"categories_sizes":[],"default_left":[true,true,true,true,true,false,true,false,false,false,false,false,false],"id":42,"left_children":[1,3,5,7,9,-1,11,-1,-1,-1,-1,-1,-1],"loss_changes":[3.1168098E0,5.001469E-1,6.5355897E-1,1.7583882E0,7.9541034E-1,0E0,2.6028733E0,0E0,0E0,0E0,0E0,0E0,0E0],"parents":[2147483647,0,0,1,1,2,2,3,3,4,4,6,6],"right_children":[2,4,6,8,10,-1,12,-1,-1,-1,-1,-1,-1],"split_conditions":[5E-1,2.8064265E0,1.1961919E-1,2.591482E0,3.1288433E0,-1.2638034E-1,1.0868697E0,2.1461707E-4,7.339901E-2,-6.803345E-2,1.29216015E-2,6.8638995E-2,-1.6268896E-1],"split_indices":[6,1,1,1,1,0,1,0,0,0,0,0,0],"split_type":[0,0,0,0,0,0,0,0,0,0,0,0,0],"sum_hessian":[2.3791306E3,2.3651543E3,1.3976197E1,2.3470552E3,1.8099222E1,7.932928E0,6.043269E0,2.3348486E3,1.2206532E1,9.726969E0,8.372252E0,3.6350217E0,2.4082475E0],"tree_param":{"num_deleted":"0","num_feature":"15","num_nodes":"13","size_leaf_vector":"0"}},{"base_weights":[-9.6981175E-4,1.4563221E-3,-4.0524346E-1,-1.4778623E-2,1.2922586E-2,-5.674733E-1,-1.5392937E-1,-5.586048E-3,-1.0438484E-1,1.071608E-1,6.5921345E-3,-1.576491E-1,-6.094747E-1,2.773304E-1,-7.684122E-1],"categories":[],"categories_nodes":[],"categories_segments":[],"categories_sizes":[],"default_left":[true,true,true,true,true,true,true,false,false,false,false,false,false,false,false],"id":43,"left_children":[1,3,5,7,9,11,13,-1,-1,-1,-1,-1,-1,-1,-1],"loss_changes":[2.334532E0,4.4070223E-1,4.9154162E-1,8.066325E-1,8.269788E-1,4.6037197E-2,2.0528183E0,0E0,0E0,0E0,0E0,0E0,0E0,0E0,0E0],"parents":[2147483647,0,0,1,1,2,2,3,3,4,4,5,5,6,6],"right_children":[2,4,6,8,10,12,14,-1,-1,-1,-1,-1,-1,-1,-1],"split_conditions":[5E-1,-4.1774225E-1,1.1961919E-1,-5.2521455E-1,-3.1026995E-1,-1.2775207E0,1.0868697E0,-1.1172097E-3,-2.0876968E-2,2.143216E-2,1.3184269E-3,-3.152982E-2,-1.2189495E-1,5.5466082E-2,-1.5368244E-1],"split_indices":[6,1,1,1,1,1,1,0,0,0,0,0,0,0,0],"split_type":[0,0,0,0,0,0,0,0,0,0,0,0,0,0,0],"sum_hessian":[2.3785774E3,2.3653787E3,1.3198753E1,9.789733E2,1.3864054E3,7.25648E0,5.942273E0,8.888498E2,9.0123505E1,8.6266846E1,1.3001385E3,1.1164327E0,6.1400476E0,3.8141096E0,2.1281633E0],"tree_param":{"num_deleted":"0","num_feature":"15","num_nodes":"15","size_leaf_vector":"0"}},{"base_weights":[-9.125503E-4,2.4167902E-3,-1.3121876E-1,-2.5977122E-3,8.49109E-2,-1.6190432E-1,1.4259356E-1,7.34429E-3,-6.471397E-2,2.7191478E-1,-3.5075214E-2,-2.0956923E-1,9.7391956E-2,3.6628404E-1,-4.3058065E-1],"categories":[],"categories_nodes":[],"categories_segments":[],"categories_sizes":[],"default_left":[true,true,true,true,true,true,true,false,false,false,false,false,false,false,false],"id":44,"left_children":[1,3,5,7,9,11,13,-1,-1,-1,-1,-1,-1,-1,-1],"loss_changes":[1.0325252E0,9.603319E-1,5.2128184E-1,1.3522823E0,2.9944143E0,6.8518436E-1,9.920068E-1,0E0,0E0,0E0,0E0,0E0,0E0,0E0,0E0],"parents":[2147483647,0,0,1,1,2,2,3,3,4,4,5,5,6,6],"right_children":[2,4,6,8,10,12,14,-1,-1,-1,-1,-1,-1,-1,-1],"split_conditions":[2.455936E0,1.522861E0,5E-1,5.120294E-1,1.6006172E0,3.00023E0,2.766961E0,1.4688581E-3,-1.2942794E-2,5.4382958E-2,-7.015043E-3,-4.191385E-2,1.9478392E-2,7.325681E-2,-8.611613E-2],"split_indices":[0,0,4,0,0,0,0,0,0,0,0,0,0,0,0],"split_type":[0,0,0,0,0,0,0,0,0,0,0,0,0,0,0],"sum_hessian":[2.3782712E3,2.3199768E3,5.829426E1,2.1879482E3,1.3202853E2,5.2787212E1,5.507046E0,1.8868335E3,3.0111493E2,5.110805E1,8.092048E1,4.4752415E1,8.034797E0,4.2207756E0,1.2862706E0],"tree_param":{"num_deleted":"0","num_feature":"15","num_nodes":"15","size_leaf_vector":"0"}},{"base_weights":[-7.7174295E-4,3.4336594E-3,-2.2062125E-2,5.4633776E-3,-5.4084067E-3,-1.3580989E-2,-2.8685397E-2,5.8264965E-3,5.2399714E-3,2.7460684E-3,-3.533323E-2],"categories":[],"categories_nodes":[],"categories_segments":[],"categories_sizes":[],"default_left":[true,true,true,true,false,true,false,false,false,false,false],"id":45,"left_children":[1,3,5,7,-1,9,-1,-1,-1,-1,-1],"loss_changes":[2.1301784E-1,3.5688147E-2,2.1654174E-2,1.00601465E-4,0E0,6.188535E-2,0E0,0E0,0E0,0E0,0E0],"parents":[2147483647,0,0,1,1,2,2,3,3,5,5],"right_children":[2,4,6,8,-1,10,-1,-1,-1,-1,-1],"split_conditions":[5E-1,5E-1,5E-1,5E-1,-1.0816813E-3,5E-1,-5.7370793E-3,1.1652993E-3,1.0479944E-3,5.4921367E-4,-7.066646E-3],"split_indices":[13,4,3,3,0,4,0,0,0,0,0],"split_type":[0,0,0,0,0,0,0,0,0,0,0],"sum_hessian":[2.3773213E3,1.9858944E3,3.9142688E2,1.6154467E3,3.704477E2,1.7297804E2,2.1844885E2,6.057672E2,1.00967944E3,9.9310295E1,7.366775E1],"tree_param":{"num_deleted":"0","num_feature":"15","num_nodes":"11","size_leaf_vector":"0"}},{"base_weights":[-6.2172615E-4,1.3674474E-4,-3.3736905E-1,-6.228043E-3,1.5832013E-2,-5.893532E-3,-1.2698431E-1],"categories":[],"categories_nodes":[],"categories_segments":[],"categories_sizes":[],"default_left":[true,true,false,true,false,false,false],"id":46,"left_children":[1,3,-1,5,-1,-1,-1],"loss_changes":[6.077625E-1,2.3735407E-1,0E0,6.753733E-2,0E0,0E0,0E0],"parents":[2147483647,0,0,1,1,3,3],"right_children":[2,4,-1,6,-1,-1,-1],"split_conditions":[5E-1,5E-1,-6.7473814E-2,5E-1,3.1664025E-3,-1.1787064E-3,-2.5396863E-2],"split_indices":[5,2,0,7,0,0,0],"split_type":[0,0,0,0,0,0,0],"sum_hessian":[2.3783472E3,2.3739998E3,4.3474703E0,1.6894802E3,6.845195E2,1.685859E3,3.6212463E0],"tree_param":{"num_deleted":"0","num_feature":"15","num_nodes":"7","size_leaf_vector":"0"}},{"base_weights":[-5.401247E-4,1.5303892E-3,-3.6197928E-1,5.5334764E-3,-1.5167159E-2,-5.3521837E-3,1.5986787E-2,3.9318275E-2,-5.839269E-2],"categories":[],"categories_nodes":[],"categories_segments":[],"categories_sizes":[],"default_left":[true,true,false,true,true,false,false,false,false],"id":47,"left_children":[1,3,-1,5,7,-1,-1,-1,-1],"loss_changes":[1.781141E0,1.5828143E-1,0E0,2.174038E-1,1.0808393E0,0E0,0E0,0E0,0E0],"parents":[2147483647,0,0,1,1,3,3,4,4],"right_children":[2,4,-1,6,8,-1,-1,-1,-1],"split_conditions":[5E-1,5E-1,-7.239585E-2,5E-1,5E-1,-1.0704368E-3,3.1973575E-3,7.863655E-3,-1.1678538E-2],"split_indices":[6,12,0,3,3,0,0,0,0],"split_type":[0,0,0,0,0,0,0,0,0],"sum_hessian":[2.3783037E3,2.3657473E3,1.2556481E1,1.9087986E3,4.5694873E2,9.353012E2,9.734974E2,2.0218568E2,2.5476303E2],"tree_param":{"num_deleted":"0","num_feature":"15","num_nodes":"9","size_leaf_vector":"0"}},{"base_weights":[-4.73009E-4,-2.1218406E-2,7.122595E-2,-2.044384E-2,-2.9640743E-1,-1.9971328E-2,-2.1714555E-1],"categories":[],"categories_nodes":[],"categories_segments":[],"categories_sizes":[],"default_left":[true,true,false,true,false,false,false],"id":48,"left_children":[1,3,-1,5,-1,-1,-1],"loss_changes":[3.54143E0,3.8754654E-1,0E0,1.6691154E-1,0E0,0E0,0E0],"parents":[2147483647,0,0,1,1,3,3],"right_children":[2,4,-1,6,-1,-1,-1],"split_conditions":[5E-1,5E-1,1.424519E-2,5E-1,-5.9281487E-2,-3.9942656E-3,-4.342911E-2],"split_indices":[11,5,0,7,0,0,0],"split_type":[0,0,0,0,0,0,0],"sum_hessian":[2.3789E3,1.845598E3,5.333018E2,1.8414891E3,4.1088934E0,1.838175E3,3.3140888E0],"tree_param":{"num_deleted":"0","num_feature":"15","num_nodes":"7","size_leaf_vector":"0"}},{"base_weights":[-4.2278587E-4,1.2630464E-3,-3.097969E-1,3.5214452E-3,-8.513838E-3,3.6240509E-3,-6.770935E-3,-6.7317965E-3,-7.655014E-2],"categories":[],"categories_nodes":[],"categories_segments":[],"categories_sizes":[],"default_left":[true,true,false,true,true,false,false,false,false],"id":49,"left_children":[1,3,-1,5,7,-1,-1,-1,-1],"loss_changes":[1.2389058E0,5.2200712E-2,0E0,2.0522997E-3,5.3276345E-2,0E0,0E0,0E0,0E0],"parents":[2147483647,0,0,1,1,3,3,4,4],"right_children":[2,4,-1,6,8,-1,-1,-1,-1],"split_conditions":[5E-1,5E-1,-6.1959382E-2,5E-1,5E-1,7.248102E-4,-1.354187E-3,-1.3463594E-3,-1.5310029E-2],"split_indices":[6,4,0,8,8,0,0,0,0],"split_type":[0,0,0,0,0,0,0,0,0],"sum_hessian":[2.3736675E3,2.3617937E3,1.18738985E1,1.9191272E3,4.426665E2,1.9008256E3,1.8301601E1,4.324388E2,1.022771E1],"tree_param":{"num_deleted":"0","num_feature":"15","num_nodes":"9","size_leaf_vector":"0"}},{"base_weights":[-3.789863E-4,1.0026554E-3,-2.649547E-1,5.1784692E-3,-2.0077182E-2,5.369442E-3,-8.0262326E-2],"categories":[],"categories_nodes":[],"categories_segments":[],"categories_sizes":[],"default_left":[true,true,false,true,false,false,false],"id":50,"left_children":[1,3,-1,5,-1,-1,-1],"loss_changes":[8.682405E-1,2.0811735E-1,0E0,3.2627087E-2,0E0,0E0,0E0],"parents":[2147483647,0,0,1,1,3,3],"right_children":[2,4,-1,6,-1,-1,-1],"split_conditions":[5E-1,5E-1,-5.299094E-2,5E-1,-4.0154364E-3,1.0738884E-3,-1.6052466E-2],"split_indices":[6,13,0,7,0,0,0],"split_type":[0,0,0,0,0,0,0],"sum_hessian":[2.3734434E3,2.3621045E3,1.13389435E1,1.9721794E3,3.899249E2,1.9687163E3,3.463218E0],"tree_param":{"num_deleted":"0","num_feature":"15","num_nodes":"7","size_leaf_vector":"0"}},{"base_weights":[-3.3848686E-4,4.59473E-3,-2.1008106E-2,2.1043387E-3,5.6077316E-2,1.8971108E-2,-4.1227184E-2,2.5161367E-3,-1.784328E-1],"categories":[],"categories_nodes":[],"categories_segments":[],"categories_sizes":[],"default_left":[true,true,true,true,false,false,false,false,false],"id":51,"left_children":[1,3,5,7,-1,-1,-1,-1,-1],"loss_changes":[2.4230272E-1,2.4585119E-1,3.7089187E-1,1.3657269E-1,0E0,0E0,0E0,0E0,0E0],"parents":[2147483647,0,0,1,1,2,2,3,3],"right_children":[2,4,6,8,-1,-1,-1,-1,-1],"split_conditions":[5E-1,5E-1,5E-1,5E-1,1.1215463E-2,3.7942217E-3,-8.245437E-3,5.0322735E-4,-3.5686564E-2],"split_indices":[12,13,13,7,0,0,0,0,0],"split_type":[0,0,0,0,0,0,0,0,0],"sum_hessian":[2.3743223E3,1.9174598E3,4.5686234E2,1.8299783E3,8.748154E1,1.534692E2,3.0339316E2,1.8267975E3,3.1807878E0],"tree_param":{"num_deleted":"0","num_feature":"15","num_nodes":"9","size_leaf_vector":"0"}},{"base_weights":[-2.826543E-4,-1.5476433E-2,1.0418802E-2,-7.906963E-3,-8.9911744E-2,9.244922E-2,4.8666582E-3,-1.7996088E-2,7.149394E-2,-5.3275067E-2,-2.7142927E-1,1.6563926E-2,4.2043844E-1,6.8752794E-3,-1.3280687E-1],"categories":[],"categories_nodes":[],"categories_segments":[],"categories_sizes":[],"default_left":[true,true,true,true,true,true,true,false,false,false,false,false,false,false,false],"id":52,"left_children":[1,3,5,7,9,11,13,-1,-1,-1,-1,-1,-1,-1,-1],"loss_changes":[3.865915E-1,5.5290395E-1,6.34925E-1,7.166318E-1,5.8804685E-1,2.1928284E0,3.6253184E-1,0E0,0E0,0E0,0E0,0E0,0E0,0E0,0E0],"parents":[2147483647,0,0,1,1,2,2,3,3,4,4,5,5,6,6],"right_children":[2,4,6,8,10,12,14,-1,-1,-1,-1,-1,-1,-1,-1],"split_conditions":[-4.1774225E-1,-5.2521455E-1,-3.1026995E-1,-6.3268685E-1,5E-1,5E-1,2.8064265E0,-3.5992176E-3,1.4298788E-2,-1.0655014E-2,-5.4285854E-2,3.3127852E-3,8.408769E-2,1.3750559E-3,-2.6561374E-2],"split_indices":[1,1,1,1,14,14,1,0,0,0,0,0,0,0,0],"split_type":[0,0,0,0,0,0,0,0,0,0,0,0,0,0,0],"sum_hessian":[2.3756348E3,9.8156964E2,1.3940651E3,8.919698E2,8.9599884E1,8.738215E1,1.306683E3,7.920951E2,9.987469E1,7.562881E1,1.3971079E1,7.181676E1,1.5565396E1,1.2888293E3,1.7853626E1],"tree_param":{"num_deleted":"0","num_feature":"15","num_nodes":"15","size_leaf_vector":"0"}},{"base_weights":[-2.2695382E-4,-5.3771557E-3,2.6019095E-2,-5.636359E-4,-2.5774106E-2,2.799881E-2,2.4506574E-2,-9.5384824E-4,3.1238326E-4,-5.135472E-2,5.9235975E-2,9.6881576E-2,-1.2419514E-1,-1.955845E-2,1.7202789E-1],"categories":[],"categories_nodes":[],"categories_segments":[],"categories_sizes":[],"default_left":[true,true,true,true,true,true,true,false,false,false,false,false,false,false,false],"id":53,"left_children":[1,3,5,7,9,11,13,-1,-1,-1,-1,-1,-1,-1,-1],"loss_changes":[3.213532E-1,1.9510496E-1,4.8157573E-4,5.502788E-4,8.2814896E-1,1.7091757E0,1.4925954E0,0E0,0E0,0E0,0E0,0E0,0E0,0E0,0E0],"parents":[2147483647,0,0,1,1,2,2,3,3,4,4,5,5,6,6],"right_children":[2,4,6,8,10,12,14,-1,-1,-1,-1,-1,-1,-1,-1],"split_conditions":[5E-1,5E-1,5E-1,5E-1,5E-1,5E-1,5E-1,-1.9076966E-4,6.2476654E-5,-1.0270945E-2,1.1847195E-2,1.9376315E-2,-2.4839029E-2,-3.9116903E-3,3.4405578E-2],"split_indices":[14,10,10,2,2,2,2,0,0,0,0,0,0,0,0],"split_type":[0,0,0,0,0,0,0,0,0,0,0,0,0,0,0],"sum_hessian":[2.3753223E3,1.9863419E3,3.8898022E2,1.6079144E3,3.7842752E2,1.6088647E2,2.2809375E2,1.1123448E3,4.955696E2,2.9119818E2,8.722933E1,1.1100789E2,4.987858E1,1.762999E2,5.179385E1],"tree_param":{"num_deleted":"0","num_feature":"15","num_nodes":"15","size_leaf_vector":"0"}},{"base_weights":[-1.6845643E-4,-1.0913739E-1,1.9323674E-1,-6.143141E-1,-1.07303575E-1,1.1442574E0,1.9028914E-1,-1.034988E-1,-3.094896E-1,1.6275546E-1,2.6580507E-1],"categories":[],"categories_nodes":[],"categories_segments":[],"categories_sizes":[],"default_left":[true,true,true,false,true,false,true,false,false,false,false],"id":54,"left_children":[1,3,5,-1,7,-1,9,-1,-1,-1,-1],"loss_changes":[5.0095467E1,1.3425636E0,2.1835403E0,0E0,1.1342506E0,0E0,1.734829E0,0E0,0E0,0E0,0E0],"parents":[2147483647,0,0,1,1,2,2,4,4,6,6],"right_children":[2,4,6,-1,8,-1,10,-1,-1,-1,-1],"split_conditions":[5E-1,-1.4924653E0,-1.4924653E0,-1.22862816E-1,2.3765373E0,2.2885148E-1,6.5698063E-1,-2.069976E-2,-6.1897922E-2,3.255109E-2,5.3161014E-2],"split_indices":[9,1,1,0,1,0,1,0,0,0,0],"split_type":[0,0,0,0,0,0,0,0,0,0,0],"sum_hessian":[2.3749907E3,1.5193754E3,8.556153E2,4.287451E0,1.5150879E3,1.447315E0,8.54168E2,1.4885873E3,2.6500566E1,6.282562E2,2.2591179E2],"tree_param":{"num_deleted":"0","num_feature":"15","num_nodes":"11","size_leaf_vector":"0"}},{"base_weights":[-1.9656248E-4,-4.8563946E-3,1.1328068E-2,-1.8967679E-2,4.5346995E-4,1.16485255E-2,9.367464E-3,-1.6028449E-2,-3.4505658E-2,-2.7660206E-3,1.5504896E-2],"categories":[],"categories_nodes":[],"categories_segments":[],"categories_sizes":[],"default_left":[true,true,true,true,true,false,false,false,false,false,false],"id":55,"left_children":[1,3,5,7,9,-1,-1,-1,-1,-1,-1],"loss_changes":[1.2647954E-1,1.2566772E-1,3.1692535E-4,2.0388186E-2,5.913756E-2,0E0,0E0,0E0,0E0,0E0,0E0],"parents":[2147483647,0,0,1,1,2,2,3,3,4,4],"right_children":[2,4,6,8,10,-1,-1,-1,-1,-1,-1],"split_conditions":[5E-1,5E-1,5E-1,5E-1,5E-1,2.329705E-3,1.8734928E-3,-3.2056898E-3,-6.9011315E-3,-5.5320415E-4,3.1009791E-3],"split_indices":[2,3,14,14,14,0,0,0,0,0,0],"split_type":[0,0,0,0,0,0,0,0,0,0,0],"sum_hessian":[2.3531494E3,1.6760422E3,6.77107E2,4.575373E2,1.218505E3,5.7773566E2,9.9371376E1,3.864637E2,7.107357E1,1.0044665E3,2.1403851E2],"tree_param":{"num_deleted":"0","num_feature":"15","num_nodes":"11","size_leaf_vector":"0"}},{"base_weights":[-1.5933024E-4,2.4738493E-3,-1.04867384E-1,-2.163778E-3,7.0087686E-2,-3.255328E-1,-6.742085E-2,2.191463E-3,-1.596104E-1,1.8041244E-1,-2.3328364E-2,1.04591995E-1,-7.201131E-1,-2.1355163E-1,4.9920037E-2],"categories":[],"categories_nodes":[],"categories_segments":[],"categories_sizes":[],"default_left":[true,true,true,true,true,true,true,false,false,false,false,false,false,false,false],"id":56,"left_children":[1,3,5,7,9,11,13,-1,-1,-1,-1,-1,-1,-1,-1],"loss_changes":[6.493052E-1,7.205031E-1,4.5541435E-1,1.4751847E0,1.5242132E0,1.4534307E0,8.791614E-1,0E0,0E0,0E0,0E0,0E0,0E0,0E0,0E0],"parents":[2147483647,0,0,1,1,2,2,3,3,4,4,5,5,6,6],"right_children":[2,4,6,8,10,12,14,-1,-1,-1,-1,-1,-1,-1,-1],"split_conditions":[2.455936E0,1.4451046E0,2.6114488E0,1.1340795E0,1.6006172E0,5E-1,5E-1,4.382926E-4,-3.1922083E-2,3.6082488E-2,-4.665673E-3,2.09184E-2,-1.4402263E-1,-4.2710327E-2,9.984008E-3],"split_indices":[0,0,0,0,0,2,2,0,0,0,0,0,0,0,0],"split_type":[0,0,0,0,0,0,0,0,0,0,0,0,0,0,0],"sum_hessian":[2.3530452E3,2.2962751E3,5.6769947E1,2.1497893E3,1.4648587E2,7.119979E0,4.9649967E1,2.0928826E3,5.690661E1,6.673742E1,7.974846E1,3.7581818E0,3.361797E0,2.174716E1,2.790281E1],"tree_param":{"num_deleted":"0","num_feature":"15","num_nodes":"15","size_leaf_vector":"0"}},{"base_weights":[-2.2837128E-4,-8.863176E-2,1.544792E-1,-9.070276E-2,-6.870732E-2,2.5476688E-1,-2.3855245E-2,-1.06961586E-1,-7.5381346E-2,6.0973883E-2,-1.8813433E-1,2.4031779E-1,2.6913005E-1,-2.5593612E-2,-2.2445198E-2],"categories":[],"categories_nodes":[],"categories_segments":[],"categories_sizes":[],"default_left":[true,true,true,true,true,true,true,false,false,false,false,false,false,false,false],"id":57,"left_children":[1,3,5,7,9,11,13,-1,-1,-1,-1,-1,-1,-1,-1],"loss_changes":[3.2204582E1,5.5600166E-2,1.5319933E1,3.292904E-1,2.2604394E0,4.908371E-2,1.8323958E-4,0E0,0E0,0E0,0E0,0E0,0E0,0E0,0E0],"parents":[2147483647,0,0,1,1,2,2,3,3,4,4,5,5,6,6],"right_children":[2,4,6,8,10,12,14,-1,-1,-1,-1,-1,-1,-1,-1],"split_conditions":[5E-1,5E-1,5E-1,5E-1,5E-1,5E-1,5E-1,-2.1392317E-2,-1.5076269E-2,1.2194777E-2,-3.7626866E-2,4.8063558E-2,5.382601E-2,-5.1187226E-3,-4.4890395E-3],"split_indices":[9,12,12,3,3,3,3,0,0,0,0,0,0,0,0],"split_type":[0,0,0,0,0,0,0,0,0,0,0,0,0,0,0],"sum_hessian":[2.3527075E3,1.4974552E3,8.5525244E2,1.3532428E3,1.4421239E2,5.4713727E2,3.0811517E2,6.536351E2,6.996077E2,6.9372696E1,7.483969E1,2.8159213E2,2.655451E2,1.3031116E2,1.7780402E2],"tree_param":{"num_deleted":"0","num_feature":"15","num_nodes":"15","size_leaf_vector":"0"}},{"base_weights":[-2.9294833E-4,3.9529093E-4,-3.277629E-1,7.88257E-3,-3.0738382E-2,-5.6359917E-1,1.7431381E-1,6.3289893E-3,5.948212E-1,-1.8729469E-2,-4.9186593E-1,-1.6386387E-1,-6.705205E-1],"categories":[],"categories_nodes":[],"categories_segments":[],"categories_sizes":[],"default_left":[true,true,true,true,true,true,false,false,false,false,false,false,false],"id":58,"left_children":[1,3,5,7,9,11,-1,-1,-1,-1,-1,-1,-1],"loss_changes":[5.276568E-1,5.4494834E-1,6.7964625E-1,1.7146388E0,2.500531E0,4.301238E-2,0E0,0E0,0E0,0E0,0E0,0E0,0E0],"parents":[2147483647,0,0,1,1,2,2,3,3,4,4,5,5],"right_children":[2,4,6,8,10,12,-1,-1,-1,-1,-1,-1,-1],"split_conditions":[3.4667678E0,5E-1,4.2443304E0,3.00023E0,1.522861E0,3.6222801E0,3.4862764E-2,1.2657979E-3,1.1896425E-1,-3.7458937E-3,-9.837319E-2,-3.2772776E-2,-1.341041E-1],"split_indices":[0,12,0,0,0,0,0,0,0,0,0,0,0],"split_type":[0,0,0,0,0,0,0,0,0,0,0,0,0],"sum_hessian":[2.3396365E3,2.3357263E3,3.910172E0,1.883511E3,4.5221524E2,2.5771115E0,1.3330606E0,1.8795468E3,3.9642298E0,4.4175156E2,1.0463697E1,1.0783112E0,1.4988003E0],"tree_param":{"num_deleted":"0","num_feature":"15","num_nodes":"13","size_leaf_vector":"0"}},{"base_weights":[-2.970137E-4,2.0495567E-2,-6.0268793E-2,1.0504905E-2,1.1726233E-1,-1.9271798E-2,-1.04008175E-1,7.7798683E-3,7.688769E-2,1.7808278E-1,6.321899E-2,-1.1556771E-2,-1.0269341E-1,-1.322706E-1,-9.328238E-2],"categories":[],"categories_nodes":[],"categories_segments":[],"categories_sizes":[],"default_left":[true,true,true,true,true,true,true,false,false,false,false,false,false,false,false],"id":59,"left_children":[1,3,5,7,9,11,13,-1,-1,-1,-1,-1,-1,-1,-1],"loss_changes":[2.9219332E0,1.6809206E0,1.0797467E0,2.8489983E-1,5.2363896E-1,2.000141E-1,7.606816E-2,0E0,0E0,0E0,0E0,0E0,0E0,0E0,0E0],"parents":[2147483647,0,0,1,1,2,2,3,3,4,4,5,5,6,6],"right_children":[2,4,6,8,10,12,14,-1,-1,-1,-1,-1,-1,-1,-1],"split_conditions":[5E-1,5E-1,5E-1,5E-1,5E-1,5E-1,5E-1,1.5559737E-3,1.5377538E-2,3.5616558E-2,1.2643798E-2,-2.3113543E-3,-2.0538682E-2,-2.645412E-2,-1.8656475E-2],"split_indices":[10,12,12,13,13,13,13,0,0,0,0,0,0,0,0],"split_type":[0,0,0,0,0,0,0,0,0,0,0,0,0,0,0],"sum_hessian":[2.3412395E3,1.7389822E3,6.0225745E2,1.577248E3,1.6173405E2,3.1161798E2,2.9063947E2,1.5161277E3,6.1120377E1,7.50159E1,8.671816E1,2.862806E2,2.5337372E1,7.683845E1,2.1380101E2],"tree_param":{"num_deleted":"0","num_feature":"15","num_nodes":"15","size_leaf_vector":"0"}},{"base_weights":[-2.3888434E-4,1.4665166E-2,-1.5154247E-2,9.058507E-3,1.2149254E-1,-4.131229E-2,1.3844916E-2,7.981791E-3,4.863953E-1,2.8289158E-2,5.289205E-1,-1.9068891E-2,-1.5859623E-1,2.176622E-1,-1.8064614E-2],"categories":[],"categories_nodes":[],"categories_segments":[],"categories_sizes":[],"default_left":[true,true,true,true,true,true,true,false,false,false,false,false,false,false,false],"id":60,"left_children":[1,3,5,7,9,11,13,-1,-1,-1,-1,-1,-1,-1,-1],"loss_changes":[5.2203923E-1,7.024405E-1,8.909162E-1,5.702791E-1,2.2062683E0,1.6074982E0,3.6289961E0,0E0,0E0,0E0,0E0,0E0,0E0,0E0,0E0],"parents":[2147483647,0,0,1,1,2,2,3,3,4,4,5,5,6,6],"right_children":[2,4,6,8,10,12,14,-1,-1,-1,-1,-1,-1,-1,-1],"split_conditions":[-4.9880207E-1,-5.7655835E-1,3.5651687E-1,5E-1,5E-1,5E-1,5.120294E-1,1.5963583E-3,9.7279064E-2,5.6578317E-3,1.05784096E-1,-3.8137783E-3,-3.171925E-2,4.3532442E-2,-3.612923E-3],"split_indices":[0,0,0,7,4,4,0,0,0,0,0,0,0,0,0],"split_type":[0,0,0,0,0,0,0,0,0,0,0,0,0,0,0],"sum_hessian":[2.3463618E3,1.1736344E3,1.1727275E3,1.1161404E3,5.749399E1,6.163439E2,5.5638367E2,1.1146428E3,1.4975501E0,4.7660572E1,9.833419E0,5.190638E2,9.728007E1,7.452775E1,4.8185593E2],"tree_param":{"num_deleted":"0","num_feature":"15","num_nodes":"15","size_leaf_vector":"0"}},{"base_weights":[-1.3777582E-4,-7.583522E-2,1.2993604E-1,-8.69054E-2,3.978154E-1,5.2993345E-1,-7.4817516E-2,-8.227429E-2,-1.3769409E-1,6.0919267E-1,-2.2677085E-1,4.9502504E-1,8.1373215E-1,-7.846782E-2,-6.918523E-2],"categories":[],"categories_nodes":[],"categories_segments":[],"categories_sizes":[],"default_left":[true,true,true,true,true,true,true,false,false,false,false,false,false,false,false],"id":61,"left_children":[1,3,5,7,9,11,13,-1,-1,-1,-1,-1,-1,-1,-1],"loss_changes":[2.3116856E1,7.816284E0,7.077606E1,3.2996273E-1,4.636642E0,2.4954224E0,6.3340664E-3,0E0,0E0,0E0,0E0,0E0,0E0,0E0,0E0],"parents":[2147483647,0,0,1,1,2,2,3,3,4,4,5,5,6,6],"right_children":[2,4,6,8,10,12,14,-1,-1,-1,-1,-1,-1,-1,-1],"split_conditions":[5E-1,5E-1,5E-1,5E-1,5E-1,5E-1,5E-1,-1.6454859E-2,-2.753882E-2,1.2183853E-1,-4.535417E-2,9.9005006E-2,1.6274643E-1,-1.5693566E-2,-1.3837046E-2],"split_indices":[9,10,10,13,13,13,13,0,0,0,0,0,0,0,0],"split_type":[0,0,0,0,0,0,0,0,0,0,0,0,0,0,0],"sum_hessian":[2.3457805E3,1.4830975E3,8.626829E2,1.450024E3,3.3073486E1,2.9154517E2,5.7113776E2,1.331255E3,1.18769066E2,2.4729115E1,8.34437E0,2.6205548E2,2.948966E1,3.3869583E2,2.3244196E2],"tree_param":{"num_deleted":"0","num_feature":"15","num_nodes":"15","size_leaf_vector":"0"}},{"base_weights":[-2.3932652E-4,-6.1415456E-2,1.0265624E-1,-6.1181754E-2,-7.631254E-2,1.0384003E-1,7.1140784E-3,-2.4263187E-1,5.1011615E-2,9.367733E-2,1.1309838E-1,2.1465819E-1,-2.2192842E-1],"categories":[],"categories_nodes":[],"categories_segments":[],"categories_sizes":[],"default_left":[true,true,true,false,true,true,true,false,false,false,false,false,false],"id":62,"left_children":[1,3,5,-1,7,9,11,-1,-1,-1,-1,-1,-1],"loss_changes":[1.4741248E1,4.4441223E-4,9.8018646E-2,0E0,4.0711606E-1,7.055092E-2,6.0666895E-1,0E0,0E0,0E0,0E0,0E0,0E0],"parents":[2147483647,0,0,1,1,2,2,4,4,5,5,6,6],"right_children":[2,4,6,-1,8,10,12,-1,-1,-1,-1,-1,-1],"split_conditions":[5E-1,5E-1,5E-1,-1.2236351E-2,5E-1,5E-1,5E-1,-4.8526373E-2,1.0202323E-2,1.8735467E-2,2.2619678E-2,4.293164E-2,-4.4385683E-2],"split_indices":[9,8,8,0,3,3,3,0,0,0,0,0,0],"split_type":[0,0,0,0,0,0,0,0,0,0,0,0,0],"sum_hessian":[2.3398298E3,1.4676486E3,8.721812E2,1.450008E3,1.7640457E1,8.6142114E2,1.0760039E1,7.2562437E0,1.0384213E1,4.1595468E2,4.4546646E2,5.67789E0,5.0821495E0],"tree_param":{"num_deleted":"0","num_feature":"15","num_nodes":"13","size_leaf_vector":"0"}},{"base_weights":[-2.272127E-4,-1.3759507E-2,4.5827676E-2,7.507329E-2,-2.3933956E-2,5.3895332E-2,-6.687358E-1,-1.1292008E-1,2.1454482E-1,-3.633041E-2,3.5808865E-2,4.4230755E-2,5.4240006E-1,-9.17756E-1,-3.0575642E-1],"categories":[],"categories_nodes":[],"categories_segments":[],"categories_sizes":[],"default_left":[true,true,true,true,true,true,true,false,false,false,false,false,false,false,false],"id":63,"left_children":[1,3,5,7,9,11,13,-1,-1,-1,-1,-1,-1,-1,-1],"loss_changes":[1.4516582E0,1.6289227E0,3.0855157E0,4.8813167E0,1.1981249E0,2.4498978E0,2.5993824E-1,0E0,0E0,0E0,0E0,0E0,0E0,0E0,0E0],"parents":[2147483647,0,0,1,1,2,2,3,3,4,4,5,5,6,6],"right_children":[2,4,6,8,10,12,14,-1,-1,-1,-1,-1,-1,-1,-1],"split_conditions":[5E-1,-1.0430961E0,2.698954E0,-8.4763145E-1,9.78567E-1,2.269065E0,-7.70949E-1,-2.2584017E-2,4.2908963E-2,-7.266082E-3,7.1617733E-3,8.846152E-3,1.08480014E-1,-1.835512E-1,-6.1151285E-2],"split_indices":[11,0,1,1,0,1,0,0,0,0,0,0,0,0,0],"split_type":[0,0,0,0,0,0,0,0,0,0,0,0,0,0,0],"sum_hessian":[2.3272441E3,1.7992671E3,5.279769E2,1.8424567E2,1.6150215E3,5.229967E2,4.980229E0,7.8553696E1,1.0569197E2,1.3378198E3,2.7720163E2,5.1391986E2,9.076844E0,2.0472949E0,2.932934E0],"tree_param":{"num_deleted":"0","num_feature":"15","num_nodes":"15","size_leaf_vector":"0"}}]},"name":"gbtree"},"learner_model_param":{"base_score":"5E-1","num_class":"0","num_feature":"15"},"objective":{"name":"binary:logistic","reg_loss_param":{"scale_pos_weight":"1"}}},"version":[1,5,0]}